2708 128
15429 -0.54719126 -0.21033956 0.7183845 0.15957701 0.53794914 0.32478955 -0.0929493 -0.6581817 -0.24134235 0.26671478 0.7142579 0.5694453 -0.18325649 -0.47150218 -0.6099602 0.15069747 -0.28434047 0.21418788 -0.7911928 -0.37415624 0.29222178 0.5685832 -0.7791267 -0.2742393 -0.28686145 0.48203313 -0.6898202 -0.09836845 0.40561393 0.319814 -0.120588295 1.1537975 -0.41708302 -0.15972298 0.18308692 0.50164694 -0.40239057 -0.97287023 0.10635418 -0.29277024 0.35814992 0.054118186 -0.4078656 -0.35465422 -0.14825097 0.1003431 -0.3695363 0.36743483 0.38735968 -0.33762312 -0.35051274 -0.47331986 -0.06518245 -0.43545058 0.14063337 -0.24766405 -0.17960504 0.08122588 -0.037662763 0.7551484 -1.3434126 -0.20684205 0.23441246 0.3198065 0.15261567 0.14934859 -0.033326555 0.5519128 -0.0036630966 -0.29924124 0.3354551 -0.42305228 -0.25620267 0.23766825 0.106095485 -0.74171925 -0.4457641 0.4055852 -0.0677134 0.27264196 -0.15336758 0.7176236 0.0841205 0.08437616 -0.07380643 0.35284036 -0.37410635 0.33380586 0.11426672 0.11862076 -0.36991107 0.05161344 -0.08423803 0.09640588 -0.11791293 0.052326355 -0.13539678 -0.43460014 0.27558994 0.42124876 0.16989562 0.306096 -0.16845877 0.2825489 -0.08325207 -0.11972515 -0.48594916 -0.7048872 0.27818295 0.3773999 0.8521046 0.042649504 0.77577424 0.26431817 0.0151202325 0.45405877 -0.52819115 -0.24010126 -0.15615769 0.72422206 -0.2541349 -0.6289809 -0.05331856 -0.2025029 -1.0552447 -0.036352076 0.08839176 0.372866
10177 -0.44541624 -0.12327137 0.7914004 0.17928497 0.43151405 0.44645715 -0.058047768 -0.5909642 -0.19498338 0.15459499 0.7512793 0.56054145 -0.1330643 -0.29219282 -0.64304715 0.1337129 -0.21345653 0.18106116 -0.8181107 -0.3886874 0.27464977 0.67315036 -0.8095073 -0.2888397 -0.30094883 0.44221893 -0.6539723 -0.19582145 0.41425484 0.30258876 -0.104061835 1.1398304 -0.34687608 -0.103110276 0.18896616 0.40217742 -0.38307244 -0.9078699 0.13773032 -0.22374806 0.2900956 0.05071064 -0.42382973 -0.3105725 -0.14455085 0.13495679 -0.3378631 0.27559546 0.35816994 -0.30620772 -0.42008913 -0.45268095 -0.08417199 -0.43757987 0.19591938 -0.15255761 -0.23948362 0.09186909 -0.014082929 0.78271616 -1.3601247 -0.17600316 0.22716564 0.33605495 0.12304018 0.06706325 0.0063955653 0.55177486 0.047896497 -0.2856596 0.32833508 -0.43904474 -0.28732774 0.21166526 0.0852445 -0.773268 -0.52014625 0.4097883 -0.040413015 0.33844474 -0.15816371 0.86664224 0.09278194 0.09959492 -0.08710818 0.3687096 -0.4040796 0.39651054 0.17196283 0.06733422 -0.4219695 0.069511004 -0.060555406 0.118422575 -0.10817908 0.06717135 -0.14115807 -0.45316777 0.3006202 0.4740754 0.15712273 0.21094315 -0.20783648 0.29152596 -0.17849892 -0.12451612 -0.5223459 -0.67584497 0.27383906 0.42138547 0.96130043 0.069396384 0.8123589 0.2385815 0.05975259 0.42341277 -0.5154078 -0.24266078 -0.113383785 0.7418449 -0.26198867 -0.70875007 -0.11086813 -0.19243926 -1.0620207 -0.18832171 0.083613075 0.30711466
6898 0.20060316 -0.11657748 -0.015520128 -0.7679121 0.8282827 0.08342486 -0.17927575 -0.31732902 -0.27521867 -0.050678782 -0.07903455 0.20736484 -0.31378204 -0.59838873 -0.24098344 -0.07028127 -0.21158229 0.33617908 -0.20656371 -0.5209538 0.019833079 -0.109542854 0.17532316 -0.619806 -0.37306497 -0.005406015 -0.4645576 -0.18767847 0.30436638 0.018495832 0.040616337 0.793311 0.26761493 -0.5573756 -0.08998865 0.4797561 -0.20084791 -0.07748719 0.33389008 -0.20902516 -0.15887257 0.13400584 -1.0932674 0.31928295 -0.6183041 -0.25978515 -0.026365556 -0.029995913 0.2939524 -0.43737766 -0.22303623 0.08888199 0.33406314 -0.37718296 -0.21889815 0.15156417 -0.36806953 0.7571262 -0.37041974 0.7698284 -0.44026178 0.12966919 0.6351635 0.44839755 -0.61314815 0.75711805 -1.170054 -0.21171547 0.3292474 -0.1414904 0.495575 0.4767505 -0.67319006 0.1810205 0.53925806 0.13318047 -0.34179157 0.74040884 0.08908248 0.49434072 -0.12636441 -0.113190755 -0.20056008 0.40163875 -0.011858908 0.31296805 -0.6123512 -0.12514485 0.039338067 0.17481343 0.19749902 0.19387108 0.16741984 0.16606955 -0.327532 0.30024716 -0.08750592 0.12697135 0.6218657 0.13576731 0.2104683 -0.29786825 -0.13570905 -0.19483694 -0.9478644 0.40949017 0.04023114 -0.047338177 -0.20845374 0.5758312 0.8943356 0.42563406 0.8439544 0.12604797 0.21843177 0.23343514 0.3138157 -0.031463757 0.055559732 1.0293883 0.15620837 -0.017926663 0.0020754407 -0.10662093 -0.8482209 -0.40885252 -0.059549745 0.23421222
2696 -0.45959002 0.25892794 0.051605187 0.12686895 0.52695596 0.20169412 0.3233099 -0.48027644 -0.3707096 0.7077297 0.9733114 -0.2990865 -0.6281518 -1.0134975 -0.5600237 0.4492629 -0.5210665 -0.32677767 -0.21136725 -0.07091122 0.6944867 -0.21855465 -0.69970423 0.38823006 0.44276568 0.5092757 -0.36191058 -0.014185022 0.3783782 -0.011895485 -0.377702 0.27631754 -0.097549334 -0.94305074 -0.23428188 0.09925486 -0.08298195 -0.008383579 0.4429811 0.010423284 -0.02469083 0.043196317 -0.11375146 -0.18438429 -0.46288636 0.50115114 -0.28607467 0.6255867 0.1521718 -0.34394985 -0.30940956 -0.21912964 0.23065671 -1.0451843 0.17399146 0.8618575 0.2305461 0.04146041 -0.46104527 0.35655147 -0.26146653 -0.07670671 0.17060955 0.28702682 -0.75966537 -0.19080506 -0.5274916 0.04116252 -0.39857584 -0.21638061 0.6452452 -0.5800979 0.35517672 0.5024124 0.4117595 -0.45034292 0.30856374 0.5717883 -0.45993182 0.069774136 -0.766993 1.1007708 0.22069444 0.011484301 0.67084783 0.20008205 -1.1742347 -0.41230398 -0.99789286 -1.0681131 -0.33154267 0.86050653 -0.092420176 0.16734768 0.54632753 -0.17448702 -0.4040987 0.18096143 -0.029585762 0.6877902 -0.08369245 0.5250637 -0.48626563 -0.06745477 -0.08465095 0.4468442 0.042030256 -0.11145824 0.19804993 0.0656308 1.0013931 -0.4388955 0.34174323 -0.089493684 0.50320685 -0.7329583 0.21706092 -0.7959924 0.6196718 0.6267525 -0.10326397 0.07313074 -0.62135917 0.112545505 -0.5048779 -0.24946713 -0.42953095 -0.36652085
5348 -0.42489678 0.23817001 0.015162891 0.20089416 0.5417844 0.25599983 0.18223655 -0.46717682 -0.3847116 0.75926137 0.9922479 -0.30656347 -0.618895 -1.0996591 -0.563973 0.5764541 -0.46926945 -0.23871823 -0.21744558 -0.058403652 0.68286824 -0.17910255 -0.72829425 0.34272 0.48197103 0.55585635 -0.45613134 0.0014004005 0.4619768 -0.023611866 -0.39540687 0.4011323 -0.093939975 -0.8555155 -0.22083716 0.048518233 -0.013752408 0.0009686614 0.43855616 -0.0012686274 -0.10446458 0.10148105 -0.07707434 -0.19267143 -0.4921169 0.55207425 -0.19023927 0.63162667 0.15186624 -0.4214933 -0.28708687 -0.3007116 0.34520322 -1.0331136 0.20808966 0.8441188 0.14654946 -0.044785988 -0.48558316 0.36754802 -0.2624047 -0.07635713 0.16606948 0.30711356 -0.7009386 -0.20643446 -0.5330449 0.096525714 -0.34307563 -0.22142847 0.6104557 -0.6100031 0.35516578 0.43176877 0.43646836 -0.44883505 0.31644762 0.59448105 -0.3904531 0.0997578 -0.67724353 1.01064 0.20308091 -0.014242439 0.67963153 0.109053105 -1.160827 -0.41937152 -1.0018369 -1.0495718 -0.37607622 0.79906374 -0.04487244 0.13908967 0.56698275 -0.13996813 -0.44414023 0.16997471 -0.010723481 0.73760825 -0.10738397 0.5126357 -0.4556909 -0.10752289 -0.11089667 0.39612713 0.021188239 -0.18276112 0.18798034 0.0419293 1.0899309 -0.45593253 0.37381968 -0.12261439 0.5810155 -0.7340962 0.25352994 -0.84026366 0.59816337 0.5979959 -0.12417985 0.06775412 -0.66089934 0.027507655 -0.5274686 -0.1784458 -0.4437757 -0.4157396
31353 -0.4681204 0.16212602 -0.028624654 -0.7568337 1.0171179 -0.055716388 -0.007441813 -0.4512414 0.10926231 0.23989423 0.19076777 0.19296657 -0.52539057 -0.47549343 -0.5780565 0.6490382 -0.43277934 0.9109066 -0.37164903 -0.34566742 -0.1937955 -0.4807206 -0.16286923 0.5279456 -0.24581288 0.26524916 -0.5045344 -0.071925856 0.42404392 -0.11703099 -0.21546471 1.299075 -0.016412139 0.27289352 0.47792265 0.37340468 -0.017556509 -0.2548971 0.4203333 0.19597182 -0.6776528 -0.2651662 -0.89571273 -0.43219158 -0.48439285 -0.063406855 -0.5334483 -0.7761648 0.20508894 -0.83690035 0.17649421 0.45865178 -0.12529372 -0.11223986 -0.4422703 -0.11804023 0.18885307 0.19635761 0.40149373 0.38151562 -0.7001737 0.664445 1.015598 0.5444084 0.2266633 1.0966688 -0.14818394 0.11670571 -0.31409255 0.41047195 0.6640075 0.113969065 -0.735418 -0.13730587 0.26420683 -0.7693567 -0.42630577 0.4982936 0.25472337 0.7904527 -0.17201877 1.0187229 -0.8570757 0.5957065 -0.21419951 0.44550562 0.19414186 0.4351091 -0.07607702 -0.032715317 -0.5080173 -0.2665142 -0.1022157 0.27736524 -0.18886009 -0.15766065 -0.12698188 0.12254604 0.40519953 0.14964883 0.01967615 -0.59785265 -0.12222855 0.14557283 -0.99887276 0.06080769 -0.59454286 0.035831597 0.03770538 -0.06695035 0.84736854 0.09402295 0.78690517 -0.5272494 -0.44354364 0.64131755 -0.41166738 -0.20252074 -0.20239438 0.35872003 -0.15248461 -0.16764188 -0.08895144 -0.41715753 -0.6455518 -0.35050872 0.35988685 0.09639671
10531 -0.41269028 0.14975488 -0.1443807 -0.7632552 0.9798807 0.015139413 -0.017602157 -0.4815399 0.08116231 0.19283774 0.15611601 0.32315162 -0.5297064 -0.44267765 -0.62462705 0.5493092 -0.40356806 0.9369023 -0.2856474 -0.26992095 -0.17784749 -0.5250931 -0.08511049 0.50929725 -0.20007928 0.322811 -0.55299824 -0.013427692 0.5140896 -0.18286972 -0.20920433 1.318083 0.061927486 0.2817242 0.41654286 0.34749588 -0.07706432 -0.26258367 0.52901304 0.15984315 -0.7720236 -0.245805 -0.88825023 -0.45253465 -0.48239058 -0.00811238 -0.4591054 -0.82757694 0.30289596 -0.8647899 0.10528684 0.4727416 -0.025656387 -0.21896319 -0.49223477 -0.15946718 0.1668319 0.31773296 0.3080546 0.44512674 -0.7188639 0.72483253 0.9594399 0.5139784 0.19923419 1.1315819 -0.13007969 0.18595393 -0.2681722 0.3727718 0.6234355 0.04802697 -0.70460147 -0.10288373 0.28548935 -0.7040652 -0.42456472 0.44961998 0.3096933 0.776382 -0.1715548 0.93072677 -0.77359444 0.57024074 -0.23091935 0.40056702 0.2615923 0.50048083 0.06036907 -0.059871614 -0.45749527 -0.2827962 -0.047738984 0.3458863 -0.17459 -0.19727026 -0.028599901 0.036167726 0.38071263 0.10343106 0.09054253 -0.6108491 -0.14520763 0.10730931 -0.9479089 0.055517662 -0.5967399 0.10033245 0.029054027 -0.07931804 0.9569129 0.13585733 0.76899195 -0.49744603 -0.4305012 0.6545498 -0.35914546 -0.17216232 -0.17376108 0.34031653 -0.1197849 -0.14131518 -0.09844306 -0.40308666 -0.64899987 -0.42470497 0.4106932 0.19603789
12631 0.24159954 -0.12698382 -0.05490823 -0.9008584 0.753267 0.09494986 -0.17023402 -0.2569158 -0.19181556 -0.019018859 -0.07556003 0.17437921 -0.24211627 -0.53469193 -0.33551434 -0.06918278 -0.17049408 0.27624434 -0.179444 -0.49336135 0.07995551 -0.12365151 0.2638286 -0.66585004 -0.30180618 0.09050327 -0.36015123 -0.2138453 0.38939455 0.04393004 0.021779446 0.8112051 0.22838007 -0.605142 -0.05644322 0.4838478 -0.11273667 -0.11123759 0.42340344 -0.1941904 -0.19560088 0.18537591 -1.082492 0.2722566 -0.6074585 -0.33488777 -0.08695663 -0.03415127 0.19472459 -0.5030118 -0.23145854 0.059443872 0.34960657 -0.40176758 -0.24447972 0.09062012 -0.36403137 0.6958727 -0.35189775 0.7512431 -0.42064705 0.116982915 0.61378723 0.3750985 -0.6198732 0.74945986 -1.1648972 -0.18833257 0.18910906 -0.12682822 0.48066217 0.47101262 -0.66310936 0.18451749 0.6302613 0.17639261 -0.25393957 0.81448925 0.0949223 0.6003928 -0.20487627 -0.20620367 -0.2552414 0.3326035 -0.012216675 0.32391775 -0.62049484 -0.08679871 -0.0031658672 0.16332255 0.1992835 0.20596029 0.30441314 0.1993756 -0.45168474 0.33108717 -0.05708308 0.0013639841 0.6013224 0.18463582 0.1985493 -0.32396254 -0.084924124 -0.25591746 -0.8872983 0.43990448 0.046856653 -0.11955924 -0.08805314 0.46133065 0.9715765 0.3813083 0.73707795 0.16028902 0.3029528 0.1886838 0.36141992 -0.03273765 0.0037242817 1.0734799 0.1348612 -0.102001704 -0.016055219 -0.14248046 -0.8672857 -0.47296482 -0.048949733 0.13358952
58758 0.33375806 -0.57803124 0.27928472 -0.7062846 0.4620044 -0.06518622 0.61907244 -0.7885002 -0.81326234 0.49510774 0.80717736 0.4974271 -0.83161825 -0.57402253 -0.6745738 0.18345606 0.10295663 0.0412814 -0.021745086 -0.3602478 0.49308273 -0.29278043 -0.26570594 -0.508352 0.26496506 0.33995682 -0.26907113 0.04219812 0.5714027 0.104547076 -0.21618825 0.89261997 -0.2289083 -0.6065888 -0.1734178 0.17023331 -0.61019343 0.07439449 0.038569838 -0.29334626 0.07940497 -0.5117527 -0.2759773 0.4077345 -0.3919898 0.90306705 -0.040796574 0.01109408 0.5947469 -0.6704978 -0.3774023 0.045095 0.32932112 -0.66958445 0.33821958 0.28734952 -0.34057212 0.42569777 -0.73781645 0.54608816 -1.0104184 -0.13587871 0.074708655 0.42103064 -0.73546594 0.12459833 -0.58205205 -0.5041109 0.5279205 -0.08710771 0.7097058 0.10644363 -0.09353361 0.43439254 0.61513466 -0.3939847 -0.27654037 0.50257766 -0.3670043 0.7110988 -0.7051495 0.6205895 -0.53358203 -0.062957734 0.35734192 0.12140644 -1.2193197 -0.21663778 -0.30138737 -0.21410677 0.6285586 0.71193683 -0.0583664 0.13955477 0.14939639 0.26402968 -0.013660155 -0.23848377 -0.03265823 0.12820475 0.16613609 0.5315633 -0.86334866 -0.2893485 -0.035793025 0.1005013 0.40194687 -0.44263148 0.009636694 0.5612208 1.2363919 0.31348628 0.38416672 0.29651183 -0.15671413 -0.11243454 0.38259408 -0.1954661 -0.041230775 1.1159623 -0.3187914 -0.20096116 -0.43236843 0.38730797 -1.3869637 -0.4097472 -0.21947944 0.461007
576973 0.28883824 -0.52948457 0.2937711 -0.7199743 0.60489136 -0.014007045 0.6185707 -0.8690968 -0.7852082 0.53145593 0.7653303 0.5351991 -0.85647905 -0.60433525 -0.74238104 0.30329597 0.09535212 0.040398035 -0.10235434 -0.45842347 0.52987194 -0.3099349 -0.33153012 -0.57067907 0.23396327 0.39077878 -0.2686235 0.10635423 0.62831837 0.11756063 -0.22978255 1.0730661 -0.2445861 -0.51292557 -0.14651388 0.14782181 -0.594451 0.07718278 -0.0099139325 -0.32965297 0.06531634 -0.50645775 -0.22359006 0.41788954 -0.36339068 0.86072123 -0.09704692 0.049108405 0.56408256 -0.6079638 -0.33407527 0.048916124 0.34772423 -0.6243713 0.29136702 0.25355947 -0.35071167 0.43500537 -0.6152723 0.52457374 -1.0280415 -0.07835165 0.11204955 0.3251595 -0.69560325 0.15255399 -0.44659486 -0.471117 0.550586 -0.13442995 0.6563035 0.13269393 -0.15774359 0.47734818 0.5425516 -0.36797786 -0.28121 0.49210325 -0.38372087 0.69598407 -0.63616306 0.5400405 -0.58692205 -0.16246931 0.2886694 0.13159041 -1.2326272 -0.2688007 -0.32920304 -0.24226278 0.60279536 0.66524225 -0.043775707 0.14291716 0.20196263 0.19673093 -0.092036836 -0.2867789 -0.014131334 0.10829124 0.17185217 0.54461646 -0.8307176 -0.29250854 0.028313706 -0.0048234444 0.34270924 -0.46143627 0.008748156 0.48333114 1.2269819 0.36741903 0.3680807 0.31111336 -0.17104097 -0.062608935 0.33134907 -0.20633869 -0.057942517 1.100393 -0.2677298 -0.11763171 -0.4442994 0.3810125 -1.3969594 -0.43394512 -0.2470377 0.47295478
123556 -0.1896202 0.7696557 -0.21611571 0.22241184 0.7512527 0.2543081 -0.7337911 -0.17666255 0.19021323 0.42795396 -0.07516557 0.23436071 -0.50698364 -0.50882715 0.7491595 -0.14653966 -0.046495724 1.3234186 -1.0130535 -0.22519767 0.09074502 0.2592543 -0.42610565 0.49353355 -0.5578386 0.029199997 -0.20453632 0.28012738 -0.4711311 0.16053942 0.07257645 0.89982563 -0.16242555 -0.44612697 0.33343196 0.44989717 -0.35527357 -0.5794302 0.9534318 -0.04149027 0.5439711 0.5912663 -0.69266987 0.09326579 -0.44736615 -0.39944336 -0.61614954 0.112764604 -0.123526886 -0.23122235 -0.13206336 -0.11708576 -0.28146347 -1.0635456 -0.3219734 0.31535846 0.17399758 0.49105677 -0.088225394 0.17549716 -0.22773279 0.09926381 0.7785003 0.60178876 -0.62981904 0.97982043 -0.26097435 0.6781837 -0.027899118 0.5927371 0.4909586 -0.10952514 -0.955957 -0.17884287 0.33480036 -0.49093962 -0.202838 0.50409573 0.8702925 0.5306728 -0.4856909 0.9729766 0.32864353 0.8364614 -0.008463691 1.163341 0.0809649 -0.03843196 0.42831132 -0.7317692 -0.4767637 0.46910584 0.44079095 0.16110267 -0.27105495 -0.112550825 -0.4149572 0.059984718 0.3552953 0.5936141 -0.05859246 -0.02312519 -0.83711845 0.33894333 -1.1047451 0.95369625 -1.1390238 0.24183214 0.52209985 0.7146896 0.45225284 -0.36371443 1.2655518 0.33364764 0.69233555 0.49929833 -0.04868511 -0.10264371 0.10283757 0.7279121 0.4874458 -0.09729779 0.1509972 -0.07664224 -0.12917238 0.05191958 0.04044642 0.4832878
50354 -0.21466018 0.78685606 -0.25768143 0.24216603 0.62079245 0.24509273 -0.7093431 -0.16939913 0.16005969 0.34666678 -0.11409253 0.18768713 -0.4741195 -0.50766325 0.7921903 -0.15106113 -0.07245127 1.1762704 -1.07135 -0.28364617 0.04210484 0.29716602 -0.48698598 0.47050127 -0.5273571 0.045318305 -0.19553617 0.31323233 -0.4915183 0.17832007 0.10192905 0.8219732 -0.19963288 -0.4131647 0.29634094 0.38169882 -0.33914265 -0.5784747 0.91924363 0.025190158 0.5066988 0.62806094 -0.70068896 -0.0075057154 -0.46964422 -0.3596516 -0.72568256 0.18586148 -0.15232706 -0.18240204 -0.045907013 -0.013679018 -0.16742533 -1.0727488 -0.26829052 0.3671275 0.17590314 0.51566005 -0.093253545 0.22753514 -0.26606092 0.23243994 0.88198984 0.5634076 -0.64656705 0.97266585 -0.20313624 0.6676119 -0.08827623 0.5577251 0.4819928 -0.07129774 -1.032188 -0.16460067 0.38735822 -0.42249078 -0.1280656 0.51168835 0.8139 0.48202035 -0.51743376 1.043444 0.2759608 0.9333496 -0.06348234 1.081623 0.043379683 -0.014864308 0.40050083 -0.7075022 -0.4152296 0.4747286 0.5497616 0.20355763 -0.24622802 -0.025482787 -0.46653676 0.119763695 0.37248838 0.54222095 -0.118679546 -0.07336941 -0.85907346 0.40482566 -1.1551559 0.9626358 -1.1354314 0.24961856 0.4724601 0.74987125 0.43779048 -0.40040115 1.3367432 0.2728309 0.7270174 0.4223012 -0.087101065 -0.03335982 0.013376989 0.772467 0.60608 -0.07229019 0.12083767 0.0393323 -0.21268238 -0.021427851 0.007365056 0.4708027
124224 0.16030963 -0.11038429 0.03556219 -0.8453042 0.76390046 0.19807042 -0.092081405 -0.27605715 -0.2852541 0.041121423 -0.022913514 0.19957529 -0.35990837 -0.655715 -0.3368494 -0.094159685 -0.14235511 0.39196733 -0.21437399 -0.500831 0.015122035 -0.07308168 0.2807177 -0.60194314 -0.379674 0.021539558 -0.35599223 -0.22904459 0.31977162 0.016376583 0.08613967 0.9171475 0.1785061 -0.5030679 0.03168989 0.5669211 -0.1306254 -0.12626815 0.39348093 -0.14124613 -0.22373585 0.12560542 -1.0437937 0.30854517 -0.64655703 -0.3110644 -0.06688364 -0.08414939 0.19131805 -0.4703035 -0.20502631 0.068065055 0.33808365 -0.42420813 -0.22745378 0.078192085 -0.36660025 0.71340626 -0.36550438 0.6878353 -0.47212875 0.08393539 0.55268586 0.42836353 -0.54030734 0.74305004 -1.1151251 -0.20753586 0.23474774 -0.16347936 0.5495935 0.47065225 -0.6566552 0.15473293 0.60242665 0.12527145 -0.29477522 0.7798549 0.048282236 0.5422137 -0.03493801 -0.18070497 -0.17567945 0.40114796 -0.09158986 0.3355621 -0.5718586 -0.13832761 0.09863899 0.14372481 0.16309057 0.25749856 0.34642127 0.22758399 -0.38088307 0.3577818 -0.14338681 0.022629237 0.5466523 0.13294253 0.2312123 -0.24974261 -0.17360017 -0.22195795 -0.9396813 0.40491825 0.019687066 -0.17297536 -0.08699683 0.48635992 0.8541293 0.43467805 0.8222805 0.1891771 0.28199682 0.25315547 0.2779313 0.016958646 0.05521631 1.0547098 0.15323095 -0.04635246 0.012137604 -0.1823665 -0.86090535 -0.41982865 0.04944878 0.22302027
12638 0.15115584 -0.19376396 -0.0004221736 -0.8247167 0.79769623 0.067969956 -0.14899729 -0.24407639 -0.18165785 0.015163523 -0.05869661 0.08733346 -0.27646017 -0.5901829 -0.2867067 -0.011110539 -0.20019506 0.38118806 -0.25975546 -0.61685383 -0.010020854 -0.10513057 0.21266234 -0.6342464 -0.3406536 0.008242514 -0.36753663 -0.25381374 0.39331374 0.025608433 0.052562967 0.9660708 0.13117959 -0.6110959 -0.015734026 0.41999665 -0.12363942 -0.039414242 0.31393585 -0.17405353 -0.18964344 0.14175668 -1.0849389 0.3453679 -0.5769818 -0.255596 -0.03423909 -0.001957081 0.14633447 -0.47711152 -0.09529079 0.0250492 0.27995688 -0.41619876 -0.14406247 0.19050962 -0.34285098 0.7042192 -0.36945873 0.72561145 -0.4199852 0.14160547 0.6020059 0.40116537 -0.4736683 0.65598273 -1.1480439 -0.22674662 0.20883659 -0.20668446 0.46162328 0.51516765 -0.5649049 0.18453582 0.57850313 0.14106487 -0.30678597 0.77281266 0.029855859 0.5061951 -0.12254375 -0.24678977 -0.17536886 0.4424644 -0.015194198 0.31191146 -0.58791524 -0.1579828 -0.00083011837 0.17664455 0.23207186 0.21657076 0.21420097 0.2355996 -0.34662482 0.3048865 -0.15653133 0.14128841 0.59147745 0.064522855 0.24660666 -0.3065586 -0.18170702 -0.20412122 -0.96273607 0.44836628 0.023348918 -0.13542594 -0.13873841 0.5390755 0.8200609 0.31062603 0.7819225 0.17059447 0.34675083 0.13654302 0.38067904 0.048322003 -0.015779022 1.1417524 0.22312513 -0.064259164 -0.036658254 -0.21559846 -0.8113362 -0.39685255 -0.10395476 0.116793774
35 0.14378826 0.00056324946 0.52521545 -0.22911663 0.26075998 -0.514425 0.4308083 0.3353921 -0.75129217 0.21315144 0.37643763 0.65398806 -0.5991574 -0.302531 -0.010013981 0.5103444 -0.3679857 0.38015607 -0.37101272 -0.11433407 0.5142575 -0.15178895 -0.45266834 0.15217657 -0.21988027 -0.3661412 0.35293654 0.39424804 0.011675678 0.15080686 -0.016011985 -0.14749135 -0.056917302 0.082428545 0.13443223 0.7950301 -0.6346003 0.29298994 -0.014441785 -0.22276483 -0.33292848 0.12101175 -0.4420816 -0.41784784 -0.5531498 0.72203463 0.009120094 -0.36470944 -0.1879425 -0.1514173 0.19528744 0.5812613 -0.11597561 -0.5152869 -0.023100205 0.057634648 -0.12084142 -0.18983051 -0.28472212 0.37324145 -1.2652737 0.37074345 0.43410328 1.3472651 -0.70155996 0.8067753 0.47536054 -0.109909624 -0.059366044 -0.42624247 0.409868 -0.6717894 -0.30670428 0.28058398 -0.07334968 -0.17711169 -0.40586036 0.38290063 -0.25183043 0.1349745 -0.12719382 1.2967741 -1.0544894 -0.13903196 -0.01876639 0.49177343 0.024969252 0.1424321 -0.12646227 0.27100435 0.2761392 0.5468293 0.2155373 -0.054424927 -0.32565412 -0.19537507 -0.22813325 -0.30727583 -0.44093847 -0.047327615 -0.2724404 -0.20074895 -0.37524527 -0.40474778 -0.48455572 0.09038516 -0.25533012 0.06683162 -0.01464231 0.5760605 0.35564312 -0.24668981 0.20886229 -0.18551326 -0.17885832 0.012063414 0.28796533 -0.10596459 -0.5785332 0.94044125 0.07791662 0.5099086 -0.41537353 -0.32505098 0.07137902 0.010617574 0.7442103 -0.16953184
11339 -0.67465496 -0.39926043 0.10136808 -0.3890197 0.98069155 -0.49223804 0.31554508 -0.85554934 0.71149135 1.0718093 0.44851786 -0.042853884 -0.19247374 -0.4827553 -0.0747667 1.2124335 -0.114492625 1.3445946 -0.86665297 -0.8854382 0.36038297 0.027574265 -1.0077078 0.50885737 -0.072794035 -0.30344027 0.17548504 0.32292762 -0.10793455 0.27892447 -0.09366255 0.7107453 -0.37468857 0.26398468 1.1279202 0.5476183 0.18722342 0.38304347 0.15534234 -0.4277393 0.07603732 0.06264312 -0.50018466 -0.21842484 -0.9964684 0.2539375 -0.5462055 -0.4505742 0.826996 -0.20278774 0.09026503 -0.12950721 -0.8799018 -0.6605635 -0.005616625 0.7445697 0.4167757 -0.7563814 0.0378708 0.3869004 -0.99525875 -0.0035755194 0.62809324 0.7412779 -0.7649258 0.58498776 -0.42597622 -0.03540739 -0.59848857 -0.12471431 0.28893363 0.61792403 -0.14389953 0.32708848 0.10281034 -1.0715753 -0.10818346 0.83033055 -0.059589777 1.0073069 -0.76543486 1.0699298 -0.38002595 0.66080445 0.34508047 0.6263676 -0.40382606 -0.16199791 -1.0189978 -0.39870003 -0.23322377 0.45676234 0.78808635 -0.9009122 0.48476806 0.03143556 -0.6542825 -0.05091598 0.1069127 1.1962965 -0.08448733 -0.35512653 0.055703156 0.3797952 -0.75190574 0.41139376 -0.7883025 -0.2784526 0.41664535 0.54025275 0.525565 -0.17554186 1.0975021 -0.4687421 -0.53427 -0.04484513 -0.6534597 -0.57795066 0.031663086 0.6406509 -0.23678759 -0.39486343 0.4308557 -0.63551825 -0.29084817 0.77425295 -0.22289164 0.03084764
11326 -0.5647746 -0.35466626 0.11794742 -0.3206081 0.9805102 -0.45838022 0.2644532 -0.76542044 0.7086519 1.0241073 0.41765273 0.06190405 -0.29460564 -0.46312767 -0.015827496 1.1648381 -0.16099852 1.419374 -0.8001391 -0.8211519 0.24922183 0.03300705 -0.9256102 0.470943 -0.056887884 -0.24087498 0.17440008 0.3787124 -0.15467536 0.35826296 -0.056128502 0.6794539 -0.3100817 0.38766336 1.237389 0.66806275 0.077094406 0.35613474 0.18943228 -0.43576118 0.09314024 0.13186377 -0.5234216 -0.19268218 -1.0836654 0.29850867 -0.444465 -0.47705775 0.9269875 -0.22937882 0.08244505 -0.17880078 -0.8384225 -0.71301466 -0.030121556 0.6909727 0.38469335 -0.6893794 -0.05626201 0.36807427 -0.9652566 -0.11609963 0.54908645 0.745459 -0.7185919 0.745072 -0.47411022 0.002156537 -0.5882125 -0.14199147 0.29578573 0.63358533 -0.19924344 0.31886736 0.20251596 -1.0285938 -0.07253764 0.9498188 0.06624013 1.035784 -0.6553232 0.9879875 -0.40679923 0.7146884 0.29171833 0.64795506 -0.32917252 -0.14999932 -0.8893902 -0.38379255 -0.105066516 0.40094197 0.88688564 -0.9186477 0.44548824 0.012214632 -0.71281165 -0.036571827 0.15099005 1.21721 -0.04064569 -0.40663925 0.035228368 0.27830374 -0.78946763 0.56087804 -0.8208399 -0.21364719 0.4663068 0.60849583 0.5059975 -0.1787762 1.1410863 -0.45959437 -0.42983058 0.09313281 -0.64444166 -0.6341056 0.01575839 0.64980215 -0.24618264 -0.39197937 0.48143646 -0.74631286 -0.25876132 0.7636947 -0.17852429 0.10409943
210871 0.02750724 -0.3367556 0.27118194 -0.62300783 0.14195962 -0.2426708 0.26965928 0.12505117 -0.7123862 0.070915245 0.08150874 0.79108196 -0.5877136 -0.22535004 -0.11773599 0.54519916 -0.39247862 0.239063 -0.20065506 0.04656234 0.40507326 -0.16087304 -0.38588235 0.072223276 -0.4434293 -0.17453322 0.056204807 0.4257489 0.14997719 0.1561199 -0.45980918 0.07603013 -0.084222674 0.15565884 -0.123881996 0.8359181 -0.94442356 0.54482824 -0.058023784 -0.42439687 -0.18462089 -0.29157457 -0.62042445 -0.6701628 -0.39158064 0.4623063 0.010023445 -0.026280068 -0.1329287 -0.43451393 -0.09762331 0.1540142 0.015585419 -0.7246707 -0.0064107794 0.4057643 0.14035049 0.16611601 -0.25365883 0.5540321 -1.0122396 0.5841871 0.5559747 1.2024689 -0.64760464 0.82910407 0.34742832 -0.483614 -0.19927864 -0.28259423 0.37002215 -0.80457217 -0.46625525 0.5696554 -0.11640915 -0.1793748 -0.40969944 0.57270086 -0.2701273 0.21929829 0.104076214 1.0218774 -0.97438884 -0.053249273 0.11215214 0.26388717 -0.2026361 0.03849062 -0.109701306 0.40387598 -0.28540608 0.23200707 0.09626958 -0.12469106 -0.32558274 0.096238025 -0.2011975 -0.19348995 -0.16868225 -0.098368526 0.0042861756 -0.29461083 0.31344816 -0.28710583 -0.3778192 0.014138532 -0.07697009 0.1509429 -0.11225772 0.32706407 0.3480538 -0.03286147 -0.2533925 0.058352333 0.012652796 0.123434216 0.16748829 -0.50196993 -0.41736576 1.0992912 0.34825554 0.35128036 -0.6008303 -0.34416682 0.18790409 -0.061388385 0.76775473 -0.31287578
648112 -0.5652203 -0.041298505 -0.16808 -0.14801517 1.3359014 0.428443 -0.32413977 -0.8142221 0.270286 0.44636717 -0.042725492 0.105802014 -0.43413657 -0.7126987 -0.46838552 0.57056534 0.0883899 1.042226 -0.5756337 -0.38331127 0.44811046 0.053333495 -0.8009768 0.3180932 0.27715573 0.36211678 -0.7624755 0.50394535 0.39899537 0.5976001 -0.603391 1.1896411 0.37137017 -0.6468783 -0.1547707 0.19828786 -0.51641643 -0.03633995 0.29330334 -0.47955883 -0.046922676 0.40000203 -0.5689767 -0.58617425 -0.841212 0.46531656 -0.7517715 0.32965103 0.83694327 -0.52857804 -0.75308084 -0.0034361973 -0.25481662 -1.187784 -0.6813789 0.45271242 0.034496646 0.6829838 0.044786807 0.3738382 -0.8093303 0.06369769 0.34281585 0.3686984 -0.72712725 0.91769385 -0.7136749 0.5007261 -0.4494602 0.18934816 0.03758322 -0.06052897 -1.1293497 0.41570255 0.7375342 -0.838698 0.2464816 0.83099544 1.0967824 1.1246022 -0.9479368 1.2108219 -0.55419016 0.28990912 0.2734413 0.7202283 -0.80223733 0.13061336 -0.34599888 -0.4324006 -0.5986035 0.1370885 0.022633769 -0.616103 0.310114 0.111772954 -0.24824238 -0.4945357 0.2593941 0.54127145 -0.05058003 -0.45805386 -0.3005566 0.13768217 -0.16988154 0.61983585 -0.6495062 0.30351123 0.46026537 0.3667237 1.0137515 0.12735677 0.6112888 -0.25280768 0.39989582 0.39115912 -0.047748014 -1.1265403 0.6533044 0.56806725 0.32096285 -0.711322 -0.17156038 0.16462803 -0.8499125 -0.064703904 -0.23206696 0.30902445
48781 -0.4292439 0.42523542 -0.6896994 -0.18210511 -0.21249697 -0.6695547 -0.088635504 -0.40790305 -0.03431955 0.049177382 0.035364635 -0.20971276 -0.47004303 -1.0850238 0.65619016 0.24176115 0.049543887 0.90452844 0.32721123 -0.5926773 0.81591934 -0.25674966 -0.37467027 -0.0094895065 0.67967165 -0.29878783 -0.60131824 0.01988277 0.3346578 -0.03080003 -0.6650105 0.29770732 0.76777047 -0.95804054 -0.16714992 0.4903175 -0.34254012 1.1685231 0.8739261 -0.82095975 -0.46427405 0.43243307 -0.9945798 -0.6343072 -1.0542402 0.9685859 0.59800696 0.85258436 0.5255635 -0.8347182 0.60933703 -0.74966884 -0.2717208 -0.44145828 -0.15612692 1.3310858 0.20423354 -0.14406411 -0.6473649 0.70073706 -0.2261026 0.16305473 0.5520519 0.5225184 -1.379048 0.0100743 -0.34317964 0.073104136 -1.0163682 0.40006042 0.20588422 0.21365082 0.21154742 1.165554 1.1554857 -0.032837294 0.85541284 0.6785306 0.016484393 0.39108226 -1.5752949 0.39842823 0.34213027 1.092759 0.8516251 0.82160693 -0.7940204 0.07289332 -1.2404069 -0.3204984 -0.023073114 -0.45951328 0.33279014 -0.6188332 0.70946026 -0.30700994 -0.20172393 0.03361438 -0.48513824 0.21822524 -0.49743596 -0.56855124 -0.23081484 -0.009865608 -1.4153221 0.41686812 -0.68009394 -0.23419592 -0.16124052 -0.20587972 1.4209592 0.06120158 1.3686984 -0.40811554 0.89704967 -0.8708626 0.34972042 -0.62917626 0.44212312 0.92922306 0.091592334 -0.94808036 -0.34269297 -0.118783586 -1.1733575 -0.3052127 -0.28619647 -0.5229274
648106 -0.57456005 -0.011907409 -0.19096187 -0.15105668 1.3236607 0.4080159 -0.32241958 -0.80198675 0.25514314 0.44164687 -0.029824987 0.09837782 -0.45498377 -0.71251637 -0.45815334 0.5611282 0.07827827 1.0324196 -0.5562117 -0.36676103 0.44609728 0.028644457 -0.7968645 0.32947564 0.28687936 0.35803497 -0.7501611 0.50804085 0.37994123 0.596858 -0.60749114 1.1585847 0.37398404 -0.6446669 -0.16409862 0.20058903 -0.5106492 -0.019482236 0.30502415 -0.45817697 -0.054514255 0.41060838 -0.572899 -0.5824367 -0.83370733 0.45388576 -0.74862164 0.32332563 0.801202 -0.5388328 -0.74623096 -0.0008309128 -0.2374409 -1.2012734 -0.6801039 0.46044397 0.059918374 0.67396265 0.0328216 0.36533654 -0.7876708 0.06637552 0.35414279 0.36786234 -0.73174155 0.9096422 -0.7035799 0.50026375 -0.4714363 0.20542262 0.04269912 -0.07536326 -1.0944101 0.41805956 0.7449495 -0.83149546 0.26915625 0.8139786 1.0823997 1.0943015 -0.94882286 1.2160009 -0.53267825 0.30330083 0.26954016 0.7193424 -0.790687 0.12618844 -0.35032496 -0.47262508 -0.5923797 0.14718461 0.035632417 -0.59406096 0.3112454 0.09995995 -0.24864225 -0.4625714 0.2617015 0.53306615 -0.046858672 -0.43909597 -0.30963424 0.1341396 -0.19507796 0.6229001 -0.6374178 0.31210095 0.46229956 0.35085106 1.0074108 0.10665519 0.603848 -0.2507426 0.41247404 0.3633659 -0.0344562 -1.11465 0.66325116 0.55985785 0.30714223 -0.7045523 -0.19267946 0.16380759 -0.832245 -0.06513221 -0.22378512 0.28314117
154047 -0.8727547 0.61646485 -0.3571163 -0.660407 0.7568911 -0.56301033 0.1989507 -0.024330793 -0.5504729 0.21642712 0.42881814 -0.0998385 -0.7715571 -1.2255946 -0.3965373 0.30796695 -0.5769369 0.45139074 -0.4079733 -0.30273628 0.4035077 -0.67529017 -0.34451848 0.37524366 -0.5255639 -0.22339812 -0.341705 -0.34800702 -0.048044454 0.1744084 -0.8431643 0.6934091 -0.3734179 -0.57250327 -0.054757953 0.5950315 0.021939931 -0.19162041 0.8115474 0.13042824 -0.46405423 0.25887087 -1.1817455 -0.438443 -0.69012064 -0.07133677 -0.3334586 -0.13350017 -0.5811333 -0.977244 0.040828437 0.10128298 -0.16820763 -0.70181715 -0.2985858 0.51372653 0.18288499 -0.1462164 -0.14109099 0.6436262 -1.008903 0.75863993 1.1327428 0.738209 -0.698939 0.3553868 -0.12585402 0.5104053 -0.6888712 0.12902747 1.0184182 -0.09310237 -0.41984934 0.2844045 1.0236957 -0.9321467 -0.3505323 0.354026 -0.31738085 0.017077038 -0.87934506 1.4557543 0.29857522 0.52488166 -0.15702774 0.38747978 -0.36132812 0.37397164 -0.2713352 -0.45996603 -0.5246785 0.20672624 0.14049141 0.6247934 -0.17909352 -0.41819802 -0.18087977 0.25352064 0.453696 0.3105163 0.39688432 0.23870997 -0.8289034 -0.027339224 -1.4624884 -0.10207088 -0.8457621 -0.30119914 0.08726598 0.15808989 1.1986924 -0.23780902 0.9145811 -0.27136555 0.0051152706 -0.37951207 0.013194823 -0.021533616 0.14074595 1.1195568 -0.2559586 -0.20960899 -0.69491285 -0.383393 -1.309492 -0.6142949 0.54312074 -0.40621886
154023 -0.88155603 0.6249325 -0.37165362 -0.65948623 0.7606429 -0.57126844 0.20045885 -0.016988339 -0.56791407 0.21957903 0.43734342 -0.10209757 -0.78103995 -1.2418336 -0.39025083 0.29008377 -0.572504 0.45544562 -0.40688157 -0.3131781 0.40277755 -0.6770771 -0.35818046 0.36654282 -0.5329172 -0.236209 -0.33847466 -0.36378932 -0.058607273 0.18480968 -0.85638344 0.6959957 -0.3685295 -0.5980532 -0.06620139 0.6102667 0.0037237983 -0.18406262 0.8197681 0.13201138 -0.4684584 0.27376184 -1.1981623 -0.43816844 -0.71003544 -0.07248923 -0.33432394 -0.12301216 -0.59034044 -0.98781836 0.03424299 0.09876622 -0.16072221 -0.71410525 -0.29791453 0.5188255 0.17863093 -0.13240261 -0.16162536 0.65074146 -1.0295528 0.76146835 1.142971 0.75494516 -0.7241845 0.3635332 -0.14331757 0.520289 -0.6893215 0.12901133 1.0284457 -0.096767634 -0.42761898 0.28958178 1.0454296 -0.93952036 -0.3466158 0.3538368 -0.31498876 0.016091457 -0.8898736 1.46594 0.311314 0.5342361 -0.15635842 0.39218304 -0.38887802 0.36449113 -0.26852375 -0.46214458 -0.5196853 0.21327725 0.15576604 0.6290732 -0.18322395 -0.4073486 -0.1860416 0.24756482 0.45420972 0.3124744 0.40525252 0.24611405 -0.8520387 -0.03006912 -1.4751036 -0.093287155 -0.8523997 -0.30905795 0.0917032 0.17764814 1.2129955 -0.23084626 0.9226168 -0.26538935 0.022127865 -0.3930741 0.024649255 -0.015542289 0.14959815 1.1512133 -0.25621802 -0.21008381 -0.7016928 -0.37262866 -1.3329836 -0.62188953 0.54497564 -0.40714532
423816 -0.51142067 0.36786783 -0.6774482 -0.19331565 -0.16731867 -0.61330163 -0.10610596 -0.39770854 -0.08278322 0.07577245 0.050915375 -0.118078634 -0.49455106 -0.94541144 0.4952945 0.26297447 0.04174658 0.8395812 0.26043662 -0.545802 0.8228063 -0.22546189 -0.5068808 0.029862741 0.6947944 -0.21791823 -0.5885829 0.04969044 0.3886725 -0.0060656713 -0.6614376 0.48021147 0.81495804 -0.9931391 -0.2180769 0.39239195 -0.35102955 1.2975338 0.8713332 -0.77288955 -0.53444135 0.35676065 -0.96228296 -0.7223033 -1.0173995 1.02567 0.53387535 0.8487859 0.6180485 -0.92826223 0.6343087 -0.6840764 -0.27152693 -0.43005705 -0.1487121 1.3567508 0.21165779 -0.11295955 -0.5127779 0.6153842 -0.25579447 0.29375696 0.6038101 0.488285 -1.4464835 0.036012046 -0.33203262 0.022271352 -1.0521737 0.48464748 0.08150878 0.24630627 0.20820852 1.1915023 1.1564244 -0.063103214 0.96543944 0.6713964 0.06686318 0.46389773 -1.6692973 0.4229538 0.2362254 1.1321123 0.9695761 0.8369663 -0.85478705 0.07929049 -1.354436 -0.37714815 -0.0058834217 -0.44458765 0.31703544 -0.64339864 0.79976183 -0.34278584 -0.124463566 0.0388914 -0.60608983 0.18737651 -0.5682806 -0.6138624 -0.26186565 -0.0031382092 -1.430069 0.38388872 -0.61389947 -0.21038097 -0.16976736 -0.3087547 1.4503248 0.020555833 1.3471762 -0.5115074 0.92315227 -0.87518305 0.4502351 -0.715784 0.46944055 0.8639324 0.13249245 -0.9680751 -0.38721162 -0.093178324 -1.1501162 -0.36956045 -0.27295816 -0.5850808
210872 0.047202967 -0.01104923 0.17947848 -0.5969737 -0.4364806 -0.65087694 0.47078446 0.29772887 -0.84804153 0.47177488 0.18516721 0.9422233 -0.48398766 -0.39396176 -0.3489004 0.3113443 -0.34322855 0.37633935 -0.33405238 -0.2650505 0.40314138 -0.42320514 -0.56626993 0.111601666 -0.6668919 -0.19486405 0.2606506 0.46340325 -0.3596639 0.17177874 -0.44589654 -0.24043903 0.13866754 0.1504697 0.27093753 0.7211805 -0.23514648 0.35301065 0.0026696646 -0.3175782 -0.33753124 -0.056296155 -0.8821921 -0.6101898 -0.13718222 0.6914309 0.024585102 -0.15494585 -0.32603577 -0.41643667 0.3064419 0.095046334 -0.066940755 -0.3597111 -0.284501 0.044178993 -0.33128035 -0.3950829 0.08182632 0.7795938 -1.0017399 0.6535554 0.50828683 1.2276946 -0.46495685 0.91454417 0.3605852 -0.43797988 0.11641497 -0.46611217 0.20496807 -1.0465963 -0.3717996 0.45647535 0.3869749 0.10115204 -0.30976316 0.59794766 -0.2194649 0.21186875 -0.3316082 0.8385598 -0.9260722 0.09403774 0.42519033 0.437845 -0.33957514 0.5582824 0.27766687 0.534807 -0.25116897 0.19252673 0.27193582 0.21584408 -0.41045368 0.11065179 -0.0051747407 -0.42999056 -0.5291136 -0.28470314 -0.35373235 0.19454415 -0.18078427 -0.15926324 -0.29224774 0.14310046 -0.44116476 -0.10696796 0.011413351 0.31848145 0.5218227 -0.5731026 0.41996214 0.1993725 0.42319775 -0.07409007 0.26081815 -0.75528777 -0.5610975 1.2439616 0.072162986 0.34539494 -0.2996614 -0.6624909 -0.11487198 -0.1667637 0.901328 -0.31447417
103430 -0.11397139 0.088532664 -0.114747606 -0.9093181 0.5719119 -0.09796986 0.30300793 -0.08636113 -0.64457184 -0.52961206 -0.24546623 -0.016019693 -1.1349715 -0.6811279 -0.53143084 -0.444071 -0.34959197 -0.08822091 0.6985609 0.18103047 0.7767952 -0.67800057 0.5839102 -0.13940753 0.56668746 -0.004104133 -0.8606311 0.38777822 0.79168063 -0.016400846 -0.6147944 0.1157354 0.63239104 -1.255221 -0.9616225 0.60395604 -0.5693709 0.26197475 0.67489 -0.58618224 -0.28429922 0.43181455 -0.9501418 -0.13906592 -0.3856482 0.77313906 0.18961126 0.5246328 0.21511073 -0.5742836 -0.74977016 0.17410679 0.30382732 -0.83937 -0.36530676 0.42262942 0.6197027 0.97873276 -1.1139488 1.0438508 -0.3923606 0.4078074 0.2139462 0.117684156 -1.2639817 0.34924626 -0.012667547 -0.23383729 -1.1189617 -0.0748451 0.7044893 -0.10798854 -0.053035393 0.7368638 0.90137786 -0.45987582 0.42101654 0.4271254 0.025326595 0.32232752 -1.3636754 0.95677596 0.3659127 0.27318653 0.04689522 0.6394189 -0.6514533 0.16431345 -0.4904366 -0.83046156 0.21542086 -0.012064787 -0.45515814 0.02302567 -0.005274904 -0.3252986 0.3989624 -0.13278003 0.42186192 0.0005612735 0.53961456 -0.044415 -0.5466949 -0.36145824 -0.9500109 0.1800427 0.011725562 0.70933276 0.27268592 -0.39309984 1.3845545 0.3895431 0.16379501 0.56909454 0.34715688 -0.5271852 0.49062932 -0.34021086 0.56504655 1.2809206 -0.052992582 -0.5356883 -0.9011133 0.23595399 -1.3444929 -1.1722404 -0.032705482 0.19516033
75318 -0.13654624 0.086435884 -0.037416246 -0.8353769 0.7372322 -0.073090434 0.29561767 -0.15063305 -0.62933 -0.5275872 -0.28194323 -0.052362263 -1.1171105 -0.76143354 -0.4952782 -0.35171095 -0.42946917 -0.04295945 0.7502709 0.2556486 0.7902757 -0.767219 0.6137816 -0.003775556 0.51592684 0.024976106 -0.8090331 0.52871895 0.7561651 -0.065617695 -0.61594677 0.07359115 0.69479066 -1.2466941 -0.9420498 0.6028148 -0.5144998 0.17371912 0.7390683 -0.6029339 -0.24531497 0.45799926 -0.8893951 -0.2268499 -0.3649185 0.74732935 0.10107756 0.46234432 0.11657613 -0.50003374 -0.7959065 0.22106925 0.29924202 -0.94028205 -0.48199812 0.47587004 0.7146038 0.99332595 -1.0616622 0.97629696 -0.2745951 0.43245628 0.22570504 0.07630457 -1.2465065 0.38432008 -0.023584269 -0.21879633 -1.207913 -0.06670103 0.7286951 -0.0803619 -0.13581344 0.7393728 0.90141356 -0.46913072 0.44010204 0.43248478 0.11106043 0.35067877 -1.4095912 0.9758349 0.40980306 0.26684052 0.055083424 0.7357122 -0.5996916 0.1258002 -0.51885164 -0.9321082 0.08816647 -0.07785743 -0.49915612 0.036759455 0.0026739163 -0.3838025 0.42773572 -0.07404072 0.49620628 0.14312172 0.57919663 -0.1542618 -0.55562484 -0.38324097 -0.9160502 0.28360802 -0.06033655 0.86692816 0.31867486 -0.39786223 1.3547236 0.36875764 0.033351827 0.5405214 0.36236975 -0.49334797 0.41340235 -0.38843775 0.58795625 1.2155812 -0.018529931 -0.51277363 -0.8792428 0.28276736 -1.2255371 -1.1793092 -0.04486842 0.23738536
35335 -0.04968194 -0.48656824 -0.53937846 -0.25379676 0.49999654 0.5355741 0.21024914 -0.22856764 -0.18112738 0.60762 0.3887657 -0.33027786 -0.17538561 -1.263183 -0.054001346 0.3341812 0.40557122 0.744626 -0.46863645 -0.4037765 0.14747572 0.24192242 0.0069093383 0.110034175 -0.12983683 -0.18739912 -0.2014663 -0.21231523 0.01024655 0.20407817 -0.27923682 0.75800645 0.38330337 -1.5144602 -0.30685714 0.8660682 -0.558802 0.03986669 0.6669989 -0.3856979 -0.27552462 0.3142151 -0.5841508 -0.28560662 -1.5217646 0.857112 0.11132092 0.3690767 0.59450436 -0.73871183 0.092288196 -0.0800729 0.24432728 -0.7607073 -0.06203963 0.845604 0.036657806 0.6944609 -0.43755838 0.45390922 -0.50000656 -0.050485842 0.22521202 0.75819355 -0.5054199 0.5794106 -0.7783885 -0.28201568 -0.41680282 -0.43575284 0.93714917 -0.10604451 -0.4456932 -0.13030933 0.7920784 -0.7812552 0.14523539 0.522015 0.62299216 0.9804954 -0.6140863 1.020324 0.0737389 0.42411375 0.6101645 1.0603799 -0.96669364 -0.33091998 -0.49570242 -0.22236338 -0.42071682 -0.1354643 0.2819327 -0.30567124 -0.031129608 -0.0309569 -0.1789916 -0.72010756 -0.21198794 0.24076734 -0.035056923 -0.5706515 -0.66180396 0.3442445 -0.40669897 0.8053364 -0.6423886 -0.049208324 0.09579778 0.3642957 1.1693074 0.5590378 0.42781305 0.022115959 0.3702965 0.2401272 0.008323201 -0.57904124 0.5925515 1.2603418 0.095089294 -0.36298826 0.15910451 0.20152512 -0.8138648 -0.52645797 -0.15369467 0.5698446
59772 -0.08246491 -0.49832675 -0.5669302 -0.24300314 0.52535206 0.5565714 0.19071795 -0.2206384 -0.17367175 0.65223235 0.40623719 -0.3369758 -0.17424792 -1.2895746 -0.063280016 0.34126353 0.3980722 0.7798166 -0.49565613 -0.4321516 0.15567465 0.24066055 -0.017032444 0.10230402 -0.13390967 -0.1766691 -0.21207227 -0.2243537 -0.022861263 0.2491874 -0.28368095 0.7863433 0.40249288 -1.5638001 -0.32456338 0.9135427 -0.5942638 0.036475096 0.69528276 -0.3767046 -0.27841648 0.31704396 -0.61248595 -0.32028875 -1.56241 0.8694855 0.09303345 0.3841594 0.63300806 -0.7726001 0.070480525 -0.06677716 0.260682 -0.7768567 -0.07739366 0.8387683 0.047673833 0.71114457 -0.42486554 0.45250365 -0.538247 -0.03995125 0.24704506 0.77674836 -0.5007263 0.6015883 -0.8168381 -0.29335305 -0.4305931 -0.451271 0.9646181 -0.112545624 -0.4698484 -0.13841656 0.79705006 -0.80582476 0.1544331 0.54673654 0.6653756 1.0032257 -0.60171777 1.0420359 0.06702163 0.43152225 0.61308 1.0733975 -1.0126988 -0.32784626 -0.49095437 -0.22333264 -0.45453414 -0.13748832 0.28911892 -0.31371644 -0.04253439 -0.04585183 -0.16931911 -0.733254 -0.20574783 0.24795246 -0.023478618 -0.6065764 -0.64954966 0.34504429 -0.42169094 0.8355275 -0.6452461 -0.05380262 0.08144445 0.40506575 1.1963392 0.55676866 0.43292123 0.0048356755 0.36417878 0.25652272 0.0043988354 -0.6082944 0.61777955 1.2971771 0.096634425 -0.38958678 0.17109439 0.21202922 -0.83650666 -0.55167747 -0.16753945 0.5609698
643221 -0.21147172 -0.32759506 0.49982247 -0.47600192 1.4583858 0.4417316 0.4129402 -0.29219803 -0.06525915 -0.22339286 0.10454853 -0.28850242 0.17859983 -1.404618 -0.8838726 0.76082736 -0.5143985 -0.23197353 0.024566587 0.106069274 0.6678711 -0.10170534 0.37365425 0.14667186 -0.32561636 0.39380965 -0.44801357 -0.054400552 1.0729848 -0.27400735 -0.2724026 0.6502762 0.2509257 -0.30109987 0.5804404 -0.2860138 0.49438858 -0.50494397 0.51249766 -0.3525928 -0.3678601 -0.1352072 -0.3191285 0.05220689 -0.9357883 0.14049254 -0.0161935 0.29685852 0.10188496 -0.18929465 -0.18627237 -0.20732398 -0.19459024 -0.5450815 -0.07340233 0.60660046 -0.17641468 0.27344868 -0.06644587 0.81664187 -0.21851006 -0.021089809 0.35190296 0.3933962 -0.36945954 0.17513981 -0.54732585 -0.012553416 -0.33894643 -0.41050452 0.90648735 0.16959938 -0.77038044 0.10569639 0.7623345 -0.38783455 -0.22576168 1.1409711 -0.50034195 0.62720305 -0.64677536 0.22513717 0.0022226523 -0.17536846 -0.019206367 0.30353075 -0.54418117 -0.17024155 -0.63393164 -0.52808326 -0.5961654 0.019471765 -0.6568106 -0.22207364 0.2718425 -0.27439472 -0.5140127 0.29200402 0.5459562 0.737619 0.16327985 -0.023511421 -0.15339476 -0.16610733 -0.43048793 0.106743544 -0.56646186 -0.100550584 0.21663827 -0.079423055 1.2904005 0.13864209 0.38291103 -0.38128936 0.078439936 0.04662257 -0.13241251 -0.3103238 0.24565674 0.58076334 0.13581426 0.2735155 -0.24584053 -0.62025356 -0.8063117 0.047020283 -0.18690084 0.30481026
82920 0.3571177 -0.06780749 -0.11307252 -0.331095 -0.20789212 -0.70390713 0.46923465 0.31981063 -0.82096887 0.17838585 0.34274444 1.1986415 -0.50348246 -0.214679 -0.35442853 0.490106 -0.20277922 0.021049706 -0.195576 -0.13580184 0.5159539 -0.4152284 -0.44066802 0.31295824 -0.6502156 -0.4415648 0.24411458 0.33757666 -0.42373538 0.07512209 -0.65262824 0.033658754 -0.017567514 -0.09527932 0.13743754 1.0000551 -0.36129296 0.44030628 -0.15092462 -0.34947768 -0.28598794 -0.102549456 -0.6761653 -0.92722213 0.032987785 0.71574384 -0.09892537 -0.2686987 -0.08853039 -0.45639145 -0.06664054 0.31019968 -0.0054020155 -0.4591898 -0.22730672 0.038573977 -0.40313992 -0.26499584 0.035484917 0.6573565 -0.74925524 0.54631513 0.23885211 1.1846328 -0.36889645 0.81730783 0.30371785 -0.17389183 0.064871535 -0.3761886 0.30130908 -1.1978592 -0.091711625 0.35965708 0.45347297 -0.02097178 -0.4233619 0.39150244 -0.015688078 0.5102173 -0.500815 1.1463541 -0.9618386 -0.06584185 0.57653606 0.46987984 -0.2804718 0.9502125 0.2958163 0.38303506 -0.10270686 0.024980899 0.33634412 0.3519856 -0.38873357 0.027127735 0.040686395 -0.38558516 -1.0527192 -0.1257533 -0.339273 0.05736627 -0.095551275 -0.31917492 -0.19722553 0.24610251 -0.527598 -0.075421914 0.042241003 0.16906747 0.46230412 -0.28507212 0.26890853 0.16859552 0.39259648 -0.16349868 0.2444488 -0.9290478 -0.6201489 1.2699792 0.018426757 0.3577759 -0.52318764 -0.38535976 -0.07085529 -0.21770978 0.71851075 -0.3077683
4584 -0.19144873 -0.02105705 -0.1585093 -0.14124177 -0.40839887 -0.113507345 0.54405826 -0.2126919 0.20446563 0.37353912 0.7175017 1.1913718 -0.6307141 -0.11998138 -0.06266669 -0.05735027 -0.2514338 -0.21503131 -0.10314051 0.049828764 0.48557004 0.23017444 -0.46022588 -0.16360801 -0.031750288 0.4479327 -0.11268372 0.58396333 0.21010311 -0.3090618 0.31841317 0.5177208 -0.04826007 -1.1388654 -0.33839557 0.38718536 -0.28638747 -0.43503433 0.34941915 0.20380393 0.88666546 -0.06446073 -0.52444935 0.25999275 0.1752421 0.630769 0.21325763 0.15789255 0.48408923 -0.6705225 0.33905983 -0.024831576 1.0761646 -0.47300056 0.3723444 -0.16360703 0.092296615 0.74085385 -0.6016582 0.7166681 -0.81462306 -0.2771567 0.6525091 0.50078845 -0.1973825 0.44653 0.76550096 0.2158384 -0.12679614 -0.37261698 0.6770797 -0.5313223 0.4820084 -0.21738385 -0.19884197 -0.17230117 -0.19231494 0.59484696 -0.058742404 -0.2433709 -0.39103603 0.9603633 -0.18958588 0.7837222 0.24344693 0.82301784 -0.041348316 -0.22126143 0.3318569 -0.318054 -0.223981 1.0593923 0.3371097 0.5968672 0.18258436 -0.8861701 -0.4996484 0.19388625 0.22173743 -0.09877662 -0.036010507 0.053200386 -0.15503782 0.46078423 -1.3877916 0.61353004 0.25778472 0.087165974 -0.10889842 0.16395158 0.46814498 -0.17328487 0.1873046 0.44605383 0.80822587 0.09440808 0.044471733 -0.22523731 -0.23949417 0.6769211 0.5610279 -0.6788415 -0.19977266 -0.33663103 0.31223705 -1.0472267 0.73197174 -0.12875362
1272 -0.25962824 -0.082559004 0.10388052 -0.1446585 0.14180413 0.5325863 0.039663445 -0.19754267 -0.28808084 -0.28692764 -0.03616531 0.2691738 -0.90726244 -0.34814328 -0.1887368 -0.22383678 -0.1619551 0.35833156 -0.37944135 -0.2461397 0.3194318 0.19257905 -0.53755903 0.08829156 0.5523723 0.36420518 -0.4104762 0.52715445 0.655676 -0.5792308 0.2966944 1.0704238 0.15339532 -0.49651742 0.2850093 -0.060429793 -0.24164796 -0.3872358 0.31315044 -0.21325497 0.11732556 -0.35736442 -0.17089489 0.10492309 0.3694657 0.615581 -0.6785355 0.34309375 0.013355336 -0.3545747 -0.035637386 0.3959064 -0.09606425 -0.590613 0.13209309 -0.027823191 0.28038552 0.75673175 -0.4597469 1.1905526 -0.4543203 0.31706664 0.27184412 -0.091952294 -0.7080902 0.4705388 0.46509388 -0.1990162 0.03203451 -0.38953197 0.0066694845 -0.60376203 -0.27803707 0.25231022 -0.22006318 -0.12815526 -0.71443236 0.79389125 0.37162492 0.7125219 -0.8728731 1.2447311 -0.18802975 0.51426816 -0.32725957 0.07941807 0.14304891 -0.031522606 0.41645896 -0.34160635 -0.34075546 0.34769526 -0.7900266 -0.2902676 0.43910292 -1.2896471 0.07813366 0.16680028 0.21799698 -0.35134655 -0.27314374 0.050313607 -0.049741067 0.45948845 -0.34211916 0.48776606 -0.2908516 -0.019491239 -0.1762999 0.050408214 0.48846465 -0.025305396 0.69960487 0.23180819 0.86102575 -0.311214 0.17633604 0.30471548 -0.19548056 0.7708099 0.47267026 -0.61059844 -0.021169469 0.09183602 -0.57236993 -0.4384602 0.018504795 0.3614928
34979 -0.39346424 -0.04292915 0.011205543 -0.51410425 1.0563308 0.056559067 0.134652 -0.62415963 -0.31866765 0.4305972 0.37854245 0.20614827 -0.76096684 -1.0792848 -0.48863155 0.5524131 -0.22448461 0.7672845 -0.43448395 -0.45233414 0.6674954 -0.22723693 -0.47981563 0.12145534 -0.026886854 0.1493293 -0.5213438 0.2569153 0.541212 0.2711342 -0.45569065 1.1280613 -0.0115625905 -0.78525704 0.07594182 0.54026324 -0.44522962 -0.1334498 0.60136425 -0.456438 -0.2220425 0.10026726 -0.9201664 -0.3488321 -0.96911246 0.5713639 -0.27062175 0.34102815 0.5150784 -0.748705 -0.27861243 -0.06098254 -0.07302056 -1.079091 -0.2428741 0.60727906 0.029419698 0.40171373 -0.44598913 0.89172035 -1.0632628 0.2764675 0.6389083 0.7706027 -1.0446272 0.69387275 -0.5715231 0.15586069 -0.44970724 -0.022393564 0.76820666 -0.16588838 -0.6714055 0.54565763 0.83153486 -0.89897615 -0.13455038 0.98318315 0.19538483 0.88606703 -1.0587564 1.3450562 -0.20502503 0.48948988 0.29640564 0.6890257 -0.8658256 0.101947635 -0.49560088 -0.5035525 -0.36893615 0.2917324 0.13423587 -0.17342964 0.141961 -0.061781462 -0.29696667 -0.1606831 0.2930515 0.6425452 0.049936723 -0.15915075 -0.63915163 -0.0058160485 -0.9489831 0.35624084 -0.6594073 -0.21427059 0.364613 0.37369266 1.5015391 0.12476995 1.019778 -0.007009366 0.30394194 -0.009279196 0.0738453 -0.59824425 0.2254499 1.3002138 0.047829926 -0.39682877 -0.35458624 -0.19711715 -1.3421112 -0.4237131 0.016063282 0.14000028
887 -0.19865295 -0.5783998 0.4530016 -0.19350013 0.002041026 -0.17734092 0.07076457 0.085550226 -0.2034369 0.12706292 0.036844015 0.88008124 -0.36857322 0.08211858 -0.16929807 -0.0966983 0.118309766 0.08794403 0.27106547 0.34905586 0.27337098 0.40825978 -0.38839373 0.074065 -0.38515672 -0.19424434 -0.18075903 0.49488 0.18325377 0.46840975 0.045875948 -0.5686837 -0.07330246 -0.14284977 0.38903257 0.88384444 -0.37196505 0.028458366 -0.511837 -0.16685413 -0.017990217 0.41338795 -0.7918079 -0.5408027 -0.3126473 0.73273194 0.60058475 0.84973276 0.011124904 -0.5838284 -0.3384996 0.25385156 1.0599095 -0.91015387 -0.5583392 -0.20943153 0.16147386 0.8238391 -0.815643 0.32487732 -1.1641904 0.17382458 0.53086203 1.0804651 -0.41682795 0.5653782 0.20528673 0.11764228 -0.6331168 -0.4754657 0.5004442 -0.68602353 -0.21030413 -0.0062906295 -0.100756474 0.052052498 -0.0920957 0.6790491 0.36836877 0.27096543 -0.0252817 0.93906343 -0.70765936 0.6214865 -0.35892603 0.29757634 -0.7289543 -0.42345697 -0.058571663 0.2893401 -0.81588215 0.38333148 -0.13582017 0.045765877 0.7383874 -0.01237571 -0.11693862 -0.5021304 0.45877486 0.2600389 0.15841663 -0.15069403 -0.03736652 0.18160878 -1.1316696 0.56395423 -0.32265174 0.39278147 0.098501235 0.106126636 0.19981821 -0.26515773 -0.3864131 0.092291504 0.7937086 -0.24957466 -0.059050635 -0.4772583 -0.011505375 1.7615355 0.3942138 0.11045994 -0.29013124 -0.24548289 0.2102056 -0.65538794 0.5746079 -0.17329425
13982 -0.39746037 -0.04659432 0.018998632 -0.54585975 1.0706599 0.04263914 0.15805323 -0.6316158 -0.3391606 0.42177933 0.40073997 0.20367628 -0.7767489 -1.1018043 -0.52471614 0.5753618 -0.24468929 0.7402549 -0.41731736 -0.4518151 0.68281394 -0.2682004 -0.47622967 0.11712033 -0.023596907 0.15941294 -0.53153086 0.24885459 0.5655033 0.25609955 -0.48582575 1.1414838 -0.016489951 -0.7795621 0.066250324 0.5350178 -0.43903035 -0.11237215 0.60082436 -0.4622015 -0.24424592 0.08855142 -0.9384306 -0.35045514 -0.9727891 0.5856749 -0.26743543 0.3349659 0.5108633 -0.77081037 -0.28072244 -0.048443384 -0.07000431 -1.0710164 -0.24163051 0.62245524 0.029168569 0.39421704 -0.44313687 0.90559727 -1.0851487 0.28986648 0.6472006 0.7715019 -1.0492961 0.6885031 -0.5730792 0.13600399 -0.46550667 -0.034519516 0.7791234 -0.17201076 -0.6587211 0.55402637 0.8477216 -0.90724856 -0.1420753 0.98189116 0.15854716 0.8900133 -1.0666854 1.3488169 -0.22700769 0.48172832 0.29727483 0.6751258 -0.88590205 0.11097234 -0.52387816 -0.5086926 -0.3593668 0.29165587 0.11512724 -0.16646335 0.15106742 -0.06927118 -0.29760385 -0.15121204 0.29292268 0.63293236 0.06116958 -0.14718789 -0.63777536 -0.019932874 -0.9470724 0.3330131 -0.6420875 -0.22015204 0.3507395 0.3466985 1.5187385 0.13278727 1.0160538 -0.020789893 0.28764427 -0.016982526 0.07821295 -0.60457563 0.23003742 1.3156968 0.022097265 -0.3960303 -0.38096014 -0.19389504 -1.3728372 -0.43814766 0.026330905 0.117003985
85688 -0.3610391 -0.15471141 0.27319017 -0.4486012 -0.15171759 0.39284697 -0.38353795 -0.12639289 -0.30119985 0.20709868 -0.11478938 0.032094188 -0.7358108 -0.027113024 -0.15003638 -0.08162608 -0.08847132 0.102597676 -0.62865174 -0.19667086 0.18622936 -0.06079478 -0.31781286 -0.2287902 0.5030907 0.8976179 -0.82601 0.2546131 0.43030372 -0.5150319 0.088115826 0.6616867 -0.015500113 -0.53517115 0.27123827 0.5570681 0.13867424 -0.40892372 0.4218991 -0.08635352 0.36497194 -0.36496076 -0.26627713 0.37022743 0.66899353 0.62573797 -0.29187137 0.16613035 0.11219676 -0.4393566 0.15545872 0.108777 -0.03727874 -0.9983428 -0.28898865 0.17182453 0.914811 0.67622185 -0.45596734 1.0258892 -0.46487397 -0.18844543 0.42278525 -0.14858304 -0.7947324 0.7953368 0.27597445 0.05928385 0.27386737 -0.21468098 0.017160913 -0.19832763 -0.21342976 0.31213364 0.11999214 -0.20605123 -0.659795 0.92743385 0.17316711 0.26580018 -1.2601779 0.91830444 0.04802726 0.124564044 0.07226561 0.12833801 -0.09500675 0.2157646 0.20090018 -0.037979987 -0.15142617 -0.03381873 -0.48837027 0.43405926 0.49113542 -0.95521206 -0.008625061 -0.2133324 0.100180484 0.26076388 -0.08522489 0.50773084 -0.107294716 0.5448444 -0.44873303 0.5202052 -0.34732214 -0.1830008 0.1823306 -0.00870009 0.67058086 -0.14298432 0.9714575 0.08342742 0.9109947 -0.3956578 0.3087947 -0.020162452 -0.570772 0.6249284 0.025252577 -0.4417176 -0.119164035 -0.052482568 -0.59900635 -0.45976117 0.012114403 0.32922003
1365 0.87941146 0.3768589 0.29268602 0.7117012 -0.32047603 -0.3247975 -0.5632838 -0.029531771 -0.11298485 2.0157957 1.4457352 -0.342026 -1.1417705 -0.82029396 -0.19628105 0.26141056 -1.4883491 0.15029787 -0.18640245 0.3011924 0.3899214 -1.2746705 -0.23391604 0.17801481 0.012160995 0.5408314 -0.9229342 -0.21031438 -0.8522421 -0.74775857 -0.39703795 1.0358607 -0.8358646 0.42051154 -0.36263162 0.6557935 -0.31305435 -0.24076872 0.7502217 0.15732266 0.51070946 0.90486264 0.0029540253 0.32079887 0.14395265 -0.7651856 -0.76075566 0.261694 0.3702694 -0.21490507 -0.65089476 0.04257048 0.12595104 -0.5283711 0.20343181 0.3182572 -0.6401924 0.5622319 -0.66579974 0.15753525 -0.76542836 0.17776944 0.4557892 -0.47268593 -0.6059998 0.928293 -0.69976646 0.2289454 0.009395432 -0.011969538 1.2452939 -0.4147597 0.9689145 -0.010961402 0.14886183 -0.7024057 -1.1874772 0.60311574 -0.32500556 -0.07516843 0.6714206 1.3760074 -0.6996419 0.14551096 0.19183545 0.40128124 -0.16060644 -0.45501766 -0.8914324 0.018812517 0.45719668 0.4461871 1.3054941 0.74433875 -0.3412437 0.33697775 -0.70078254 0.6550556 0.22783814 1.092769 0.31737924 1.1685476 -0.095365405 0.27924103 -0.7018838 0.7569086 0.46297812 0.77466464 -0.46001297 0.29478878 1.1679584 -0.29535168 0.43383104 0.3119827 0.062012974 0.13692342 -0.6088063 -0.9070777 0.3276273 0.5626293 0.51337886 0.493524 0.062065873 0.29588574 -1.0818032 -0.63284737 -0.013742276 0.12284608
8224 -0.34548616 -0.13181424 0.22478019 -0.096977696 -0.018740088 0.50758934 -0.16142184 -0.08434502 0.20312172 0.2988447 -0.15598261 0.0876613 -0.75093436 0.02642275 -0.3752332 -0.15329653 -0.20753033 -0.061002567 -0.3432543 -0.39860204 0.32854384 0.12941422 -0.36895716 -0.17463535 0.56164646 0.7678441 -0.8871626 -0.010707934 0.6868393 -0.66401535 0.13328725 0.97894627 0.2227962 -0.633017 0.36243317 0.23258507 0.1132339 -0.17449638 0.50975204 -0.33863282 0.37569258 -0.27061674 -0.35509452 0.16379876 0.7889844 0.72621197 -0.3281747 0.32875675 0.11149919 -0.32527658 -0.06301043 0.4386776 -0.19622749 -0.93872774 -0.12092651 -0.14636548 0.86427677 0.5287336 -0.27136204 0.9963257 -0.41634548 -0.09584014 0.5419908 0.08481913 -0.8104965 0.7000976 0.45558682 0.2279225 0.1775447 -0.16654663 0.05541609 -0.3817329 -0.117768526 0.27453542 -0.077169396 -0.14365622 -0.5777799 1.1576289 0.004019302 0.7088534 -1.640572 0.8203851 0.07168936 -0.11917683 0.00019606361 0.1390531 -0.47634768 -0.0048696566 0.010830033 -0.08601338 -0.16185205 -0.19243224 -0.35621276 0.23172364 0.39757013 -0.84746176 -0.03559399 0.07415281 0.3451933 -0.002732338 -0.033017054 0.20021458 -0.10415516 0.5179165 -0.22593287 0.56632894 -0.07993004 0.071588516 0.24432364 0.30225763 0.49381664 0.13693686 0.70829844 0.21868795 0.5869481 -0.20910282 0.24406534 -0.15713099 -0.4810673 0.7212736 0.15503757 -0.43271807 0.11138086 -0.14723027 -0.33988452 0.082026094 -0.024313131 0.11110506
22563 -0.35717237 0.30694723 0.38887423 -0.45445246 0.31697515 0.82325906 0.22540946 -0.1413269 0.244592 0.5349196 0.17326614 -0.079955 -0.92972136 -0.09097642 -0.5848168 0.3409732 0.14116913 0.25899628 -0.42804188 0.07962367 0.36169872 -0.23011445 -0.16565394 0.0019224248 0.23514275 0.65867037 -0.62948024 0.30125517 0.86668366 -0.24422619 0.19653611 0.91419226 -0.31937245 -0.2691175 0.5883248 -0.16444334 0.12574966 -0.78809726 0.66120017 -0.3044367 0.25635678 -0.63092095 -0.18347219 0.28238976 0.23489673 0.35655978 -0.4406371 0.5035312 0.00060519605 -0.15602066 -0.17089367 0.376371 0.037907172 -0.8125815 -0.0148915015 -0.024334451 0.2772744 0.6409323 -0.33192912 0.5479231 -0.41434312 0.09658789 0.501103 -0.015931237 -0.745321 0.5091505 0.12325367 -0.1780679 0.49223328 -0.1644389 0.08169028 -0.40211445 -0.1616159 0.5416163 -0.13581054 -0.15217325 -0.65640557 0.9127924 -0.1096132 0.24556458 -1.2246996 0.746999 -0.37420037 0.38426608 0.037861224 0.20555808 -0.14442049 0.2732803 -0.11274066 -0.28936914 -0.24495211 0.10448679 -0.113174774 0.22659896 0.6449972 -0.71684504 -0.47180367 -0.029460965 0.03411152 0.1478284 -0.4110822 -0.03605591 0.05283893 0.3584518 -0.79093874 0.54549074 -0.13364334 -0.15506226 -0.10360036 0.12689403 0.51807016 -0.5768299 0.941766 -0.2613705 0.56136537 -0.20159577 0.26300496 0.084221914 -0.559615 0.8777186 0.20078544 -0.14461897 0.17142795 -0.024005087 -0.27055132 -0.42801678 -0.23324881 0.01832895
50980 -0.39026228 0.022794686 -0.005124293 -0.5771724 1.0434799 0.13238664 0.101753026 -0.46989936 -0.3648594 0.35479715 0.3818455 0.24532212 -0.8429712 -1.2451241 -0.56125486 0.5082792 -0.27353176 0.67123693 -0.26353374 -0.42179984 0.7369726 -0.2764559 -0.42239192 0.0053240373 0.016391035 0.2872603 -0.63093543 0.29010254 0.68896556 0.25903755 -0.52923316 1.2837542 0.039662387 -0.81748444 -0.007062784 0.4573674 -0.53797626 -0.090120725 0.73409075 -0.46091443 -0.3248282 0.21954884 -0.9802833 -0.35813504 -0.9727063 0.6082039 -0.2215907 0.4321764 0.4246935 -0.82983154 -0.2886977 -0.035687126 0.11920563 -1.1954643 -0.3320715 0.57619363 -0.012316609 0.57774365 -0.5533725 1.0159141 -1.1157047 0.29454246 0.67825633 0.7512283 -1.0973579 0.78147227 -0.54211473 0.09261619 -0.4445546 -0.034183577 0.8518065 -0.2505052 -0.75795513 0.5340545 0.96675813 -0.7645219 -0.18805815 1.0973837 0.24156477 0.94422585 -1.0433961 1.2680689 -0.23161314 0.48320186 0.32811752 0.63003206 -0.9585309 0.067971386 -0.43498257 -0.5271237 -0.3037222 0.33548453 0.049320247 -0.070429854 0.15195072 -0.042784266 -0.28198785 -0.15254836 0.33474943 0.5277835 0.09058348 -0.14951211 -0.6939351 -0.08205858 -1.0476319 0.47472164 -0.68524647 -0.1591622 0.37089473 0.36742935 1.6571739 0.19483547 0.9939732 0.094860315 0.47300652 -0.019240068 0.32331473 -0.57231814 0.15111735 1.5129819 0.07755578 -0.3483726 -0.4938096 -0.25295502 -1.3945578 -0.6093496 0.045445953 0.12398928
49753 -0.5099031 0.028916804 0.018096607 -0.40456384 0.9986459 0.09590463 0.049851842 -0.6258767 -0.23425253 0.43583876 0.40843686 0.1673994 -0.7535141 -1.081525 -0.45166758 0.5345525 -0.27324536 0.8275244 -0.5335122 -0.43668312 0.65752655 -0.14159127 -0.6285986 0.2526472 -0.03425762 0.22013643 -0.58795744 0.24504387 0.48789218 0.17006077 -0.44855538 1.2585138 -0.14117827 -0.7674026 0.13136497 0.50220823 -0.40480134 -0.25722203 0.6354034 -0.4284996 -0.14468719 0.1581874 -0.8372088 -0.38657266 -0.8554157 0.5152687 -0.41579646 0.37593675 0.47469097 -0.7468207 -0.27738413 -0.10802722 -0.15371293 -1.0917354 -0.22769098 0.5624241 0.10769193 0.3674208 -0.4061192 0.90357333 -1.1219364 0.26409903 0.6854501 0.7277056 -0.9621671 0.7087569 -0.42908955 0.26945078 -0.4607788 -0.0109048635 0.7332143 -0.19591677 -0.68591934 0.49925077 0.7318212 -0.9612845 -0.23549058 0.9364552 0.2535009 0.89012843 -1.0831612 1.4905059 -0.15129957 0.52909625 0.30237362 0.7676 -0.76900476 0.14020686 -0.4621332 -0.54116875 -0.47105226 0.32390094 0.030084973 -0.113068104 0.17242263 -0.15592426 -0.32910052 -0.20409837 0.3013536 0.68212485 0.06724917 -0.08880391 -0.65041465 0.13194792 -0.9067512 0.408687 -0.79165673 -0.2240222 0.36781824 0.38809708 1.478434 0.06030048 1.0674872 -0.019523567 0.34303242 -0.010563871 -0.0320846 -0.57922995 0.16035907 1.2412641 0.04730007 -0.4548399 -0.32636517 -0.22433308 -1.2791064 -0.38529956 0.010135587 0.22339812
368657 -0.73388976 0.17735441 -0.26339307 -0.5657087 1.1878864 -0.23892501 0.20718844 -0.8633458 -0.042684834 0.77140385 0.31537813 -0.07667703 -0.60846573 -1.148106 -0.3063802 0.7944633 -0.022072617 1.1112037 -0.63801754 -0.7240727 0.70451605 -0.40584397 -0.7336115 0.43600643 0.07683688 -0.0013607115 -0.36841944 0.21749783 0.2555269 0.14925241 -0.61483896 1.3055851 -0.12856618 -0.92526394 0.043173917 0.36278495 -0.24014711 0.18071803 0.6301421 -0.29039255 -0.2139759 0.09646509 -0.9600313 -0.45294192 -1.0372785 0.4342923 -0.6310061 0.25182843 0.45213476 -0.7056553 -0.17251812 0.06431332 -0.36269227 -1.0182985 -0.33353487 0.84774095 0.17961338 0.2923916 -0.06312217 0.73499906 -0.92453206 0.48775166 0.9088885 0.7427359 -1.1782047 0.6990157 -0.6216055 0.09065177 -0.66253114 0.21697526 0.62684834 0.09479671 -0.6069237 0.4648822 0.74192524 -1.0538368 0.020624831 0.7868391 0.3845 1.0962083 -1.1793365 1.5970265 -0.18978593 0.7047334 0.5671834 0.87206125 -0.91031265 -0.0039408887 -0.8839874 -0.73991305 -0.52630305 0.43601075 0.2687563 -0.281015 0.29110584 -0.004646828 -0.35096735 -0.010673791 0.15004387 0.7820776 -0.08048114 -0.32693145 -0.6812285 0.2683233 -1.0480304 0.4159411 -0.8089175 -0.02736801 0.42006573 0.22152032 1.4254467 -0.020000136 1.1084273 -0.20556599 0.17810293 -0.04054614 -0.0046360195 -0.72789913 0.42400688 1.0480425 0.241226 -0.40417308 -0.2411263 -0.005261952 -1.1129485 -0.22050835 -0.09742686 0.09387518
633030 -0.38544264 -0.048536446 0.014651359 -0.4814308 1.0019957 0.1033609 0.041475013 -0.60569745 -0.29131323 0.3981037 0.3431109 0.2689862 -0.79611355 -1.0942158 -0.41896573 0.46210644 -0.24050128 0.83450806 -0.49523836 -0.43353298 0.6401144 -0.09841647 -0.56335306 0.11602517 -0.07347936 0.20444599 -0.593568 0.28901482 0.511095 0.27360857 -0.3865345 1.2247518 -0.059883617 -0.7879454 0.10655047 0.5816227 -0.49332017 -0.22629389 0.6588385 -0.46602198 -0.1369036 0.17530832 -0.8854091 -0.31450367 -0.92312145 0.5571837 -0.31800815 0.37743387 0.5084731 -0.78047687 -0.3231452 -0.09644399 -0.061268415 -1.1739134 -0.2559857 0.56115925 0.01865967 0.5030523 -0.5121679 0.95680976 -1.1321415 0.22948779 0.6923047 0.7970077 -1.0376283 0.7876973 -0.5321198 0.19188267 -0.3732369 -0.010824507 0.78482324 -0.1731785 -0.7900914 0.5424715 0.77141565 -0.84998494 -0.23473015 1.0352414 0.29976934 0.9202445 -1.0174696 1.3774438 -0.19418626 0.57215524 0.2965678 0.7924073 -0.85778475 0.067688964 -0.38349944 -0.45948124 -0.3958084 0.36078766 0.10417621 -0.112677455 0.12667166 -0.07666225 -0.3368381 -0.22077003 0.3278025 0.6384509 0.07252206 -0.13745865 -0.64597625 0.0645667 -0.97856456 0.4956191 -0.770349 -0.18045887 0.3637652 0.49556604 1.5360522 0.13739508 1.0861006 0.036965337 0.417776 0.046056814 0.09205084 -0.5966545 0.15163629 1.4000248 0.10874201 -0.428247 -0.31401113 -0.21854182 -1.309272 -0.42300168 0.01163371 0.2575392
73972 -0.3944573 0.0008436841 0.011391578 -0.582661 1.0557449 0.13393961 0.118575476 -0.48840874 -0.3586913 0.3688568 0.40568513 0.24234286 -0.8318796 -1.2447965 -0.572643 0.5356012 -0.27008435 0.6585723 -0.26268992 -0.42863026 0.7394636 -0.2843503 -0.4299501 0.0037423784 0.025528051 0.2832481 -0.6180507 0.28816015 0.69420266 0.26779035 -0.53092146 1.2703673 0.03676855 -0.8002033 0.01595504 0.46372175 -0.52733284 -0.06508638 0.71389264 -0.46155703 -0.330154 0.20528166 -0.98218304 -0.36654916 -0.989502 0.619698 -0.21913809 0.41919193 0.43699235 -0.82954025 -0.28921905 -0.033975437 0.10785333 -1.1821525 -0.31625924 0.58769804 -0.012381304 0.54941416 -0.54490274 1.0156313 -1.1286999 0.27952382 0.6582909 0.75012153 -1.0919793 0.76502025 -0.5544381 0.07883906 -0.45262596 -0.047440805 0.8556107 -0.24131489 -0.7375208 0.53996235 0.96246034 -0.7858602 -0.180906 1.0906832 0.22570546 0.9476397 -1.0392299 1.2631172 -0.24908191 0.47375315 0.34004217 0.61815417 -0.9678641 0.06742556 -0.4619363 -0.5285093 -0.30391988 0.34140602 0.05555704 -0.09887171 0.16324604 -0.042956587 -0.29367566 -0.15964374 0.31971812 0.5424834 0.094577596 -0.15213124 -0.67720425 -0.08488763 -1.0205986 0.450083 -0.6663471 -0.17438522 0.36526692 0.35004696 1.6496832 0.19216987 0.9845588 0.08166611 0.43879783 -0.019123152 0.30299452 -0.58056307 0.16294532 1.5025826 0.05830245 -0.35298085 -0.484353 -0.25649345 -1.4000149 -0.5944601 0.043389224 0.11589459
49720 -0.49226612 0.031526253 0.012361869 -0.40570053 1.0050944 0.10492629 0.045292277 -0.62304914 -0.23415302 0.4240085 0.38876098 0.16572802 -0.7650103 -1.0872681 -0.4421164 0.5276687 -0.27476257 0.82880414 -0.51735044 -0.42816654 0.6598878 -0.13833049 -0.60952616 0.24379328 -0.030015983 0.22643767 -0.5936235 0.25843683 0.49501505 0.17309865 -0.44485748 1.247116 -0.11783196 -0.7740627 0.1206252 0.4954923 -0.40448335 -0.2521892 0.6456976 -0.43580997 -0.14499879 0.1650577 -0.83552176 -0.36870393 -0.8627468 0.5192728 -0.40191153 0.3786964 0.4756404 -0.7516527 -0.28107753 -0.10856919 -0.14308803 -1.1066608 -0.24468699 0.5689648 0.09766207 0.3830859 -0.42336896 0.9030538 -1.0957046 0.25411624 0.67660064 0.73038816 -0.9719728 0.7190866 -0.44372505 0.26465482 -0.45947817 -0.0066588745 0.7371231 -0.1889029 -0.69733787 0.5003605 0.7473973 -0.94107234 -0.2161619 0.95204043 0.26384574 0.891185 -1.0816908 1.4715227 -0.14608194 0.5346817 0.3068463 0.7761564 -0.7785633 0.12606326 -0.46416917 -0.5405015 -0.4584587 0.3230149 0.03724381 -0.11061769 0.17900597 -0.15226892 -0.33558306 -0.19617632 0.30925328 0.683199 0.06816319 -0.09514274 -0.6530639 0.12398475 -0.9230751 0.4327496 -0.79410774 -0.20112145 0.37436846 0.39571312 1.485096 0.0653485 1.0634093 -0.01721145 0.3592508 -0.014134925 -0.008070879 -0.5869967 0.17465015 1.2463208 0.057898812 -0.45253977 -0.33219096 -0.2194584 -1.2700682 -0.3833438 0.0027427918 0.23133533
633031 -0.3980576 -0.034179974 -0.0123122 -0.4803986 0.9779283 0.06483287 0.04055573 -0.60381913 -0.28068817 0.4142773 0.3271754 0.25879872 -0.7982928 -1.0750631 -0.39618388 0.45393166 -0.24013187 0.8511706 -0.49688265 -0.4477584 0.6384626 -0.119000874 -0.5758299 0.123396724 -0.055929005 0.18862906 -0.5779299 0.293016 0.48230484 0.25855038 -0.38869718 1.2172645 -0.07290187 -0.78875405 0.10079673 0.5649287 -0.47682288 -0.1967351 0.66510147 -0.4476498 -0.13201845 0.16741928 -0.8854779 -0.30085593 -0.9033716 0.5480909 -0.32076168 0.3671426 0.4943612 -0.77882546 -0.30316022 -0.08472158 -0.07052313 -1.1535054 -0.26175505 0.5631087 0.035634786 0.49015528 -0.4998423 0.9371528 -1.109947 0.2426501 0.7085874 0.7880549 -1.0564734 0.7835799 -0.5182796 0.17917906 -0.38344365 0.011340528 0.7728881 -0.15115876 -0.7625198 0.5374722 0.7552725 -0.8511086 -0.22339867 1.0264418 0.29961392 0.909326 -1.0249135 1.3887702 -0.1885155 0.586526 0.31631488 0.7870682 -0.84489876 0.071801305 -0.3997183 -0.46734786 -0.3872578 0.36701494 0.12065868 -0.10521713 0.14021717 -0.07788596 -0.33047432 -0.19720095 0.30804437 0.63854206 0.05605873 -0.14608559 -0.65207964 0.07793378 -1.0047737 0.49939024 -0.7600496 -0.16690168 0.35606885 0.48677024 1.5173723 0.124530226 1.0931435 0.029196689 0.4124301 0.022817686 0.10020986 -0.5860851 0.14807577 1.3758724 0.11632473 -0.42387417 -0.31251338 -0.21610147 -1.2815045 -0.4290873 0.010967562 0.23643205
400455 -0.7966395 0.21578977 -0.29897308 -0.54465306 1.2042289 -0.24566706 0.18913762 -0.87154156 -0.00045234678 0.781225 0.29817462 -0.12573402 -0.5848172 -1.1653898 -0.28779244 0.8023767 -0.0063486784 1.1501687 -0.64877003 -0.7385435 0.71300787 -0.3988657 -0.7587711 0.4695262 0.10310755 -0.023706786 -0.37492293 0.2163888 0.23698755 0.14498298 -0.63747394 1.3063964 -0.10976245 -0.951373 0.03701823 0.35308734 -0.21362576 0.19748825 0.646611 -0.28868768 -0.21794415 0.12096577 -0.9719547 -0.48531863 -1.0514379 0.4160937 -0.6618787 0.27505168 0.45110548 -0.69985056 -0.16362204 0.047343392 -0.40050593 -1.0234631 -0.34765676 0.87959236 0.21760537 0.2824072 -0.03351995 0.733871 -0.9023767 0.50344306 0.9290114 0.7291373 -1.1952364 0.6909219 -0.6244074 0.11844934 -0.71888316 0.22357456 0.60139966 0.112584405 -0.607242 0.46263236 0.7561108 -1.0689254 0.060917176 0.7730774 0.4153511 1.1019266 -1.212855 1.6146684 -0.1581042 0.7375239 0.5915058 0.89924634 -0.9139261 -0.0004032482 -0.9263266 -0.77286756 -0.56215876 0.4201324 0.266492 -0.30178127 0.32506204 -0.015155375 -0.35167035 0.0025282046 0.1489285 0.80242467 -0.090821974 -0.36120638 -0.677204 0.30182865 -1.0710076 0.42706996 -0.84332824 -0.0050411373 0.43721983 0.19492488 1.4272984 -0.031237757 1.1231773 -0.22760051 0.20755285 -0.05303995 -0.03333621 -0.7500226 0.46740696 1.015042 0.25887203 -0.4367327 -0.236421 -0.00057113945 -1.0990161 -0.20953432 -0.11803527 0.077966325
648121 -0.53449893 -0.038904745 -0.19319156 -0.17236744 1.2962843 0.4024495 -0.31722873 -0.7926435 0.2559253 0.4231324 -0.07352717 0.08256422 -0.43134153 -0.67425346 -0.4721657 0.52435786 0.10325034 0.993734 -0.5061526 -0.3655412 0.433671 0.0105287265 -0.73734283 0.291421 0.3060787 0.335586 -0.7575872 0.48003358 0.39184478 0.5829327 -0.61140376 1.1318856 0.39791313 -0.6625908 -0.21367842 0.1977851 -0.5109222 0.005619232 0.27101678 -0.46952677 -0.060682677 0.39182332 -0.5732992 -0.5665544 -0.81912583 0.46176967 -0.72117937 0.3230821 0.832551 -0.5257199 -0.7407006 0.00966344 -0.21494226 -1.1379069 -0.68157184 0.43959832 0.045352336 0.69262093 0.03177205 0.34925118 -0.7556371 0.07386307 0.31997386 0.32274446 -0.731265 0.8877888 -0.7177042 0.4654483 -0.45104715 0.19642477 0.015181537 -0.039947763 -1.0712843 0.41730222 0.7388313 -0.7966783 0.2837238 0.7772493 1.0836034 1.0958285 -0.9318596 1.1417513 -0.54500437 0.27525857 0.2681734 0.68880785 -0.79604644 0.1293048 -0.35308874 -0.41640154 -0.54948884 0.11185862 0.020933874 -0.60398674 0.29960984 0.12373443 -0.2001607 -0.48309073 0.25127956 0.4896999 -0.030668736 -0.46091944 -0.29315713 0.1133311 -0.16513774 0.58542985 -0.59368426 0.3327405 0.43561497 0.32121792 0.9924538 0.14427084 0.5495666 -0.23625667 0.38071215 0.36775962 -0.014209552 -1.1044952 0.6667737 0.53766274 0.31228468 -0.7028252 -0.19324647 0.19544548 -0.8390127 -0.098555505 -0.22978361 0.29440185
6213 -0.6490982 -0.40518335 -0.4480845 -0.07612289 -0.33624983 -0.4374411 -0.264006 0.4441944 0.07058746 -0.11177628 0.6064787 1.0520443 -1.0278299 -0.18744056 0.23090027 -0.1950747 -0.6880718 0.17756252 0.40647066 0.25714883 0.10555877 0.088275805 -0.8327899 -0.5834036 0.40959287 0.08393495 -0.12312462 0.72464484 0.48285297 0.34822333 0.17685063 0.5939317 0.14726393 -0.7700853 -0.10721184 0.7430189 -0.733993 -0.1440618 0.451043 0.14054774 0.0050028763 -0.27103037 -0.39303952 -0.45733446 0.4236962 0.5103173 0.45113096 0.5753774 0.2580813 -0.62702143 0.26909372 -0.055194966 0.7956479 -1.3166144 -0.43416977 -0.2102469 0.7758763 0.3175561 -0.7522962 0.5461399 -0.68710047 0.05282867 0.087111525 0.3684319 -0.5431782 0.18363261 0.12252401 -0.24155673 -0.064672105 -0.37989417 1.0449564 -0.38156936 0.04422316 0.2943913 -0.07954795 -0.2950463 -0.0003299356 0.6581896 -0.046986267 0.16390741 -0.020853333 0.72745097 -0.43247 0.66204125 0.06322199 -0.14776683 -1.0405937 -0.21140169 -0.28824967 0.0054442193 -0.32431874 0.7244909 0.005421401 0.5854186 0.26864976 -0.23578669 0.038700078 0.41525805 0.04993131 0.0130509045 -0.1490519 -0.14205709 0.084461756 0.06093067 -1.710272 0.58801425 -0.1425819 0.3977875 0.5500406 0.62715673 0.4526958 0.3099281 0.08945955 0.1634622 0.5542248 -0.07397659 0.481584 -0.19645901 -0.19747771 0.9420281 0.194442 -0.067306094 -0.00042998372 -0.8251437 -0.24348007 -0.74220115 0.49329707 -0.38570228
10798 -0.3398951 -0.15364845 -0.07754581 -0.5789581 0.2117954 0.37992886 -0.3479187 -1.138808 -0.78569317 -0.64283025 0.8657175 0.9761813 -0.8724432 -0.040543713 -0.61459726 0.05517609 0.2874404 0.47285393 0.055200074 0.27189112 -0.51240957 0.53402185 -0.7948276 -0.01015102 0.20984283 -0.3735291 -0.31741774 -0.7713931 1.0590214 -0.59960496 0.27897146 1.0244493 -0.3567719 -0.58296406 -0.007915587 0.8359697 -0.5726949 -0.26961362 -0.30859664 -0.1283514 -0.43449074 -0.17034607 -0.8623598 0.000833514 -0.11396989 0.107687324 -0.41037762 0.12387535 0.18556662 -1.1741222 -0.14852326 -0.8241753 0.97385794 -1.4617686 0.09988049 0.23103245 0.3733101 0.47166073 -1.1061513 0.52114093 -0.8862066 0.014521681 0.40376487 0.99458396 -0.66739184 0.5214678 -0.54466146 0.36932957 0.5707564 0.17414938 0.2641583 0.17029761 -0.24050517 0.6756932 0.23806468 -0.13627796 -0.4396294 -0.12209487 -0.13638875 0.3285884 -0.9534254 0.763862 -0.1686099 0.6231455 -0.42417416 0.21213445 -0.7295553 -0.36840096 0.3853713 -0.06505942 -0.36480924 0.293675 -0.005389253 0.7128577 0.7819966 -0.22935024 -0.02005438 -0.604981 0.54666555 0.02339504 0.050185796 -0.026559118 0.2371699 0.8432771 -0.98280674 0.65389854 0.20197459 -0.68981653 -0.6447743 0.20551729 0.035897184 0.34672186 0.25896588 0.017192658 0.97383946 -1.031414 -0.60236037 0.12445137 0.20284648 1.1393536 0.08906104 -0.30283347 0.08193837 0.23132457 -0.78349954 -0.1626737 -0.032592062 0.16435759
16819 -0.31158018 0.020481007 0.27800545 -0.48614982 1.437317 0.41299596 0.53528327 -0.11447584 -0.09891299 -0.4005272 0.22014911 -0.45142952 0.06792019 -1.7168317 -0.83833975 0.6626955 -0.46854827 -0.38193357 0.14034252 0.23440242 0.7673156 -0.32790434 0.6295143 0.28032613 -0.2353514 0.41889924 -0.570437 0.005877351 0.93301135 -0.32942387 -0.47821662 0.61088145 0.29094163 -0.58754325 0.22291742 -0.3143336 0.2785186 -0.36084503 0.66198266 -0.20610623 -0.332465 0.09234438 -0.46526894 -0.16389892 -0.89537907 -0.08678064 -0.21452226 0.41048428 -0.21627808 -0.1612388 -0.40923935 -0.25771388 -0.040488653 -0.6129984 -0.3826509 0.7655334 -0.15858899 0.20862707 -0.1606612 0.8169005 -0.10438461 0.11531717 0.23813911 0.22385722 -0.24792673 -0.054700084 -0.39670247 -0.018664677 -0.6607917 -0.30603305 1.0130259 -0.083762124 -0.8250748 0.12555511 1.0394685 -0.32946685 0.0017022296 0.8662259 -0.38840914 0.39737326 -0.69526744 0.17733468 0.20739633 -0.16074626 -0.058888488 0.35119736 -0.57153374 -0.28769708 -0.623434 -0.60442424 -0.6709743 -0.023491729 -0.7228517 0.010349206 0.14657949 -0.24229704 -0.30451488 0.3430083 0.5697625 0.7451592 0.34965628 0.07034531 -0.39650464 -0.28290188 -0.5491511 0.15063308 -0.62205297 -0.042247444 0.29283386 -0.4107433 1.3488754 0.04674989 0.11652655 -0.078881465 0.3173037 -0.007525236 0.08666188 -0.34744972 0.40067163 0.6373494 0.021816837 0.24433799 -0.5063391 -0.44254902 -0.9964749 -0.2123958 -0.13653335 0.23584919
13686 -0.32352817 -0.17232004 0.057347473 -0.46647498 0.44037405 0.47656476 -0.0975061 -0.11513184 -0.22676575 -0.10525323 0.20531455 0.21131171 -0.6163882 -0.20571387 -0.3772824 0.14335586 0.13578221 0.45738 -0.34365737 -0.14003903 0.50232047 0.15948632 -0.6084482 0.19657493 0.50654733 0.7424561 -0.3601176 0.48917985 0.6985351 -0.28530672 0.5287165 0.8281652 -0.16113287 -0.32058334 0.39298135 0.05040748 -0.34259418 0.015926408 0.29468417 -0.010231727 0.27326575 -0.39590177 -0.08472519 0.13737422 0.33439174 0.90963924 -0.5130971 0.1714295 -0.071551725 -0.54204345 -0.06595883 0.5149659 -0.16735119 -0.70062166 0.2592531 -0.06212127 0.6404106 1.0709499 -0.47278604 0.97657216 -0.5247689 -0.033911485 0.53254956 -0.097459264 -0.6737315 0.42004672 0.53626746 0.02396467 0.051118076 -0.24607502 0.13495804 -0.55953777 -0.2520382 0.12597103 -0.047484845 -0.27911317 -0.7661792 0.93270296 0.43756762 0.40340787 -0.9638044 1.0077713 -0.10711238 0.16642137 -0.0014541097 -0.07978512 -0.12324989 -0.079617485 0.6025918 -0.5736779 -0.3465681 0.42945966 -0.51332146 -0.046648383 0.48502555 -1.4375429 -0.2969775 0.2611553 0.3141396 -0.09459454 -0.0482355 0.06581454 -0.10109259 0.5375224 -0.21471578 0.39973104 -0.28653377 -0.31385514 -0.07720485 0.07480583 0.6670144 0.15069994 0.33855212 0.28496343 1.0170504 -0.5521553 0.35719225 -0.09047345 -0.20180981 0.7408697 0.5811594 -0.50459975 0.10209416 -0.16947542 -0.643703 -0.22101185 0.14513059 -0.15450123
643239 -0.28696686 -0.2029926 0.2953278 -0.5382208 1.5066715 0.48082262 0.46069854 -0.22567229 0.029367227 -0.19109094 0.16678554 -0.29480162 0.063697204 -1.4833747 -0.9266598 0.83576375 -0.5506708 -0.22792189 -0.0430677 0.087787986 0.6667504 -0.32837376 0.46887785 0.1641437 -0.19816568 0.5585359 -0.4913175 0.1200316 0.94757277 -0.4018708 -0.2816213 0.8465836 0.1854043 -0.2821954 0.447961 -0.43599492 0.26012164 -0.40037996 0.53840786 -0.24031213 -0.3228275 -0.039047122 -0.42483854 -0.104681425 -0.82727414 -0.034284618 -0.25739074 0.24722314 -0.027398303 -0.23356426 -0.40188643 -0.09327508 -0.049783405 -0.5406734 -0.28365183 0.5932122 -0.096930616 0.19840883 -0.051807594 0.8539229 -0.14238454 0.08547456 0.28863972 0.26691544 -0.07918455 0.19113055 -0.4054281 -0.07195819 -0.4315786 -0.39250135 0.9220057 -0.07175958 -0.84200144 -0.0068346723 0.8443241 -0.37336913 -0.15278897 0.99916166 -0.2437685 0.61560816 -0.44682384 0.19956324 -0.19933571 -0.06553014 0.06653669 0.24974889 -0.4992466 -0.26254833 -0.5735407 -0.4767178 -0.65785104 0.13073684 -0.6603791 -0.12064052 0.08559838 -0.1934812 -0.45317248 0.33516127 0.56563497 0.791447 0.23446879 -0.069881156 -0.19667512 -0.1648514 -0.46535093 0.19513473 -0.52217835 -0.03833268 0.33007908 -0.35039487 1.3282126 0.06543582 0.23981628 -0.17812127 0.18046866 0.23236789 -0.04848277 -0.3731193 0.24716866 0.50237274 0.051331244 0.26935646 -0.35168114 -0.5591954 -0.9080522 -0.15732269 -0.15767092 0.34914818
642894 -0.35854644 -0.23268686 0.41472188 -0.47480726 1.3118497 0.46967444 0.41899967 -0.35259992 0.0521834 -0.3814732 0.10097571 -0.20239478 0.29611745 -1.4888632 -0.68038636 0.7545845 -0.31505752 -0.22340915 -0.019602632 -0.09635809 0.7343835 -0.15225807 0.34913343 0.16336928 -0.42785323 0.38955274 -0.5711826 -0.19302256 1.0840677 -0.4026831 -0.30357754 0.8290831 0.41254765 -0.38361606 0.62899536 -0.32720053 0.42196262 -0.47500396 0.60612166 -0.19152795 -0.24698304 -0.04555437 -0.45320728 -0.16101563 -0.87231284 -0.088705435 -0.109098814 0.28549123 -0.18356772 -0.12599355 -0.08802287 -0.28119135 -0.14580615 -0.40739828 -0.33704665 0.73351866 -0.25810662 0.20889385 0.13036653 0.87185365 -0.04208115 0.0018718578 0.37615412 0.5347812 -0.27057898 0.13208549 -0.39634833 0.13317455 -0.41071382 -0.33511755 0.9402034 0.035101414 -0.83111984 0.09761328 0.68115914 -0.20639113 -0.15461606 1.0344136 -0.29709056 0.62478566 -0.61950475 0.058507364 0.1850155 -0.1766498 0.054237988 0.36276525 -0.42902395 -0.099653855 -0.5907113 -0.45482332 -0.77157855 -0.091764174 -0.6458533 -0.12684676 0.27810496 -0.30481246 -0.35988623 0.17207432 0.5098753 0.79391927 -0.1029563 -0.1583523 -0.056088313 -0.115775205 -0.6140867 0.10307398 -0.66235656 -0.23334695 0.10582395 -0.27749646 1.099288 0.13405995 0.6063859 -0.31576362 0.37333047 0.0657741 -0.1629212 -0.18546169 0.17626297 0.768147 0.16842526 0.1738381 -0.23043796 -0.61231977 -0.846446 -0.0064450577 -0.16982529 0.122212894
3229 -0.34297693 -0.33673003 -0.91848314 0.42952842 -0.08268236 0.19047882 -0.5442262 0.30165994 0.16677676 0.675571 0.80496204 -0.12399286 -0.7376579 -0.9368564 0.24714023 0.06821366 -0.43130922 1.0039049 -0.39062676 -0.56595653 0.12385627 -0.5092322 -1.0907778 -0.23424603 -0.13477053 0.3741297 -0.27376163 -0.028761216 -0.69368446 1.097537 0.6058118 0.3792506 -0.022849679 -0.5739162 0.1679483 1.2694538 -0.4388656 0.57002646 0.79342085 0.35980213 0.11064837 -0.12732278 -0.6163722 -0.3418173 -0.5342389 0.74551743 0.01902905 0.3132363 0.8232121 -1.043828 0.14486931 0.96151006 0.2053394 -0.11009037 0.05961708 -0.025573317 0.65944856 0.7303716 -0.3427866 -0.15795372 -0.06013576 0.35094276 0.24485579 0.26742187 -0.32658866 0.4601661 -0.9983135 -0.7662732 -0.30364916 0.12152594 1.0603878 -0.16665971 0.04100838 -0.122770905 -0.29867497 -0.6592993 0.0076831556 0.9696646 0.4424086 0.6087163 -0.10401089 0.6488116 0.07427601 0.56040967 0.5176071 -0.02574447 -0.7962328 -0.2670063 -0.10109873 -0.3994565 -0.18388252 0.118835814 0.47368774 -0.30038276 0.10171694 -0.5252322 0.07427408 0.44664848 0.6597507 0.14154646 -0.18212666 -0.68183535 0.092294194 0.24411595 -0.30457485 0.7124075 0.3801408 -0.28222874 -0.37189648 0.99502194 0.26852557 -0.24224763 0.5560812 -0.68357515 0.5625752 0.14185703 0.0633313 -0.4416887 0.2608134 1.0279313 0.28946164 -0.6064528 0.746796 0.16316736 -0.39676479 -0.81724894 -0.71906084 -0.5469628
23738 -0.20788862 -0.16135478 0.028314888 -0.07728443 0.35593617 1.2192177 -0.32830352 0.22134586 0.062224418 0.4749788 -0.019115997 -0.5798447 -0.7613681 0.08828164 -0.6107459 -0.119246654 -0.15073436 0.01605971 0.19699243 -0.3707834 0.42813218 -0.104757555 0.0041711484 -0.02704776 -0.020943305 0.44822568 -0.8789864 0.15567523 1.0498185 -0.355803 0.40936452 0.95164764 -0.406786 -0.6439673 0.26775813 0.037866894 -0.11488165 -0.7803881 0.17631063 -0.60360426 0.5176378 -0.2361178 -0.37629864 0.429038 0.33389717 1.0318401 -0.091132596 0.2656862 0.27031192 -0.5682247 -0.04903021 0.4410778 -0.40994805 -0.5683276 -0.059259016 0.17730893 0.70782834 0.6516776 -0.7900844 0.6264278 -0.2473334 -0.005318484 -0.11620226 0.21708979 -0.39359993 0.70583683 0.29240662 0.13371934 0.04420122 -0.13121559 0.16586514 -0.73679006 -0.088664524 0.40553626 0.11718155 -0.31045792 -0.4071803 0.5593437 -0.118984126 0.39779103 -0.93369853 0.8207529 -0.24539346 0.18638302 0.101004034 0.57447463 -0.28767473 0.47321704 0.52511513 -0.4675055 0.2854836 -0.10417768 -0.43134296 0.4231276 0.017470246 -1.0216941 -0.3682608 -0.22693384 0.3541067 0.02197881 -0.3069936 -0.25622213 -0.33443147 0.6086411 -0.5551846 0.19968486 0.17272347 -0.051081926 0.11436253 0.05914898 0.69733936 -0.47741887 1.072636 0.33134186 0.7954024 -0.4028858 0.1524614 0.041341703 -0.7293065 1.0282339 0.012782536 -0.39976713 -0.14703074 0.099622786 -0.63366896 -0.73067284 -0.40307128 0.20402157
12350 -0.66076076 0.41021508 0.49650148 -0.0031119457 0.93291193 0.38894165 -0.16411187 -0.29809466 -0.6444136 -0.15455869 0.692977 0.4504486 -0.7200579 -0.57987595 -0.8534564 0.12963098 -0.43084842 -0.018025236 -0.18529698 -0.27255523 0.24999988 0.030800862 -0.23752953 0.18385136 -0.13296759 0.31346118 -0.9775671 -0.32480296 0.6741677 0.092705734 -0.361851 0.82366365 0.28154004 -0.13676348 -0.115190044 0.4378251 -0.3118114 -0.63022006 0.31149662 -0.051374532 -0.22373806 0.42862892 -0.74010986 -0.39807636 -0.14239873 0.02504978 -0.20242625 0.047590427 -0.151306 -0.21765584 -0.69385064 0.10540759 0.16314809 -0.2858233 0.05441224 0.00733543 0.09704266 0.3737653 -0.099215284 0.43230534 -0.6923886 0.1274632 0.2914781 0.04055179 0.17531267 -0.10325215 0.020922242 0.30373564 -0.2950607 -0.06488108 0.37696314 -0.54671615 0.33181462 0.24290022 0.042303506 -0.598913 -0.08076429 0.14733392 -0.27850297 -0.10935297 -0.19970746 0.7734175 0.01176965 -0.085568614 -0.107762106 0.09591509 -0.31884322 0.4541352 0.041623134 -0.40335858 -0.236677 0.20487519 -0.380709 0.28377557 0.06303526 -0.041847643 0.06883066 -0.34908208 0.034769937 0.21924211 0.013504435 0.5395628 -0.4772813 0.04447792 0.032045137 -0.5786512 -0.15192872 -0.6392379 0.0463242 -0.13684404 0.6042399 -0.06636082 0.8760017 0.26880473 0.2918227 0.13181378 -0.38983244 -0.22206017 -0.14986663 0.9123353 -0.60878336 -0.5794705 -0.35135102 0.055663966 -0.8055648 -0.4664096 0.13616063 0.14661205
35061 -0.15095441 -0.24908832 0.22060516 -0.657439 -0.005538919 -0.23063861 -0.5755337 0.34939417 -0.44202223 -0.075556174 0.46680802 0.51413935 -0.7315856 0.37303576 0.240804 0.47315058 -0.29809013 -0.044848263 -0.6583537 0.023193711 0.5948633 -0.32791522 -0.7294463 0.2811589 -0.72788376 -0.04450861 -0.021136956 0.45313582 -0.16888425 0.20177704 -0.57612467 0.02257371 0.2986103 0.07293401 -0.017048849 0.76487863 -0.9672554 0.27582413 0.19543166 -0.68610466 -0.3633436 0.44366115 -0.50596184 -0.92872846 -0.47844133 -0.037288778 -0.0076153716 -0.16424817 0.10937865 -0.194685 0.4986911 0.37459907 -0.15097518 -0.5290481 0.0037141317 0.47949117 0.06571938 0.5830513 -0.3097721 0.9085329 -0.9094413 -0.11421648 0.829541 0.63744086 -0.6837029 1.0360053 -0.11373378 -0.4373059 -0.40259957 -0.6973334 -0.15018393 -0.8602673 -0.6892905 0.2830826 0.023437351 -0.37126416 -0.40725443 0.09659057 -0.15119427 0.5128039 -0.4724536 1.0506 -0.83503073 0.35655022 -0.2528004 0.45173237 -0.19717698 -0.09689641 0.045293257 0.14899985 0.2806754 0.12278151 0.76993126 -0.35694915 -0.55009735 0.43023488 -0.544047 0.03854756 -0.058161233 -0.44681585 0.052159213 -0.08032125 0.031738613 -0.046512388 -0.7490747 0.68522096 -0.34431392 0.2485227 0.4004611 0.22270444 -0.04486458 0.14625403 0.5295726 0.094536856 0.16254005 -0.011506595 0.05414225 -0.21842955 -0.55917746 1.3275925 -0.15060653 0.014992965 -0.59856164 -0.099830896 0.03032412 -0.57096654 1.1355212 -0.685006
44514 -0.05765159 -0.31375718 0.05488711 -0.8964083 -0.4927293 -0.4225023 0.51313525 0.5359369 -0.6018209 0.27050552 0.737243 1.0052516 -0.31242305 -0.2028994 -0.73054177 0.39056757 -0.32280308 0.20459373 -0.23855495 -0.16291335 0.64408493 -0.63434273 -0.8203052 0.11500085 -0.8195841 -0.1834444 0.25898504 0.3656763 -0.06488508 0.4893662 -0.30328053 -0.34403336 0.15321945 0.24187183 0.27588004 0.6232079 -0.43936703 0.17623168 0.10515601 -0.23567317 -0.3637246 -0.10280431 -0.8994401 -0.56577253 -0.21683837 0.62577957 0.24154294 -0.4261589 -0.1464207 -0.43579754 0.21149834 -0.019792482 0.033486985 -0.30075213 -0.26650232 0.12694469 -0.39340717 -0.12759179 0.21517086 0.93901706 -0.9203136 0.5849066 0.700197 1.1633184 -0.35535032 0.7937673 0.30725154 -0.50775605 0.12366936 -0.7291258 0.38887623 -0.9685852 -0.87173295 0.3096648 0.44493577 -0.14955267 -0.6082267 0.3154368 0.045986786 0.36560667 -0.22232533 0.65425456 -0.83393675 0.2709625 0.29426128 0.5570976 -0.70202684 0.43905777 0.3751203 0.48360744 -0.120282225 0.0788551 0.36017054 0.43878403 -0.20213681 0.30745968 0.14716107 -0.3754043 -0.51464057 -0.3679132 -0.10360206 0.013040038 0.06625099 0.26568034 -0.6251905 0.2875278 -0.5198159 -0.20946732 0.23892309 0.25841373 0.60959375 -0.64132726 0.15579817 0.049469966 0.26739684 -0.05320922 0.14846864 -0.44213194 -0.605365 1.3736941 0.00805955 0.40151632 -0.6248858 -0.4037004 -0.26976952 -0.35441542 0.8786403 -0.5042958
24966 -0.33755073 -0.38282362 -0.6872943 -0.52965397 0.3872731 -0.36660114 0.4418714 0.23597863 0.16732156 0.90772545 0.5299809 -0.28974655 -0.423799 -0.13233799 -0.6820543 0.16385876 -0.29967833 0.33813423 -0.5126798 -0.99273664 -0.07773045 -0.43411514 -1.1404437 -0.07915564 0.26873437 0.2409199 -0.7183956 -0.46392268 -0.34508264 0.2032159 -1.0402552 1.6856174 -0.31252798 -1.817951 -0.26754636 0.6986723 -0.21985853 -0.96640843 0.5739973 0.81685245 0.97080916 -1.0900835 -0.46850672 0.2556073 -0.5582777 0.54942685 -0.4839841 0.093209624 1.3469543 -1.1498644 0.16214414 0.25030044 0.73268425 -0.24702615 -0.30867624 -0.105228506 -0.20239481 0.13943154 -0.079335965 -0.29687202 -1.4408618 -0.30935973 0.6079447 0.057528827 0.007490727 0.20192137 -0.5033524 -0.13063176 0.25560957 -0.17335601 -0.07102776 -0.3872489 0.37961754 -0.054867074 0.16559324 -0.92370254 0.09399362 0.510776 0.5719368 0.55530924 -0.6734116 1.1028653 -0.6579132 0.34683833 0.033304792 -0.055159725 -0.55945945 0.06921836 -0.57974035 0.69351697 -0.25618887 -0.485203 0.124326415 0.6410919 -0.034522824 -0.44462407 -0.40375146 0.21107563 -0.052170534 0.022387512 0.5348718 -0.44385248 -0.5337774 0.1435584 -0.25284708 0.19260305 -0.36695433 0.10743712 0.28704342 0.55443215 0.7469557 2.1012249e-05 -0.5651747 0.13191599 -0.6006164 0.1863253 0.6094651 -0.7661987 -0.17877606 0.4949541 -0.2420479 -0.44389197 -0.43484846 0.34879616 -0.557921 -1.2252679 -0.412371 -0.12851226
643485 -0.2656248 -0.2822102 0.55186665 -0.5023927 1.4865505 0.5241829 0.32583323 -0.22234043 0.18604161 -0.27626032 0.0101404125 -0.28091955 0.24954581 -1.2381961 -0.9149436 0.68138486 -0.47348598 -0.2589302 0.01154987 0.15397063 0.660689 -0.099251695 0.4179624 0.063700914 -0.14072514 0.6117112 -0.6137817 0.08799857 1.1386788 -0.35030898 -0.29245552 0.874549 0.24908657 -0.38114375 0.74633694 -0.23459694 0.33395144 -0.6245066 0.6337257 -0.48548597 -0.254454 0.050521497 -0.60679036 0.026066596 -0.7455526 0.0947343 0.017158942 0.45867038 -0.002385246 -0.06767755 -0.42269188 -0.38075575 -0.18846497 -0.8243294 -0.24682365 0.7643278 -0.055496883 0.34556946 -0.02027406 1.0687381 -0.1715876 -0.02360569 0.42644584 0.32724863 -0.30908933 0.18239376 -0.401413 -0.1109251 -0.46540573 -0.46727937 0.6987026 0.027961982 -0.9173539 0.4297279 0.6974772 -0.26918274 -0.29658723 1.3007636 -0.4366106 0.68323326 -0.7564551 0.11593778 0.008065443 0.0918838 -0.051235612 0.32986134 -0.4159444 -0.16769959 -0.668627 -0.44639477 -0.7222485 0.056807637 -0.7133704 -0.260275 0.31069583 -0.299187 -0.396985 0.16310166 0.6123535 0.6828183 0.079235554 -0.15976325 0.05780878 -0.08733897 -0.5049507 0.17370135 -0.5139892 -0.10056964 0.3789507 -0.35111645 1.2651064 0.12756243 0.40767518 -0.27473193 0.39236155 0.12898566 -0.09697568 -0.37154245 0.19475278 0.63546723 0.122992225 0.20584996 -0.32178792 -0.66208786 -0.76453835 0.054541804 -0.172483 0.2479633
910 -0.8966989 0.28824767 -0.47723392 0.19481173 0.5698941 0.27185595 -0.11452563 0.21233258 0.4326527 0.4868243 0.65223444 -0.94670755 -0.69626975 -1.1389725 -0.46456218 0.6624392 -0.32943466 0.17171507 -0.5196701 -0.031084174 0.34328994 -0.25107315 -0.83507353 0.7524146 0.2926006 0.088444695 -0.16894706 -0.11120449 -0.20708168 -0.22454564 -0.20718573 0.36194864 -0.11501886 -0.72370964 0.037445024 0.52877784 0.6763774 -0.09597402 0.14049138 0.13582829 0.1155539 0.085772105 -0.20559272 -0.5063747 -0.74620813 -0.026839763 -0.9193116 0.74887913 0.006288922 -0.29916608 0.0074852505 -0.09525737 0.1102575 -0.790873 -0.087259516 0.3461795 0.42023852 0.095816016 -0.30840564 -0.055611625 -0.5651392 -0.23938847 0.38010004 0.22292863 -0.85852027 0.39488497 -0.74172574 0.0060842927 -0.43252754 -0.6457429 0.0036837584 -0.30722943 0.36837977 0.11954835 0.23261341 -0.509597 0.2615096 0.44934487 -0.363123 0.7563974 -0.39654994 1.1919942 -0.12486696 0.010943396 0.64814466 0.10634967 -0.55367494 -0.6019828 -0.70830786 -0.723887 -0.6992497 0.96063524 0.05684543 -0.104119375 0.5127361 -0.07564179 -0.7341657 -0.092702486 0.2166576 0.9033338 -0.0709539 0.13294603 -0.48478708 0.1854546 -0.29221702 0.4640761 -0.24846806 0.24795067 0.007340153 0.1907977 0.57674026 -0.31098455 0.048142422 -0.12205006 0.85287124 -0.2794939 -0.063993305 -0.93385047 0.56942827 0.30732307 0.1645908 0.1390583 -0.22888918 -0.2520467 0.44054192 -0.1683672 -0.35246134 -0.20554188
36140 -0.11143658 0.22327814 0.303746 -0.40718496 0.6457239 0.8023602 0.11659325 0.16104768 0.30795538 0.39265734 0.51820374 -0.28158018 -0.6105184 -0.26597732 -0.3723159 0.26127678 0.08500482 0.18897454 -0.45690644 -0.24260779 0.33168462 -0.16566485 -0.24044318 -0.022445207 0.08835437 0.5255657 -0.4737524 0.078386225 0.78531575 -0.38818222 0.27492857 1.0007855 -0.50095576 -0.24685496 0.6076439 -0.2538151 0.09815842 -0.7530203 0.42530146 -0.1347624 0.358527 -0.43253738 -0.40699825 0.38459206 0.17399412 0.3475883 -0.33053082 0.3356778 0.10946109 -0.23784547 0.1655096 0.51999557 -0.14078106 -0.93605673 0.0025432745 0.24622416 0.3696976 0.61502534 -0.3139495 0.38668513 -0.23377681 -0.030496277 0.3786861 -0.12853351 -0.6890353 0.4222018 -0.0013250787 -0.24124436 0.477275 -0.3434646 0.19797793 -0.21679956 -0.12940808 0.39328486 -0.19650188 -0.08683856 -0.6665462 1.2491097 -0.5323629 0.26333058 -1.2497578 0.771347 -0.3090259 0.21978383 0.13312657 0.03954097 -0.39091107 0.2081463 -0.17967714 -0.33822507 -0.13267855 0.08134949 -0.15225454 0.2140697 0.4201236 -0.6953592 -0.41087174 0.13474892 0.13537902 0.062211283 -0.52529067 -0.13159692 -0.15449406 0.5727103 -1.0484806 0.48323333 -0.029904837 -0.17191641 -0.22330998 0.029997397 0.329036 -0.5349832 1.2993171 -0.27104595 0.64404196 -0.0365273 0.29369515 -0.0403993 -0.4754184 1.0358096 0.2355149 0.025277458 0.09707641 0.033350237 -0.35897702 -0.28173384 -0.4190924 0.02182969
6184 -0.6151302 0.24527922 0.23331633 -0.120191924 0.026654352 -0.019610086 -0.5370697 0.12154162 0.14954212 1.0705308 0.50303125 0.40123597 -0.18225199 -0.024556832 0.0762749 -0.44684276 -0.18824244 -0.15756218 -0.08765863 -0.041946176 0.49291277 -0.14885966 -0.6887454 -0.03574014 0.8136404 0.7245523 0.029146297 0.34461245 0.018045237 0.21819393 0.23725523 0.58550394 -0.2274148 -0.46505678 -0.34143203 0.34103617 -0.52540356 0.24535517 0.5457691 0.29125533 0.7083469 -0.12650193 -0.6159525 0.43309584 -0.056146894 0.4728697 0.5175596 0.9866293 0.60162026 -0.8169901 -0.18436848 0.4801983 1.0453681 -0.68878704 -0.0839701 -0.32156917 0.83297557 0.32570624 -0.37010857 0.6778078 -0.86013865 0.02068761 0.26629335 0.3223938 -0.17522797 0.4113736 0.15777753 -0.5793307 -0.6210673 -0.24921323 0.8849748 -0.28336176 -0.13567938 0.13571666 -0.045523956 -0.84078604 -0.39004448 0.49870035 -0.053367797 0.31192267 -0.7112758 1.0821861 0.06401218 0.25017107 0.16205828 0.17913896 -0.15137577 0.27593958 0.04472451 0.15601839 -0.20378129 0.34045684 0.21880342 -0.08800581 0.30233905 -1.4066253 -0.070867956 0.4951967 -0.23073733 -0.20841269 -0.21934761 -0.49948516 0.27012503 0.7133307 -0.77533877 1.0790383 -0.16327442 0.35043186 -0.07313196 -0.026108375 0.052004445 0.011200079 0.42667913 0.2318871 0.3078723 -0.7207191 0.15449612 -0.1421195 0.007845497 1.0181998 0.7735494 -0.8330175 0.5790585 -0.20635061 -0.5258065 -0.8641345 -0.5553965 -0.42775586
20193 -0.40431395 -0.4560697 -0.26236475 -1.0387347 0.43972832 -0.025956193 0.04185468 -1.5703495 -0.39792034 -0.046772335 0.331654 0.9122535 -0.5268785 -0.36532718 -0.72903126 0.22129607 0.5792253 0.9003689 -0.28003898 -0.6578145 -0.43874153 0.7086062 -0.4096923 -0.49118897 -0.105826944 -0.3475833 -0.24110636 -0.16262153 1.0844736 -0.1928518 0.1414413 1.1711841 -0.42034912 -0.20216337 0.03482005 0.39899817 -0.3818987 -0.37993416 -0.88562834 -0.0606011 -0.5215423 -0.13206188 -0.4545692 0.4861654 -0.127189 0.3547638 -0.35038283 -0.37618575 0.49157953 -0.45789075 -0.33580634 -0.5094101 0.48162588 -1.3294376 0.3943625 0.34468925 -0.2542228 -0.005736432 -0.75890917 0.25116336 -1.0337175 0.020723516 0.67029583 1.1004906 -0.6391227 1.0510262 -1.0438557 0.45172164 0.21066485 -0.003903641 0.10149654 0.39297462 0.2936517 0.640488 -0.045650363 -0.29903483 -0.2606396 -0.19108504 0.29190212 -0.050600454 -0.70225555 0.7269966 -0.13436145 0.9577184 0.017613132 0.5158584 -0.55915457 -0.08813949 -0.015589934 -0.01450131 -0.0036144645 0.65116465 0.94538116 0.16227998 0.7410773 0.46264097 -0.3086453 -0.46245375 0.32914996 0.25825638 0.32920393 0.08397047 -0.024994565 0.4777734 -1.1577743 0.5145593 0.05072114 -1.0728313 -0.5351938 0.90512854 0.5601783 0.6789989 1.1305963 0.13637385 0.7259217 -1.2499441 -0.21332113 -0.24441025 0.20134917 1.6306349 -0.46786007 -0.24200356 0.3404023 0.039600898 -0.51314306 0.42280766 0.07015467 0.3958289
642621 -0.4039065 0.44890898 0.13555546 -0.60292226 1.7408057 0.8807678 0.6654285 -0.30797294 -0.012157994 -0.15189755 -0.076822594 -0.47057995 0.45861292 -1.6276109 -0.9600241 1.2098883 -0.3566425 -0.22947057 0.2984828 -0.0082054585 0.45441473 -0.44704512 0.45912078 0.21332052 -0.26574278 0.30161238 -0.32358938 -0.1185977 1.1405518 -0.26748374 -0.4514778 0.7865455 0.2386848 -0.34756258 0.324238 -0.5779503 0.33973432 -0.33826396 0.5443071 -0.2851979 -0.38820451 -0.063423544 -0.7242389 -0.15527137 -1.4514804 -0.27073288 -0.3366086 0.115255326 0.07120563 -0.5679104 -0.27846968 -0.12982737 -0.32220483 -0.63824016 -0.71904916 0.8086741 -0.32643968 0.23987181 0.20290649 0.65304655 -0.26403672 0.25166422 0.16325897 0.25653026 -0.30142942 0.05004387 -0.36202666 0.16923626 -0.32013807 -0.1794017 0.77271163 0.07480086 -0.92506295 0.10155432 0.9150154 -0.52198267 0.08445744 0.950648 -0.015377336 0.8058429 -0.47902462 0.40120304 -0.15726194 -0.14353286 0.22965434 0.08944879 -0.80122304 -0.110932685 -0.58538204 -0.3535515 -1.035393 -0.3511439 -0.40964 -0.3369458 0.34447792 -0.18540376 -0.40669626 0.15246195 0.34377077 0.7849009 0.24952698 -0.42843917 -0.23810267 -0.05579888 -0.79983747 -0.11245957 -0.5897532 -0.12750155 0.15112868 -0.3724594 1.0590036 0.04679107 0.03764785 -0.34048176 -0.019977013 0.5185216 0.041150343 -0.53281635 0.37705052 0.10848241 0.10018719 0.33453226 -0.46632147 -0.14312647 -1.0164047 0.13133435 -0.03745292 0.3036666
198653 -0.3467343 -0.28163686 0.14764339 -0.069961384 0.051148914 0.05028964 0.25404045 0.2224359 -0.2783533 -0.2626696 0.29669315 0.89864177 -0.525459 -0.009050851 -0.2724255 0.64903504 0.22064592 -0.016627435 -0.0025071234 0.46807984 0.30103582 -0.052160934 -0.56243837 0.51499104 -0.3837463 -0.7646229 0.16199465 0.19507627 0.2532118 0.37243494 0.1334986 0.18133596 0.054830622 -0.37968487 -0.16471882 0.55771047 -0.71661747 0.018652445 -0.10883275 -0.42653382 -0.15297107 0.18741825 -0.71380746 -0.59789044 -0.9787253 0.17405924 0.38556027 0.7476509 0.10799999 -0.40876597 0.11590941 -0.31390363 0.7187485 -0.70694655 -0.5055004 0.075878754 -0.10568757 0.7243368 -0.46044484 0.31170195 -0.71492714 -0.037785593 0.87421757 1.301519 -0.6987018 0.61274415 -0.050767276 -0.17810614 0.31995043 -0.391856 0.090718046 -0.27119413 -0.31976926 0.5479987 0.42389044 -0.3712689 -0.4148517 0.76804143 -0.0030690571 0.16957395 0.017290257 1.0524422 -1.0258644 0.23040141 0.07167881 0.06081247 -0.7819936 -0.39108843 0.11551504 0.59606063 -0.6084723 0.36187875 0.0903725 -0.2739006 0.5360524 -0.008245207 -0.42741284 -0.2979617 -0.053977598 2.2554801e-05 -0.45298365 -0.31999776 0.04631285 0.4218983 -1.3430856 0.506059 -0.21537219 0.19098346 -0.027512988 0.26194468 -0.004372478 0.089776106 -0.26549384 0.021203533 1.2236999 -0.14225203 0.17974044 -0.49146852 -0.28761026 1.1156179 0.93740404 0.12692761 0.16992456 -0.40422902 0.3037508 -0.48226243 0.8813511 -0.16991541
6151 -0.31118944 -0.34897408 -0.15903117 -0.31258142 -0.11247322 -0.36184126 -0.38335645 0.60039896 -0.34373018 -0.21007071 0.7059623 1.0997292 -0.9629426 -0.27225256 0.13882625 -0.088151395 -0.59019256 0.318566 0.24395335 0.37774795 0.30220157 0.16808672 -0.51230246 -0.48173675 0.62350607 -0.03846942 -0.15047517 0.40638793 0.067717716 0.17425172 -0.02427945 0.76550597 0.28932723 -0.6111038 -0.035391655 0.72698605 -0.63194686 0.1772903 0.3787032 0.0470453 0.014495232 -0.025384657 -0.7099401 -0.27968538 0.19190425 0.31457862 0.47046986 0.79125404 0.34381104 -0.5343126 0.1798047 -0.29370564 1.1655177 -1.2421184 -0.17814864 -0.19010477 0.6752786 0.10695876 -0.76032805 0.79072064 -0.641345 -0.0973189 0.6816683 0.6416651 -0.57298654 0.28317964 0.055098508 -0.21708019 -0.008755573 -0.4468278 0.6718963 -0.2807995 0.024681736 0.45636767 0.107161194 -0.33160874 -0.27295038 0.893698 0.10416758 0.23338394 -0.06394626 0.5986387 -0.32655537 0.35537168 0.1315941 -0.04598761 -0.7651781 -0.2015953 -0.22731963 0.04695122 -0.3946465 0.62048435 0.18200532 0.5836951 0.58053756 -0.30526522 -0.07390961 0.104958564 0.12575085 0.078058586 -0.3519939 0.04204768 -0.09953766 0.18246004 -1.7024785 0.59695536 -0.11174843 0.18107347 0.012041141 0.21582313 0.23848064 0.22671475 0.14209205 0.04141335 0.67979753 -0.02416615 0.83805543 0.03258969 -0.03788675 1.069634 0.50572336 -0.27554244 -0.2076251 -0.853097 -0.13435875 -0.79886055 0.3344304 -0.47985846
