2708 128
15429 -0.35632628 0.82997155 -0.014866158 -0.94671977 -0.6841949 -0.4260448 -0.24804464 -0.5264169 0.013172743 -0.023012038 0.16224334 -0.5687621 -0.2915861 -0.062447254 -0.014698945 0.13954447 0.7742041 0.095853485 0.5070493 -0.2583659 -0.16756798 0.17212398 0.62285614 0.023198359 0.032149468 -0.21964233 0.04774839 0.74259317 -0.2683451 0.09523973 0.16065665 -0.57391375 0.3979114 0.37794983 0.22316337 -0.55258185 0.33068436 -0.4071172 -0.35449198 -0.42834565 -0.16011596 -0.25052845 0.06957945 -0.78769845 0.14494102 -0.45683345 0.79365003 -0.1889909 0.24617662 -0.24696122 -0.8061767 -0.72947097 0.529821 0.23952553 0.38131392 -0.3987261 -1.35149 -0.2696066 -0.76787186 -0.17439303 -0.66262317 -0.0922746 -0.56398153 0.22496174 -0.5894345 -0.20801087 0.51619506 0.39211723 -0.23215617 -0.20841898 0.19578391 0.28971344 -0.19869035 0.123094805 -0.13227427 -0.37714258 -0.0916967 0.14088759 0.56708616 0.12696995 -0.17900935 -1.1857634 -0.41051453 -0.41053295 0.51062703 -0.3269529 0.45153293 0.093617946 -0.3780635 -0.20102201 -0.03868098 0.012551396 -0.6132704 0.05314601 -1.138452 0.22025438 -0.10718188 -0.24319181 0.03646534 -0.1322695 -0.19453385 -0.3444525 -0.13493346 0.4464619 0.38920823 -0.3781639 -0.13241503 0.3880915 -0.4315554 0.013723381 -0.47254172 -0.3402105 0.43315005 -0.46926928 0.8067399 0.20301011 0.38677704 0.49155375 0.33686012 0.3112881 -0.019193197 -0.10994563 -0.071011975 -0.6888228 0.38847217 -0.34068346 -0.3144892 -0.024936344
10177 -0.30717358 0.75386494 -0.015657725 -0.8240633 -0.62569606 -0.4290153 -0.20781116 -0.4541071 -0.071674116 0.04059642 0.17427412 -0.5886423 -0.17835954 -0.05415339 -0.07261162 0.14616397 0.7862125 0.056168668 0.49447793 -0.23993975 -0.16896862 0.14306886 0.58618975 0.08763096 0.029083267 -0.11394827 0.063632265 0.7715665 -0.30406588 0.16291995 0.17876264 -0.48546484 0.28821266 0.29397526 0.18623915 -0.6213977 0.34599736 -0.45034048 -0.36971006 -0.39089546 -0.22497483 -0.20074823 0.06910481 -0.73366326 0.0427699 -0.37662718 0.7061078 -0.1654652 0.21475789 -0.24568936 -0.8266535 -0.70545554 0.484623 0.2302485 0.3890567 -0.37469056 -1.3682475 -0.2851836 -0.7829724 -0.25268045 -0.73109365 -0.15646264 -0.50769293 0.18260543 -0.606541 -0.2557722 0.5193483 0.446898 -0.23825182 -0.23541947 0.20663512 0.33422974 -0.18747939 0.07067166 -0.14014931 -0.3629692 -0.0518697 0.13620229 0.48873958 0.11557346 -0.20344499 -1.1232238 -0.42417395 -0.39754063 0.517677 -0.42732364 0.50850964 -0.014753129 -0.39808896 -0.13749549 -0.052416608 0.0118752215 -0.6145355 0.09563499 -0.91123617 0.28073174 -0.16249879 -0.24178231 0.042680264 -0.17451686 -0.067693286 -0.3681546 -0.21201238 0.46661147 0.35708278 -0.40209013 -0.21878184 0.43441162 -0.5011306 0.016183104 -0.47728977 -0.30779237 0.4075871 -0.5071357 0.83541477 0.24446903 0.36500323 0.5572195 0.33178213 0.24430312 -0.1088435 -0.1462395 -0.07087499 -0.7094082 0.4185249 -0.37136167 -0.40059876 0.002733077
6898 -0.07929507 0.56506175 0.6094032 -1.1199043 0.09278911 -0.3479948 -0.09396069 -0.5623831 0.50895095 -0.21975338 -0.20563775 0.08204356 -0.4035494 -0.17464466 -0.11300895 -0.32754555 0.2649912 -0.4906529 0.1938155 0.10958854 0.27053797 -0.22453427 -0.17945501 -0.4723549 0.06735005 -0.52798724 0.11251095 0.14355117 -0.32762405 0.20555256 0.2756279 -0.6482462 0.14538632 0.898713 -0.12781864 -0.307979 -0.09184558 0.00045732097 0.18609717 -0.06597192 0.4513826 0.13181515 0.16984224 -0.3393603 0.4701904 -0.46372068 0.3986336 -0.63057494 -0.63461643 -0.37316024 0.12539847 -0.077783525 -0.05653139 0.0031890892 0.58554626 -0.2776703 0.13419642 -0.47326696 -0.38731638 -0.2323419 -0.3560795 0.21155216 -0.45846227 0.787815 0.3859311 -0.51766354 0.559317 0.62781703 -0.30600005 -0.30652466 0.18817088 0.061834246 0.008950944 0.099556126 -0.5216808 -0.20344694 -0.14502661 0.06735337 0.65887916 -0.46336848 -0.4595318 -0.32012406 -0.019540986 -0.50074214 0.47425416 -0.672286 0.6377413 0.013497931 -0.30006385 -0.11333866 -0.31124675 0.45607942 -0.8048411 0.36399233 -0.05154943 0.26929593 -0.85805655 -0.533148 0.2521707 -0.5034242 0.00319703 -0.43891707 -0.29506978 0.59611607 0.43279123 -0.5116071 -0.41727534 0.42194015 -0.71453685 -0.36427045 -0.52130944 0.42129672 -0.97024375 0.08348379 0.2896135 0.015271131 0.25453544 0.10908168 -0.8900326 0.26783752 -0.8247645 0.3032307 -0.3274276 -0.3745537 -0.04523148 -0.3202442 -0.18944335 0.2827187
2696 0.11232193 0.06971905 -0.03396439 -0.3875902 0.95692813 0.19442038 -0.33196354 -0.7170475 0.043592986 0.14650752 -0.12822486 -0.12051112 0.24782701 0.034376297 -0.46824136 -0.81164145 0.38809183 -0.49156582 -0.5579653 -0.38801152 0.16337907 -0.5236043 -0.24824445 -0.6060908 -0.9153404 -0.29126918 0.6907189 0.5481435 0.4425879 0.8515741 -0.8291161 -0.66868037 1.1062163 0.6373664 0.1259935 -0.03802283 0.07389168 -0.2358417 -0.58212346 0.020546865 0.8769418 0.52868676 0.16797796 0.074263185 0.45152617 -0.26831904 0.18317865 -0.000808969 -0.019866968 -0.8101218 0.5382931 0.061863843 0.42713535 0.0070108115 0.031311247 0.07224745 -0.21980569 -0.5794604 -0.32796177 -0.27041298 -0.14299327 0.9754276 -0.047556356 0.7068283 0.48991588 -0.73072886 0.7442538 0.83709484 -0.0067772227 -0.23737088 -0.9754778 0.22877815 -0.14003262 0.33081332 0.18958966 -0.25309044 -0.18331592 -0.18872939 0.8967942 -0.4685146 0.12089723 -0.032604594 -0.5050709 -0.4530944 0.28107885 -0.20923924 0.18845317 -0.34820777 -0.066710465 0.29111573 0.30518153 1.0554601 -0.5366062 0.5341472 7.206984e-05 0.20449884 -0.938765 0.142146 -0.74397206 -0.8262696 0.7993465 -0.12824088 -0.077126145 -0.026621692 0.38297158 -0.56437665 -0.622279 0.17906453 0.044993173 0.43129903 -0.4512565 1.0083159 0.47994453 -0.16612668 0.2013577 0.38408983 -0.72079647 -0.74899733 0.3143145 -0.3860857 -0.7702786 -0.14743665 -0.667747 -0.45624122 0.8854137 0.6892766 0.12170625 -0.82955307
5348 0.021430451 -0.02066423 -0.07522503 -0.307313 0.953928 0.23746184 -0.4078702 -0.691536 0.055156957 0.20088065 -0.21465887 -0.07728157 0.271765 0.03770517 -0.5337531 -0.8742334 0.27941748 -0.54657745 -0.52197313 -0.3559783 0.19255793 -0.6225151 -0.23080476 -0.642005 -0.85145366 -0.32962373 0.6361208 0.5639072 0.4734369 0.7986012 -0.8722081 -0.64755595 1.1018416 0.62867254 0.07173251 -0.04306236 0.024980068 -0.23490705 -0.61490047 -0.10278856 0.9264755 0.49763024 0.09304095 0.061201867 0.4820755 -0.22811201 0.20444874 -0.011674876 -0.100706555 -0.78684 0.5002352 0.07867033 0.3681247 0.02139382 0.062849104 0.048182584 -0.19882977 -0.5139586 -0.38455972 -0.34033132 -0.21193998 0.94702995 -0.06524082 0.77934706 0.4068046 -0.76510054 0.719212 0.7404982 0.0066080317 -0.33567622 -1.0127532 0.2611598 -0.18531711 0.23204042 0.16952728 -0.22331785 -0.092872314 -0.18014358 0.9236643 -0.4149394 0.10097579 -0.06036877 -0.50076675 -0.4012846 0.37644815 -0.18505414 0.23966019 -0.32172298 -0.010779863 0.35019892 0.24351712 1.0901392 -0.5034665 0.55239797 -0.046626065 0.2766139 -0.94215816 0.15517762 -0.6806259 -0.8042822 0.80158544 -0.092828736 -0.09153384 -0.0848998 0.32756862 -0.5486161 -0.6062633 0.12734388 0.045688655 0.3926319 -0.49535194 1.0980124 0.39094627 -0.16371605 0.24912974 0.35669234 -0.7274708 -0.7102907 0.28786826 -0.37764534 -0.7918042 -0.1620497 -0.58155453 -0.5040087 0.8785547 0.6560831 0.12081923 -0.8229164
31353 -0.34807396 -0.048815522 0.21154812 -0.046359207 0.28898326 -0.81918555 -0.2061962 -0.30411217 -0.37751684 -0.39869028 -0.11845464 -0.21501936 0.47997102 -0.3110872 -0.047770187 -0.30347604 0.1759906 0.17084365 0.07769904 -0.5517538 -0.49339736 -0.46252865 -0.0183028 -0.86934596 -0.750267 -0.13256659 0.08744427 0.4625225 0.18243478 0.46621156 -0.5928467 -0.5601421 0.19365442 -0.100994214 -0.31047127 -0.4033796 0.348285 0.07650327 -0.24052002 -0.65878344 0.55147564 -0.21630207 -0.035514016 -0.45619884 0.4456959 -0.8360481 0.89649534 -0.527157 0.23432305 -0.28912663 -0.010071689 -0.3087981 0.558151 0.04806822 0.6542356 0.11503285 -1.0089128 -0.2523815 -0.7501587 0.09155918 -0.43748763 0.19316083 -0.96813774 0.20971157 0.1917764 0.14627035 0.34554064 0.77104276 -0.48761413 -1.0680591 -0.82774985 0.1280639 -0.4842473 0.2219595 -0.031944886 -0.50730824 -0.59639996 0.05495686 1.0826057 -0.22913823 0.09177061 -0.27574858 -0.32679778 -0.10698202 0.17510228 -0.30671036 0.36678374 0.12496776 0.25627193 0.54010355 0.10317972 0.32716233 -0.507808 0.62582093 -1.0378171 -0.025406737 -0.7114556 0.05458198 -0.34304753 -0.44452024 0.1475729 -0.49637488 0.28119862 -0.20998564 0.70520186 -0.75333494 -0.662344 -0.3021826 -0.2724512 0.17862785 -0.5723181 0.33113375 0.28079316 -0.42096525 0.003674101 0.28167027 0.53620774 -0.50047576 -0.12274947 0.5585476 0.22385535 -0.074071646 -0.8011089 -1.1269866 1.0231965 -0.37450472 -0.29686564 -0.3199671
10531 -0.27341405 -0.13800523 0.22218132 0.040766038 0.29250455 -0.8119742 -0.1765922 -0.27791765 -0.38975945 -0.43508255 -0.084237576 -0.253439 0.441249 -0.27721116 -0.05930406 -0.2635928 0.17044878 0.21002817 0.032818567 -0.48455203 -0.5341479 -0.42681885 0.0008400198 -0.8343676 -0.73873883 -0.19864467 0.09151254 0.4815705 0.22782761 0.48729533 -0.6737833 -0.5481125 0.28007135 -0.144418 -0.32622406 -0.43721855 0.34608945 0.0051090783 -0.18859032 -0.6542664 0.5569148 -0.23934464 -0.026811836 -0.510396 0.46241063 -0.7674996 0.9912226 -0.5170446 0.27871627 -0.4041491 -0.121262945 -0.32186428 0.63472587 -0.012570087 0.721939 0.16577281 -1.0538898 -0.14948726 -0.8122522 0.054191105 -0.4255719 0.18299446 -1.0312251 0.15655549 0.1656638 0.19199918 0.39144576 0.72603273 -0.47620806 -1.0680472 -0.8444023 0.10268048 -0.5529306 0.1553742 0.01543684 -0.46095642 -0.6047423 0.090100825 1.0019927 -0.24705362 0.102662735 -0.26615575 -0.4027034 -0.114164494 0.13758898 -0.32601437 0.33532226 0.025615126 0.32931674 0.5066167 0.075982496 0.22770809 -0.3932817 0.67276895 -1.018248 -0.055885237 -0.6175388 0.15452296 -0.42748046 -0.5360433 0.1634987 -0.3962035 0.31223816 -0.18607768 0.71954066 -0.7563659 -0.7281821 -0.32126236 -0.24518083 0.16025439 -0.48958224 0.38173208 0.37943658 -0.36853164 -0.0053261044 0.26629415 0.5690555 -0.42680857 -0.1266823 0.45925707 0.27219832 -0.109788395 -0.7516657 -1.1206024 1.0464264 -0.3285682 -0.22272788 -0.23341475
12631 -0.0948298 0.6174048 0.5536067 -1.0691631 0.032120407 -0.23567759 -0.10103076 -0.5908303 0.51301277 -0.16182177 -0.2769845 0.12750849 -0.3585022 -0.107045844 -0.13845958 -0.2995748 0.2966605 -0.5226061 0.18467878 0.17624043 0.24515975 -0.19703382 -0.13350217 -0.4249673 0.08292427 -0.4891902 0.10396366 0.1478904 -0.30783394 0.15313275 0.29676008 -0.60937804 0.14084123 0.938081 -0.15134008 -0.32459176 -0.09364708 0.073398456 0.16670732 -0.029459918 0.39070603 0.2080844 0.16666332 -0.4026278 0.511711 -0.34504855 0.39281863 -0.57639027 -0.64621484 -0.451009 0.1738882 -0.068744764 -0.13849635 -0.07782104 0.4307055 -0.24412969 0.09094317 -0.39474493 -0.35238412 -0.18845779 -0.35707074 0.24016961 -0.4030935 0.7685865 0.36902934 -0.59229696 0.6806567 0.5736761 -0.25376195 -0.29005015 0.20917997 0.14101909 -0.054481085 0.08690842 -0.46780422 -0.25732917 -0.10421538 0.10304195 0.77911675 -0.494472 -0.48750007 -0.27867496 -0.052727938 -0.56227726 0.4741216 -0.70893484 0.64219296 -0.15353914 -0.25733718 -0.21677232 -0.3042011 0.44821233 -0.8640321 0.32948476 -0.0822163 0.2931102 -0.9036649 -0.46521315 0.20684275 -0.52963805 0.029749677 -0.5267688 -0.3655117 0.53195953 0.32868874 -0.49525565 -0.36560214 0.4363696 -0.65888983 -0.42581627 -0.5385448 0.49103054 -0.95392865 0.09796227 0.24867699 0.05259804 0.23769325 0.076233275 -0.80818206 0.3199043 -0.73428583 0.31135246 -0.31753254 -0.35521147 -0.020925077 -0.30620283 -0.217487 0.2722589
58758 0.43269515 0.11806119 -0.1616544 -0.36701474 0.70162266 0.08607948 0.5491595 -0.084623374 0.18407726 -0.053834423 -0.27453002 -0.42352736 -0.54088724 -0.759315 -0.14981717 -0.6112726 0.36613804 -0.6979824 -0.05704148 0.18276468 0.57581085 -0.9162753 -0.077731356 -0.66289973 -0.7010457 -0.2088554 0.84871525 0.30724192 0.02857653 0.576357 0.4720175 -0.32420963 0.8202569 1.1097699 -0.068462975 -0.7394263 -0.14375044 -0.49493825 -0.6488921 -0.20857386 0.10788108 0.15545414 0.39919132 -0.23533769 0.2891857 -0.20404816 1.2332933 0.6177113 0.5218315 -0.15629987 -0.54454046 -0.0049680797 0.18652973 0.82355946 0.29651007 -0.6395112 -0.20875046 -0.8065074 -1.3345722 0.061949283 0.20564006 0.10720486 -0.92598355 0.46106577 -0.5380468 -0.47136727 0.590656 0.94130754 -0.40300095 -0.25861827 -0.056254845 0.06328775 0.07510895 0.3643897 -0.51033956 0.22161877 -0.16906673 -0.4119054 0.7606212 0.17672795 0.16664076 -0.99688786 -0.0146119045 -0.6764881 -0.13694005 -0.96816194 0.82041115 -0.26318938 0.27114245 0.79157525 0.12858684 0.81712204 0.016668411 -0.08925544 -0.23934864 0.6632056 -0.016403558 -0.52966875 0.108451344 -0.62611455 -0.15937102 -0.2907197 0.13394585 0.3483779 0.8557417 -0.18317832 -0.26135144 0.9964743 -0.535702 0.06836735 -0.71453404 -0.051221315 0.44745567 -0.15300676 0.6549773 0.31531197 0.6313432 0.017045442 -0.11103514 -0.32794964 -0.23508231 -0.024291072 -0.46414486 -0.2743115 0.36123875 0.009294989 -0.5199429 -0.18219101
576973 0.41405758 0.239462 -0.053497143 -0.4693796 0.58184016 0.023065502 0.4760373 -0.11771491 0.20339179 -0.109554455 -0.24244829 -0.40879756 -0.5670794 -0.76878935 -0.16411617 -0.5755259 0.33147493 -0.7003835 -0.028049532 0.13946924 0.5972189 -0.82924503 -0.09506859 -0.63871634 -0.73422724 -0.20005849 0.7994511 0.22596808 0.038108893 0.5188428 0.5180758 -0.35763913 0.7691026 1.0914885 -0.05495245 -0.74890983 -0.19267234 -0.48840985 -0.62954694 -0.17713535 0.051952742 0.15085128 0.40006617 -0.29842937 0.31381398 -0.23318245 1.1431706 0.54758847 0.52619857 -0.14519903 -0.5629112 -0.04090914 0.10592002 0.8277201 0.3949063 -0.66598934 -0.21305415 -0.74709064 -1.3375833 0.051148742 0.24994305 -0.03905052 -0.90610844 0.35280553 -0.59685284 -0.4498981 0.560554 0.8822685 -0.46965957 -0.24136305 0.020403517 0.039929293 -0.0023883574 0.32904318 -0.41862637 0.2505436 -0.0862686 -0.43394867 0.79007334 0.12874895 0.15472455 -1.0297292 0.009536613 -0.739473 -0.095914625 -1.0102308 0.77572656 -0.20114578 0.27880466 0.80005515 0.12198846 0.818349 -0.050327737 -0.121316865 -0.20678855 0.65174615 -0.0605949 -0.5511918 0.14025743 -0.616889 -0.16311237 -0.35285398 0.121443704 0.420812 0.79861706 -0.18073954 -0.24704245 1.0107051 -0.58782774 -0.05322183 -0.65685403 -0.118159845 0.38550925 -0.12605299 0.6587133 0.2705086 0.68587416 0.11602758 -0.23281151 -0.27557743 -0.27046 0.065429695 -0.42245352 -0.31206745 0.29623994 -0.021402856 -0.58856326 -0.07210291
123556 -0.019779706 0.19002624 1.1155916 -1.0847541 -0.51623535 -0.3226899 -0.039626557 -1.0987935 0.51217794 0.008026206 0.2157369 -0.56391 -0.36679727 0.5648153 -0.24108493 0.7916149 0.3320066 -0.20854208 -0.3081366 0.396962 0.19127412 0.47351044 -0.48181507 0.3085135 -0.48779014 -0.94250274 0.013906555 0.58464694 0.31954074 -0.06433113 -0.7246749 -0.3227963 0.66763926 0.3935515 0.5896455 -0.07780594 0.033733383 -1.0611197 -0.11741065 -0.4293597 0.01720631 -0.008012457 -0.11651834 -0.6669294 0.5170102 -0.29442957 0.62446517 -0.78180724 0.25386122 -1.2385639 -0.8819415 -0.19480486 0.68748903 -0.7776688 0.6697723 0.13478465 -0.8957159 0.62477255 -0.46744177 -0.3838884 -0.51980376 0.36926758 -0.71581227 0.4806602 -0.4153424 -0.87040484 1.1242726 0.23668157 0.118584275 0.40053833 -0.2520473 0.30584812 -0.4949955 0.10129207 0.27530426 -0.20751342 0.40563667 0.36986786 0.603682 -0.63435405 -0.33954865 -0.7174242 -0.2598567 -0.8957014 0.22856465 -0.5512484 0.23906948 -0.8706582 -0.10705733 -0.7764913 0.055938974 0.24850848 -0.041450847 0.7443386 -0.3054733 0.08574524 -0.33783624 -0.09400382 -0.7022408 -0.8309209 0.7403575 0.35980457 -0.2704587 0.57713675 0.3939185 0.060557738 -0.72672975 0.47855893 0.16262676 0.08057165 0.48904684 0.3712443 0.31078818 -0.24358207 0.076731294 -0.041464914 0.10227899 0.73719597 0.044859882 -0.3125421 -0.5487723 0.19782765 0.4171727 -0.22153519 -0.32048732 -0.1578706 -0.027401496 0.17411532
50354 0.13898523 0.32427683 1.071389 -1.1725799 -0.4926379 -0.31260467 -0.045149516 -1.1632273 0.47612458 -0.05520229 0.11400528 -0.62790155 -0.41504407 0.61019224 -0.19351012 0.69768536 0.33340847 -0.1988444 -0.31509897 0.33265394 0.34468195 0.46737376 -0.42665797 0.31360412 -0.4847721 -0.9549335 -0.0003979825 0.5660428 0.3277534 -0.054244015 -0.652419 -0.3826236 0.64841264 0.48450944 0.62646496 -0.05657825 -0.047411904 -1.1087518 -0.1359286 -0.40620795 -0.08468911 0.010841398 -0.01005006 -0.6091048 0.51204365 -0.30886137 0.57825035 -0.67979634 0.3021525 -1.234804 -0.8789732 -0.17057168 0.676992 -0.7370502 0.667428 0.13157414 -0.86688596 0.5752956 -0.4454746 -0.35459045 -0.49125838 0.37935135 -0.7167888 0.6059331 -0.4138365 -0.9224558 1.1247705 0.18661155 0.14300552 0.47126776 -0.15569323 0.28553706 -0.513805 0.07071689 0.28117204 -0.08990124 0.37501073 0.31456885 0.67032015 -0.6300862 -0.33603257 -0.76859665 -0.22775304 -0.91261226 0.22276877 -0.54561806 0.26699933 -0.88344425 -0.17753978 -0.82095546 0.009809556 0.33440024 0.034551106 0.75504553 -0.40339398 0.080703944 -0.27623504 -0.022259066 -0.71348643 -0.8035248 0.6963322 0.3924117 -0.23601368 0.52744216 0.2481875 0.06838714 -0.6872214 0.5404694 0.17880212 0.1630572 0.42877463 0.26679224 0.32634482 -0.28699782 0.112565994 -0.12404825 0.002932114 0.7986752 0.14551501 -0.39270502 -0.54716253 0.20652057 0.40299907 -0.21085756 -0.36991388 -0.13126184 0.0002972007 0.16569467
124224 -0.06656128 0.6105979 0.5941081 -1.027181 0.03663023 -0.20008874 0.014233581 -0.61346406 0.5353741 -0.12277344 -0.24609505 0.12115527 -0.37326553 -0.08471722 -0.08793367 -0.40423208 0.31924978 -0.4950277 0.21688315 0.13504867 0.27816316 -0.13245346 -0.14833263 -0.33649865 0.10250295 -0.4773543 0.11726155 0.14649026 -0.31777483 0.18038596 0.23386617 -0.564839 0.16708724 0.9605599 -0.18645197 -0.24619748 -0.08807396 0.044811286 0.12936799 -0.067045726 0.39446342 0.19624041 0.16488199 -0.34562805 0.40193847 -0.39151013 0.33651477 -0.59691226 -0.6558918 -0.46222994 0.16164486 -0.103135794 -0.11839511 0.0018761929 0.46138775 -0.32412532 0.064212896 -0.39361128 -0.31749326 -0.26850167 -0.36355212 0.2486447 -0.40904287 0.7986753 0.30736372 -0.54617566 0.6335556 0.5908142 -0.2530888 -0.2288844 0.26688993 0.09304853 -0.05388265 0.050108094 -0.52113324 -0.15288569 0.0019039589 0.14344867 0.68885195 -0.40897036 -0.4428164 -0.39167762 -0.03818669 -0.52192765 0.5247371 -0.7046996 0.5550285 -0.026362324 -0.31596488 -0.19451934 -0.28605828 0.5442325 -0.854075 0.27293095 -0.045957822 0.2744933 -0.92897373 -0.59979004 0.18855806 -0.6227087 -0.05734929 -0.46766925 -0.28575173 0.5453156 0.3670353 -0.55769897 -0.40397683 0.472282 -0.6884625 -0.38243908 -0.5452532 0.39369854 -0.9939027 0.07413862 0.32978928 0.13583623 0.217111 0.066619925 -0.76534116 0.29545173 -0.8123206 0.3559704 -0.3062123 -0.36905038 -0.03394467 -0.35437492 -0.21608977 0.24418609
12638 0.007505889 0.50184524 0.51546264 -1.0345652 0.12170584 -0.2990749 -0.08502185 -0.52769816 0.4630677 -0.16050969 -0.26280165 0.1630605 -0.3388497 -0.049541283 -0.091233075 -0.40306392 0.24295807 -0.5292717 0.20302452 0.19585781 0.25268322 -0.21988843 -0.16062768 -0.37283993 0.13109757 -0.5612941 0.18877509 0.10920516 -0.35053557 0.22515458 0.22725628 -0.63946885 0.1351594 0.9488762 -0.21991944 -0.29340103 -0.09659763 0.036337335 0.24339417 -0.13354287 0.41036925 0.17933495 0.102385886 -0.30244344 0.47629502 -0.43891796 0.45819226 -0.60338 -0.71817493 -0.41211015 0.14412726 -0.13601275 -0.08143191 0.01809001 0.46381402 -0.3102377 0.10728837 -0.3359135 -0.35410187 -0.2143668 -0.452232 0.19772205 -0.35546148 0.83404696 0.39372882 -0.537349 0.6261753 0.57255316 -0.20673257 -0.22953454 0.21504718 0.11026054 0.0038091578 0.11264154 -0.54598093 -0.11462173 -0.01654296 0.09824922 0.6229574 -0.46826172 -0.54525876 -0.3188206 -0.027125318 -0.4788153 0.4998655 -0.68495804 0.6009394 -0.08722149 -0.3286011 -0.097156785 -0.30766624 0.47896275 -0.8304448 0.31906167 -0.036210842 0.30328935 -0.93921137 -0.5220129 0.22783543 -0.6065834 0.023499718 -0.41756746 -0.24216607 0.58098817 0.39314875 -0.58062893 -0.40221986 0.3890162 -0.67833686 -0.336349 -0.59379447 0.3148644 -0.9708776 0.16513571 0.24504632 0.12920183 0.23094848 0.015358221 -0.7806724 0.24646218 -0.7479457 0.2662856 -0.26530787 -0.3435639 -0.03470755 -0.38170883 -0.24513143 0.3542078
35 -0.36168382 0.46945035 -0.18933824 -0.52411765 0.92201364 0.08157747 -0.1768592 -0.08670091 0.054464355 -0.68301016 0.014796888 -0.57684714 0.48900092 0.20563681 -0.13156478 -0.11311211 0.84723175 0.16101468 -0.2506882 0.06899213 0.5631123 -0.22144793 -0.05748389 -0.9256739 -0.82114387 -0.5665691 0.69063956 0.5486657 0.25351876 0.04487115 0.33762518 0.08084816 0.22760311 0.13654256 0.26051828 0.0004172382 -0.32041225 -0.16328402 -0.2950912 -0.11854545 0.18784112 0.31039962 -0.20967285 -0.23437324 0.17100734 -0.4050126 0.45738238 -0.13853216 -0.19511572 -0.22678834 -0.54869455 0.5601446 0.90103513 -0.58880335 0.6660226 0.001927545 -0.30965263 -0.074127905 -1.0445023 -0.2895611 0.30551055 -0.054463923 -0.17776792 -0.27594566 -0.19898161 -0.9783445 0.6209337 0.21669544 -0.4401371 -0.12907031 -0.09484755 -0.014018332 -0.107827455 -0.015687358 0.2146488 -0.48814094 0.031156244 -0.38031816 0.30248228 0.36016667 0.16178621 -0.04289273 0.059251413 -0.35401303 0.1472695 -0.34955975 0.17050874 -0.33375266 -0.03219296 -0.01413142 0.22859703 -0.014737744 -0.03010493 0.079313464 0.32420707 0.05550209 -0.44799885 -0.30118275 -0.09165849 -0.13239646 0.23695014 0.47694832 -0.3741128 -0.11610492 0.26222026 -0.7664245 -1.2696841 0.4736829 0.077233456 -0.5821576 -0.3295319 0.09351649 0.44735292 -0.6362297 0.20770615 0.25903884 0.008600203 0.056065835 -0.38885483 0.17101069 -0.7972261 -0.51286924 -0.29320535 -0.0084019415 0.6749939 -0.034145262 -0.60088354 0.45874268
11339 -0.4746958 0.29312396 0.5926135 -0.47469962 0.16813114 -0.50966716 -0.069971085 -1.0490131 0.3938885 0.31755754 0.91827023 0.06377522 -0.3302772 0.48515618 0.337613 -0.5839433 0.53841716 -0.17095348 -0.78001225 -0.5503851 -0.35216427 0.0035035098 0.14763752 -0.08899951 -0.40831068 -0.38398525 0.7266429 -0.43448702 0.16717122 0.60129005 -0.44622657 -0.27182776 1.2707746 0.45953533 -0.5612117 -0.25323528 0.43756253 -0.08677187 -0.07850324 -0.0547999 0.6467479 0.4440392 0.05103421 0.16490728 0.65792173 -0.664696 0.8156949 -0.13130438 0.16034035 -0.45053014 -0.109538324 -0.39457062 0.90738535 0.8769362 -0.085877955 0.11875333 -1.1918926 -0.31516925 -0.49243087 -0.26026 -0.6926726 1.1567364 -0.36106688 0.40949655 0.6235595 -0.8864711 1.3058223 1.156922 0.25279343 -0.51189387 -0.4005541 0.73371065 0.24756135 -0.04665078 0.24288918 0.5081417 0.20571117 0.56841475 0.30733943 0.37762737 -0.19204044 -0.80488306 0.1752309 -0.49724236 0.32331604 -0.3405151 0.14141548 -0.8006211 0.37240008 0.06903115 -0.126506 -0.2373598 -0.9693387 0.088342644 -0.11076999 0.051725067 -0.34957626 -0.13654257 -0.67626095 -0.7760573 0.7146987 -0.2043612 -0.91530967 1.0048621 0.36335498 -0.1953108 0.29925272 -0.29830685 0.025171066 0.39511403 -0.16277109 -0.034286506 -0.29118454 -0.108753465 0.36328214 0.5806359 0.4316803 -0.46492136 0.33973885 -0.272091 -0.26632208 0.06387199 0.09949333 -0.30777857 0.4558062 -0.023954429 0.08802274 0.34815162
11326 -0.49490622 0.32833606 0.5180355 -0.5014543 0.16486266 -0.5445628 -0.019616893 -1.099668 0.38171625 0.40614444 0.9886314 0.1097172 -0.4111021 0.49549973 0.2711526 -0.6662958 0.6749754 -0.19599411 -0.8294736 -0.5723345 -0.39197543 -0.09080208 0.27661872 -0.09414159 -0.473193 -0.38387978 0.82336235 -0.43264708 0.11918696 0.6536584 -0.4566021 -0.28684524 1.2643585 0.5118872 -0.55900216 -0.25561014 0.41878316 -0.0628281 -0.12674606 -0.023447504 0.6638783 0.49221998 0.10621451 0.05736643 0.5605164 -0.58050454 0.7374192 -0.051893327 0.114415325 -0.39146706 -0.17643431 -0.45103526 0.88973236 0.9335634 -0.08093894 0.11690285 -1.2099388 -0.3675817 -0.5523281 -0.3485021 -0.68910414 1.0809927 -0.34113413 0.37909448 0.50059164 -0.87183046 1.2423594 1.2187037 0.26419166 -0.53447765 -0.39417827 0.68607736 0.281584 -0.062138863 0.21082586 0.5532296 0.20445254 0.53392464 0.28078187 0.3902304 -0.23884317 -0.8752498 0.10910297 -0.44279525 0.3412605 -0.3046469 0.13232353 -0.7618358 0.31421894 0.054515842 -0.16121842 -0.22704442 -1.0316398 0.05702527 -0.052731108 0.060061835 -0.22932357 -0.123006515 -0.6153124 -0.7761616 0.65131086 -0.17187108 -0.9292857 0.9776246 0.39671165 -0.1828622 0.32489595 -0.2461882 -0.057037268 0.45743638 -0.242507 -0.024594964 -0.22405832 -0.16466312 0.38755807 0.70270646 0.36856872 -0.4180285 0.46014112 -0.24983814 -0.23097456 0.0256297 0.17301635 -0.2683519 0.44672444 0.036528166 0.07304815 0.3433182
210871 -0.33789763 0.61841303 0.12186603 -0.37327462 0.5250933 0.09282651 0.16130951 -0.3588914 -0.16132618 -0.76065737 0.25250727 -0.3668286 0.54175466 0.3003669 -0.42964935 -0.20843467 0.79293895 0.21467285 0.18218014 -0.37153602 0.3428617 -0.28681353 0.50311226 -0.75465524 -0.9884999 -0.37388083 0.6260662 0.30280796 0.5485958 0.006805708 0.19227348 -0.08757435 0.43191338 0.26586518 0.21799825 -0.24075657 -0.2641051 -0.10408296 -0.37917906 -0.10940758 0.53644115 0.39710486 -0.061774272 -0.019393707 0.33387488 -0.4625394 0.40524712 -0.3482315 0.17972444 -0.60283744 -0.30061048 0.41942513 1.136414 -0.59853137 0.73898375 -0.31992868 -0.15721463 -0.009519235 -0.52056843 -0.047897566 0.25431034 -0.24742223 -0.17345704 -0.33158866 -0.2979438 -1.069526 0.8404048 0.46216297 -0.6929103 -0.17399016 0.016075697 -0.20988548 -0.25942725 0.23677419 0.096903 -0.67355317 0.28547338 -0.03484341 0.38219202 0.19350171 0.34646788 -0.022261586 0.31200567 -0.1054387 0.017151143 -0.24564253 0.46383128 -0.4019385 -0.06566288 0.19131958 0.40964043 -0.0037831897 -0.04781024 0.63257253 0.19566481 -0.30550334 -0.37086654 -0.30337662 -0.43688568 -0.08360116 0.11080479 0.22444402 -0.48742396 0.2556311 0.02328357 -0.60936546 -1.1173968 0.76196057 -0.11073221 -0.27534786 -0.55678093 -0.02874551 0.67416555 -0.16368942 -0.0016736405 0.14216502 0.25062457 0.41668567 -0.28277352 0.40646583 -1.0108507 0.0250573 -0.3281191 0.02678266 0.3822913 0.029715365 -0.45929396 0.30479404
48781 0.13813794 0.2364883 0.53830075 -0.43454376 0.45425913 -0.15883775 -0.42878348 -0.3329389 -0.07387165 0.57362324 0.38758248 -1.190889 -0.047095425 0.44848964 0.112169184 -0.2123661 0.036637112 0.18800649 -0.9620408 -0.40793455 0.2903933 -0.00020016497 -0.5001134 -0.41932547 -1.4016914 -0.46995825 0.81699216 0.4244436 0.5894233 0.8884432 -1.1390244 -0.40780875 1.1561863 0.69160223 0.36269435 -0.28054965 0.17617445 -0.9323299 -1.0907822 -0.5362064 -0.18880253 0.18425371 0.2845904 -0.28701147 0.018003535 -0.59903085 0.6261089 -0.5107281 1.5219058 -0.5311376 -0.5585383 -0.13094139 0.9769615 -0.02612926 0.08255658 0.14886217 -1.4934995 -0.213168 -0.720249 -0.40629402 -0.525387 0.90484875 -1.1171709 0.5656324 -0.41904226 -0.8540532 1.0388933 1.1897806 0.3002216 0.15508455 -0.1402969 0.19151482 -0.5037949 0.33164978 -0.15171702 -0.37046582 -0.18262115 -0.15976241 0.75070584 -0.108405076 0.4218531 -1.1843469 -0.7272948 -0.83336943 -0.19216022 -0.45666623 0.5197519 -0.4141986 -0.013488025 0.28452146 0.21524486 0.61267596 0.3241356 0.24599457 -0.8381964 0.116426185 0.034090042 0.50616175 -1.1932633 -0.53695464 0.5332025 0.52912 -0.06282973 -0.25441134 0.27315006 -0.078399755 -0.5317618 0.34255743 0.98837847 1.1300685 0.38657457 -0.2626159 1.1685095 -1.3168712 0.2653911 0.21171117 0.09237716 -0.06836662 1.2457832 -1.0466692 -0.22669874 0.023433277 -0.17269601 -0.8833647 0.59893614 0.11587096 0.21903974 -1.0856375
423816 0.091947764 0.30339003 0.6350185 -0.5485622 0.36784378 -0.3202412 -0.5052527 -0.3891444 -0.15685785 0.5717763 0.4067581 -1.1900219 -0.060525876 0.5031182 0.14751773 -0.13067973 0.0350754 0.26738596 -0.98323405 -0.48291445 0.3012085 0.08712824 -0.4917797 -0.3977859 -1.4906074 -0.5113084 0.79018086 0.45633838 0.6333708 0.83583 -1.130292 -0.40117458 1.0442235 0.64979357 0.3263238 -0.30693448 0.1702961 -0.84273756 -1.0474674 -0.5397287 -0.24288116 0.15152031 0.28935853 -0.28217667 -0.02306777 -0.6915496 0.60556114 -0.6545977 1.4822559 -0.48767242 -0.5024369 -0.15251364 0.95710266 -0.053626575 0.05185936 0.16914888 -1.5570066 -0.14748944 -0.67773175 -0.3515044 -0.5267524 0.8871657 -1.1806242 0.51318127 -0.34442264 -0.81847036 1.0167097 1.204544 0.2794331 0.1921856 -0.01794003 0.1359325 -0.64519787 0.3358928 -0.16956079 -0.42817488 -0.16440663 -0.122030765 0.8336767 -0.097475395 0.40513927 -1.2115889 -0.7031249 -0.80819446 -0.17127495 -0.5042543 0.50303304 -0.39442205 -0.08191233 0.20289636 0.13537952 0.5125961 0.20212892 0.30464444 -0.95376277 0.08477925 0.053712975 0.4784509 -1.1993301 -0.446913 0.41996947 0.49528942 -0.006933077 -0.29592314 0.24394338 -0.09709848 -0.5965623 0.2910872 1.019236 1.0221618 0.46682927 -0.37832373 1.149347 -1.327742 0.2367044 0.17013605 0.20698602 -0.09722801 1.1878496 -0.8966192 -0.2068386 0.070291296 -0.20481728 -0.949366 0.59163487 -0.078660026 0.23855136 -1.0305923
210872 -0.32792738 0.4792973 -0.43722156 -0.51136494 0.7898165 -0.37611952 -0.30259112 -0.2664063 0.07248251 -0.58603793 0.29599792 -0.65861124 0.2736471 0.3417548 -0.19480926 -0.36966068 0.5586297 -0.04564371 -0.03999691 -0.17497323 0.43116015 0.08330293 0.6190607 -1.136321 -0.9090086 -0.26760045 0.27686825 0.34240925 0.32749513 0.15387367 0.36088878 -0.26801085 0.55652905 0.33463126 -0.03191778 -0.03150821 -0.16899133 -0.032536067 -0.5509019 -0.022738675 0.6564289 -0.10199541 0.108461075 0.23550382 -0.19900467 -0.49463415 0.61448836 -0.20962295 0.037083976 -0.44589552 -0.084626585 0.55160856 1.1000774 -0.11998616 0.65350986 -0.175423 -0.2180651 -0.09534039 -0.43168074 0.06950283 0.03957349 0.083076626 -0.28102097 -0.46682736 -0.5051962 -1.1463591 0.75341547 0.680907 -0.6119443 -0.39190364 -0.04842407 -0.0029734224 -0.23122743 0.32152975 0.30738145 -0.87277824 0.057944953 -0.34707075 0.6663176 0.5276804 0.29562777 0.3201661 0.24690312 -0.48363662 0.27022308 -0.06396255 0.30727077 -0.16447368 -0.44998512 0.44387132 0.12839504 -0.2938158 0.122230016 0.5092371 0.44145185 0.14941037 -0.08706582 -0.17114766 0.038501415 -0.11179795 0.2237897 0.6463565 -0.17435738 -0.10446618 0.32824528 -1.0211232 -1.1330994 0.6552231 -0.045598608 -0.17883378 -0.5354875 0.57582587 0.4405633 -0.19590305 -0.07544304 0.49626288 0.124256544 0.6196825 -0.23214224 0.03604126 -0.5635892 -0.5357628 -0.61956656 -0.12114812 0.3015805 0.098264046 -0.6926081 0.43694955
648112 0.19339533 0.37743497 0.4637615 -0.8323901 -0.23557866 -0.2384481 0.39529186 -0.6359638 0.6223444 -0.27289066 -0.46568483 -0.17642565 -0.3379547 -0.496452 0.10651821 -0.42519957 0.24086827 -0.58705586 -0.17730047 -0.22078139 0.0018120664 -0.90484345 -0.52055913 -0.4119489 -0.09046851 -0.6754395 0.09723377 0.84520936 0.20727 1.0829256 -0.78020763 -0.7196086 0.587962 0.8269939 0.12760997 -0.60212404 -0.11613255 -0.968812 -0.29269826 -0.41922107 0.5081396 0.16833007 -0.6413071 -0.61820847 0.737899 -0.09097594 1.1570717 -0.35392836 0.6064413 -0.7615158 -0.7901918 0.20086348 0.4568153 0.20967047 1.0441343 -0.27926216 -0.27059066 -0.417431 -0.89744824 -0.34957963 -0.82641995 0.08486584 -1.1551138 0.91829836 -0.04505971 -0.7568112 0.8601949 0.8200016 -0.09956832 -0.4342311 -0.6068882 0.54009485 0.339989 0.24634022 -0.62729096 -0.2779219 -0.5966615 0.06587445 0.6971877 -0.46838152 -0.15354952 -0.5025163 -0.40317956 -0.70236427 0.20979188 -0.33258033 0.78267604 -0.05764993 0.15506692 -0.0015362586 0.019758932 1.088454 0.23467146 0.5078559 -0.82812476 0.72548 -0.49023297 -0.017857874 -0.0049490095 -0.95668334 0.6087 -0.2828406 -0.33143312 0.22943808 0.6756335 -0.23025875 -0.7634001 0.21126172 -0.17962871 0.33827686 -0.7680949 0.6146282 -0.4996985 -0.54473084 0.54546046 0.029937861 0.049650773 0.5325321 0.72847813 -0.6368978 -0.2859502 0.17112797 -0.20922075 -0.82242215 -0.17954 0.077601284 -0.30594164 -0.33344275
648106 0.17921801 0.36451378 0.48165336 -0.84120464 -0.227845 -0.24678819 0.3890144 -0.634472 0.6153698 -0.27068198 -0.45414537 -0.17117138 -0.3271615 -0.48539263 0.11193147 -0.42116126 0.23722202 -0.58564985 -0.19400887 -0.23614183 -0.008400455 -0.90093595 -0.53366405 -0.42038777 -0.11539829 -0.679096 0.11056362 0.82898337 0.21315013 1.0765499 -0.79133725 -0.722112 0.59526145 0.8175374 0.116152026 -0.6073957 -0.11014448 -0.948984 -0.29340577 -0.43375847 0.51540005 0.17042696 -0.63948506 -0.60948473 0.74217653 -0.103856854 1.1635079 -0.36822796 0.6095558 -0.766497 -0.78637016 0.2041597 0.46632278 0.20850807 1.0447087 -0.26204202 -0.29381642 -0.4107486 -0.90177464 -0.34348541 -0.8207547 0.089353845 -1.1634772 0.90673226 -0.036194127 -0.7681561 0.8592963 0.82805663 -0.10098994 -0.44968238 -0.6042541 0.5439496 0.32538238 0.24473883 -0.6195392 -0.2809487 -0.59660846 0.06878455 0.7036475 -0.46815413 -0.14740247 -0.502314 -0.40157238 -0.70600855 0.20999548 -0.32618082 0.78429544 -0.06382602 0.17536032 0.0023443345 0.029664963 1.077616 0.21655089 0.5154562 -0.8360492 0.7057618 -0.4905105 -0.010722715 -0.017579606 -0.9544317 0.6089452 -0.2817804 -0.3473351 0.2483477 0.6827056 -0.2313714 -0.76846504 0.20587127 -0.168925 0.34251907 -0.7672458 0.612206 -0.49108773 -0.53904605 0.5456122 0.037613377 0.057171125 0.51204133 0.71175086 -0.62249297 -0.29922456 0.17482007 -0.20992228 -0.82937366 -0.15714611 0.05358417 -0.31350666 -0.3332153
154023 0.31438124 1.0031157 0.44881925 -1.5676668 -0.20747589 0.4869336 0.10324479 -0.80934626 0.7449632 0.5510512 0.17487791 0.047382653 -0.7732115 0.55738425 0.11701815 -0.7090086 0.5522002 -0.60479504 -0.09662399 -0.13020225 0.529261 0.16216937 -0.29160106 0.18660384 -0.101181656 -0.70456225 0.61100507 0.7321901 -0.06338906 0.49916175 -0.044225402 -0.6743385 0.8934273 1.3135865 0.22531107 -0.36060986 -0.047962215 -0.5722459 -0.5051754 0.39191818 0.12685421 0.77051336 -0.15169238 -0.13550062 0.42518502 -0.10802301 0.34415457 -0.21068946 -0.22809394 -0.5952714 -0.22957861 -0.19084486 -0.09352636 0.4797426 -0.3070776 -0.61360633 -0.552106 -0.733936 -0.31015158 -0.8842474 -0.5447461 0.89518934 0.19012044 1.2682852 0.2262854 -1.2901272 1.3648477 1.1693583 0.28997195 0.42717975 0.66488165 0.45055544 -0.02671007 0.026424684 -0.35337755 0.008440836 0.32610977 -0.26000732 0.6008934 -0.25694513 -0.34487605 -0.8126797 -0.42685857 -0.44989434 0.6607161 -0.20597307 0.62610894 -0.28920516 -0.56129384 -0.7800069 -0.32229614 1.1025941 -0.97795355 0.012915352 0.0027388374 0.44455743 -0.7230857 -0.1789296 -0.4162061 -0.66394955 0.40933287 -0.08791955 -0.9863152 0.2875495 0.018705748 -0.2662858 -0.31459528 0.74452937 0.3198594 0.26959926 -0.7818206 0.019022256 -0.406464 -0.3703656 0.9520127 0.10250288 -0.873604 0.252759 0.828678 -0.91394436 -1.1793267 0.29741937 0.36191338 -0.14425549 0.10047753 -0.16299812 -0.26168337 -0.3937873
154047 0.39467987 1.0544215 0.40417245 -1.5250638 -0.25948027 0.48057845 0.21469644 -0.78146076 0.735401 0.6122831 0.10409518 0.09130258 -0.91775304 0.50754046 0.041634627 -0.6899449 0.5387682 -0.7033009 -0.044991814 -0.1032627 0.5949486 0.13301517 -0.27073663 0.24037078 -0.036001794 -0.7781064 0.57385 0.74184954 -0.10139339 0.5131804 0.08680653 -0.57108426 0.8461444 1.3610158 0.33274093 -0.47100532 -0.08855266 -0.5888341 -0.51752084 0.2886161 0.16077252 0.656351 -0.21451738 -0.15044093 0.3748933 -0.076935865 0.43697983 -0.1506228 -0.1393379 -0.6007912 -0.27209726 -0.09937032 -0.08799223 0.4861393 -0.34608138 -0.67309433 -0.38615838 -0.68391085 -0.35598963 -0.8251657 -0.49950692 0.73054683 0.097976394 1.2152315 0.12666154 -1.283845 1.3548907 1.1153554 0.31157455 0.5365175 0.5820809 0.48950192 0.049335156 0.054768402 -0.4699591 -0.0345508 0.3073575 -0.2766704 0.6171657 -0.26439574 -0.39034483 -0.88578326 -0.37996173 -0.5376113 0.6705937 -0.28005296 0.62920016 -0.32001618 -0.6112488 -0.68099505 -0.2989147 1.183241 -0.8778455 -0.014433893 -0.017190006 0.5698871 -0.7309983 -0.24713515 -0.28493327 -0.7496271 0.4091192 -0.15187776 -0.82268095 0.3586345 0.09593879 -0.18274081 -0.37956536 0.7815852 0.26341072 0.20323215 -0.8104001 0.02092224 -0.44052398 -0.3081504 0.9707961 0.108999275 -0.8104622 0.30280426 0.8135868 -0.9166609 -1.192623 0.32080993 0.32171682 -0.016550912 -0.034008984 -0.07305702 -0.2433431 -0.36962137
643221 -0.23918407 0.46034533 0.3416773 -0.33835465 0.14312041 -0.66901886 -0.40237394 -1.2177656 -0.008080706 0.26342306 0.20599622 -0.59020305 -0.08781444 0.0974353 -0.39382157 -0.10113801 0.2124464 0.29374337 -0.021874981 -0.035348177 -0.14901789 0.32435024 -0.009265332 0.23422754 -0.22857781 -0.9774339 0.20784754 0.7809703 0.053700365 1.091842 -0.11681321 -0.20945287 0.26084635 0.4794268 0.6717303 -0.28191882 0.37286073 -0.664721 -0.10309489 -0.40912375 0.19634658 -0.2520638 0.64156115 -0.12047831 -0.0011173126 -0.8142955 0.3966605 -0.31160823 -0.40433422 -0.30695164 0.34650266 -0.7358914 0.18251102 0.027582083 0.18467334 -0.05341441 -0.09916519 -0.24001057 -0.7555027 -0.29373425 -0.99967813 0.51518255 -0.4311442 0.9280317 0.52076393 -0.61911064 0.7323439 0.43067133 -0.1299289 -0.28375444 -0.5861115 0.17353271 -0.05995446 0.18672529 0.034046065 -0.15721892 -0.23771425 -0.014563222 0.9326145 -0.8482326 -0.83118945 -0.6551845 -0.38086164 -0.7173302 0.77051115 -0.47320655 0.81791335 -0.373795 -0.41929644 0.16918436 -0.33023655 0.29688781 -0.5299469 0.055142444 -0.4705882 0.4795957 -0.5677131 -0.35918432 0.07946564 -0.7401634 0.27534664 -0.20348607 0.028271532 0.08009412 0.40955126 -0.3263463 -0.5382296 0.1724063 -0.75780696 0.60329926 -0.08601913 0.72346044 0.09216301 -0.5974775 -0.021758469 0.4125289 0.16613987 -0.41509217 -0.6286011 -0.015503801 -0.8979784 -0.04219886 -0.60471785 -0.25210404 0.38155934 0.6165426 0.25089887 -0.098592624
103430 -0.42754084 0.21835852 0.9488928 -1.2239736 -0.3430333 -0.72069025 0.012952394 -0.7821883 0.69945806 0.41580305 0.23414351 -0.5445527 -0.34260026 -0.042963464 0.20260137 -0.082152076 0.30308893 -0.6258369 -0.15769464 -0.066104494 -0.06904034 -0.5497655 -0.38828105 -0.20953886 -0.6564108 -0.5619132 0.005287583 0.1799589 -0.10779551 0.4956233 -0.7588057 -0.64228886 0.97262025 0.82329667 -0.2768237 -0.38872948 0.20156392 -0.53620356 -0.5812962 -0.9717263 0.27080256 -0.49945623 -0.20421931 -0.899123 0.22243215 -0.41854197 1.0586694 -0.74913615 0.3801631 -0.35754088 -0.7419339 -0.3605258 0.140571 0.37567973 0.5905445 -0.035953637 -1.1155407 -0.18345779 -1.076235 -0.50152993 -0.8424965 0.48993862 -1.8042604 0.5352714 -0.62958163 -0.75056726 0.8031129 0.87884605 0.3803203 -0.48323575 -0.035464544 0.24117745 -0.28775477 0.40431142 -0.66591704 -0.46786746 0.051540088 0.25855514 0.9450478 -0.096838385 -0.58082646 -1.3313835 -0.10671775 -0.8917724 0.43136472 -0.6248935 0.9004423 -0.27047512 0.1416739 0.21281232 -0.3215367 0.60387 -0.20375682 0.4015657 -0.6624334 0.79295546 -0.43368983 -0.071497545 -0.09477209 -1.0999094 0.14484975 0.11822626 -0.2019777 0.7868157 0.79064894 0.43419513 -0.6775783 0.70250225 0.009922663 0.3068783 -0.37704504 0.21350369 -0.40833864 -0.6945215 0.82460403 0.52238375 0.7278748 0.2850917 0.10699214 -0.4660456 -0.6821162 0.109980516 0.16496497 -0.82778496 -0.06708583 -0.9787366 -0.64665127 -0.07559198
75318 -0.41759288 0.23231204 0.95108914 -1.2622194 -0.33337256 -0.68745154 0.021825237 -0.80911225 0.7328964 0.4433879 0.2356605 -0.5257301 -0.37537894 -0.03147791 0.18507884 -0.12612881 0.30997074 -0.66344035 -0.17911652 -0.056027103 -0.040270567 -0.5754267 -0.4077522 -0.20578468 -0.6733841 -0.5917158 0.033237293 0.19631468 -0.10560554 0.5256087 -0.7807602 -0.6563395 1.0232022 0.8570817 -0.26832935 -0.3811232 0.17979428 -0.5737089 -0.5966298 -0.9608388 0.2965795 -0.48002794 -0.23865058 -0.8811475 0.22024524 -0.40454376 1.0588629 -0.73244363 0.38852006 -0.37272325 -0.73497313 -0.35438588 0.14144225 0.3825634 0.5704298 -0.046390355 -1.0985767 -0.20128357 -1.0765795 -0.53575885 -0.8617806 0.532596 -1.7977269 0.588604 -0.61945564 -0.8148552 0.8619296 0.9100795 0.41248026 -0.46594146 -0.040029027 0.2561194 -0.26753443 0.41778287 -0.68762785 -0.4697442 0.0625798 0.26070467 0.9482465 -0.11490733 -0.5991526 -1.3465723 -0.11933366 -0.9129687 0.45164177 -0.62002873 0.9334493 -0.27568835 0.13716616 0.19683877 -0.3276778 0.652625 -0.2088816 0.42104402 -0.6323076 0.8413423 -0.47222632 -0.07935157 -0.09703324 -1.1460723 0.17425886 0.11869289 -0.22975758 0.80870426 0.7950665 0.4512102 -0.6843194 0.73617685 0.032180257 0.3190424 -0.40645453 0.24046353 -0.43437687 -0.69852895 0.84769535 0.53358555 0.6742338 0.28435808 0.15299186 -0.52473307 -0.73298675 0.10351467 0.1750162 -0.81416225 -0.08511311 -0.9572447 -0.657345 -0.09107519
82920 -0.058217708 0.26633054 -0.5785643 -0.5912224 0.8069063 -0.20214337 -0.30431435 -0.18184608 0.099842355 -0.4339275 0.043980453 -1.2254599 0.45200488 0.2160472 -0.28786823 -0.42235154 0.8909147 -0.21430138 0.17734498 -0.045790922 0.3036391 0.10503167 0.69728845 -1.3139333 -0.77213615 -0.43633357 0.15033536 0.5676539 0.33696517 0.31600243 0.7092994 -0.52574134 0.8371335 0.6230386 0.0027347286 -0.13597114 -0.29971686 0.09202231 -0.6255493 -0.06541804 0.28888166 -0.060206395 0.16031413 0.12362222 -0.46788982 -0.6484848 0.50792575 0.12744981 -0.064823925 -0.5177668 -0.074400835 0.49878845 1.2290397 -0.2956196 0.6547394 -0.085041024 -0.11959979 -0.18177553 -0.7629082 0.16310608 0.1503453 0.18476473 -0.22345884 -0.38567173 -0.43741462 -0.7397252 0.5557805 0.57509893 -0.5671572 -0.5658668 0.103216656 -0.28644383 -0.07234775 0.3262387 0.19985089 -1.0028393 0.20402992 -0.07998468 0.53669554 0.4826452 0.42476803 0.48808354 -0.08866051 -0.5827245 0.021816464 -0.20772527 0.3811402 0.08727927 -0.4131237 0.25840133 0.31519857 -0.33827463 0.14999773 0.49324563 0.38702783 0.40307894 -0.48825026 -0.32919237 0.32515737 -0.13259937 0.13048923 0.6517893 0.12128701 0.008545998 0.0862356 -0.96375626 -1.1766112 0.7633329 5.8249472e-05 -0.17869619 -0.54517555 0.71488047 0.33866084 -0.53197926 -0.074231155 0.5331136 -0.0411439 0.31498238 -0.33762902 0.07125861 -0.5807488 -0.16869497 -0.7687179 -0.2364619 0.38609678 0.04546292 -0.70427495 0.2654101
4584 0.21797971 0.3306869 -0.31636178 -0.7727487 0.1431421 0.14977837 -0.20735766 -0.50711566 -0.5809151 -0.35589638 -0.031403814 0.4706158 -0.40829238 0.5134915 0.15821041 -0.49573097 0.32162184 -0.28009462 0.7096699 -0.20082533 -0.24874492 -0.21226858 0.37090534 -0.60040325 -0.56783813 -0.009617889 0.92924935 0.3193778 0.18647103 -0.26880896 -0.083247826 -0.4940314 0.7437704 -0.11109596 1.0077844 -0.53303015 0.08561028 -0.1450744 -0.7046806 -0.10033175 0.36615434 -0.40715113 -0.7035906 0.56251174 0.97298664 -0.24818838 0.20983481 -0.16030487 0.28133446 -0.6954514 -0.3774286 0.5952629 0.85524 -0.71083415 0.09649905 0.2646436 -0.6428258 0.80406684 -0.25908944 0.5955867 -0.76171136 0.28211746 -0.3312362 -0.12642394 -0.20531937 -0.24576294 0.17332797 0.0100695845 0.14216426 0.26126722 -0.26087952 -0.18255852 -0.96672857 -0.19248061 -0.86114246 -0.8165937 0.6968793 0.28114566 0.25712994 0.37565395 0.3988537 -0.4619214 -0.20826568 -0.30691954 0.5672766 -0.048370596 0.28483483 -0.3973843 -0.14921439 0.29224887 -0.07015427 0.47218943 -0.3627179 0.8374812 -0.6229764 0.23849624 -0.50843245 -0.90790224 -0.19634694 -0.56077874 0.02458363 -0.2853662 -0.64518 0.6003174 0.28456277 -0.4881533 -0.31436044 -0.0874009 0.1793234 -0.590999 -0.7081101 -0.14243333 1.034597 0.091799535 0.6037202 0.038729012 -0.15609469 -0.023728041 1.1104832 -0.4459731 -0.31485468 -0.9297473 -0.20402871 -0.01917418 0.30295864 -0.9065621 0.29848823 -0.1583602
35335 -0.015132454 0.5679693 0.6411937 -1.329333 0.17258045 -0.40191692 0.037321042 -1.018054 0.2919818 0.053418633 0.025303544 -0.40394998 -0.3621755 -0.12689799 -0.0019902997 -0.48402938 0.7263729 -0.61600316 -0.23878297 -0.27054211 0.16312926 -0.49418053 -0.3847486 -0.6371174 -0.82966745 -0.90814966 0.57246584 0.78546053 0.18322371 0.8917089 -0.6087446 -0.8777884 1.0498736 1.005872 0.028982168 -0.63282204 0.121311456 -0.58037937 -0.5703299 -0.5106138 0.5282127 0.10311494 -0.11764991 -0.49828961 0.6169693 -0.7119248 1.2644961 -0.6112288 0.31831717 -0.81783795 -0.40823895 -0.18798862 0.7335272 0.1480361 0.64089024 -0.28652313 -1.0267483 -0.4882098 -1.0362961 -0.40095463 -0.7366008 0.6010539 -1.1918783 1.0191743 0.0015274024 -1.0548936 1.2340351 1.2768877 -0.21177906 -0.50309235 -0.27166605 0.43211076 -0.24558388 0.37712878 -0.36110324 -0.5071931 -0.17769009 0.057438597 1.1776284 -0.40459266 -0.25420308 -0.99046206 -0.44826272 -0.9318891 0.51215196 -0.62784326 0.8866747 -0.37580273 0.10600928 0.114887275 -0.030316025 0.92799276 -0.64861286 0.75520825 -0.87032413 0.6185955 -0.8655806 -0.16746761 -0.38122505 -0.9818874 0.4311509 -0.34507892 -0.31810448 0.5027616 0.7793408 -0.4388197 -0.8646526 0.4913318 -0.19402204 0.14562526 -0.8044055 0.39372703 0.04157893 -0.53103185 0.6605493 0.33575788 0.18068777 -0.03586602 0.23269399 -0.18969503 -0.72097915 0.1993507 -0.42594382 -0.85953116 0.56656593 -0.3291184 -0.49046186 -0.32917485
59772 -0.02724418 0.56264 0.64380604 -1.3335403 0.19312613 -0.39668423 0.029523294 -1.0132713 0.31062323 0.034543697 0.013023927 -0.37796745 -0.36168966 -0.14766763 0.0053206533 -0.49742067 0.7285045 -0.6263819 -0.2413263 -0.26508963 0.16164637 -0.49938133 -0.3887615 -0.645333 -0.8226845 -0.91309154 0.565916 0.77507097 0.17102075 0.8902326 -0.59879005 -0.8767869 1.0453355 1.0073988 0.011214476 -0.6207132 0.11132769 -0.5616472 -0.54647565 -0.4969281 0.5412612 0.0981822 -0.1287539 -0.49755025 0.6317893 -0.7246945 1.2530965 -0.62109894 0.29254967 -0.8248194 -0.38339755 -0.18028316 0.7189267 0.13296153 0.6569853 -0.2884714 -0.9993675 -0.49632174 -1.0270988 -0.40209752 -0.7313088 0.60716856 -1.1891358 1.029337 0.03386458 -1.0567709 1.2281748 1.26451 -0.20855696 -0.524979 -0.2731287 0.43529573 -0.23357633 0.3718319 -0.36748323 -0.50888896 -0.18505429 0.06521449 1.1654543 -0.42375457 -0.2582029 -0.9666828 -0.44188178 -0.9291036 0.52287585 -0.6320339 0.898722 -0.37126222 0.10621838 0.11010762 -0.03354549 0.9341176 -0.6633583 0.7563403 -0.8469753 0.622744 -0.8914656 -0.17651388 -0.3658759 -0.99382186 0.4308351 -0.36253616 -0.3273955 0.5045854 0.7761027 -0.45786813 -0.8530656 0.4799315 -0.2283017 0.1291086 -0.8088853 0.4302098 0.0061811097 -0.5205842 0.65279037 0.35732841 0.18581031 -0.042985525 0.19658849 -0.17274019 -0.7199609 0.19726442 -0.45585188 -0.8610479 0.5516014 -0.31126767 -0.4988175 -0.3297733
1272 0.42068437 -0.5228978 -0.122844845 -0.3666409 0.24936463 -0.4791164 0.111743934 -0.28666484 -0.68074125 0.32435524 -0.49527118 0.15101697 -0.83045864 0.3731785 -0.2540833 -0.5262591 0.30087402 -0.15664946 -0.2752514 0.048135858 -0.14120382 -0.18399163 0.5666749 -0.45558408 -0.6616371 -0.7752011 0.4494038 0.6296364 0.75087416 0.039163224 -0.31599864 -0.5659546 0.35928714 0.095200405 -0.16421697 -0.7846513 -0.0012075566 0.08822881 -0.4473546 0.080345124 0.500364 0.040607806 -0.6640846 -0.019197367 0.05841573 -0.432062 0.473985 0.18366641 0.07515673 -0.24544306 -0.09257554 -0.12902232 -0.09697511 0.2957307 -0.2582303 0.16875851 -0.83593225 0.12707144 -0.89772207 -0.35298458 -0.20634273 0.10376658 -0.22160515 0.2574061 -0.40527484 -0.1948519 0.68022954 0.77130604 0.18569462 0.16060548 -0.24881922 -0.22351603 -0.37421894 -0.07332974 -0.06278061 0.0069153924 0.42163748 -0.0020396558 1.2335218 -0.1578982 -0.32325244 -0.62981814 -0.6156004 -0.22380431 0.43408158 -0.41581994 -0.17496325 -0.07102753 -0.2642537 -0.013259826 -0.38212344 1.018743 -0.76519436 0.72614247 -0.5531091 0.3052774 -0.4822239 -0.76953334 -0.29714137 -0.41657192 -0.23530713 -0.5692178 0.077894114 -0.15918894 0.43463248 -0.39948592 -0.374953 0.24314374 -0.03996104 -0.25468573 -0.74671805 -0.72379285 0.8566525 0.17943195 0.6859096 -0.2586651 -0.18102843 -0.21264689 0.57127905 0.19394329 -0.26020378 -0.04189591 -0.18118158 -0.3417051 0.88288665 -0.5734162 -0.07923081 0.29022655
887 0.6394265 0.66453713 0.34430507 -0.74407315 0.23770654 0.2658148 -0.096304856 -0.1333218 0.048205692 -0.4056022 0.19790976 0.014074805 -0.24495068 0.2139274 0.0039979904 -0.3101003 0.48193252 0.04877736 0.7245925 0.030312918 -0.19030051 0.14255655 0.0033704964 -1.0225152 -0.5785603 -0.29436234 0.40711868 0.24224773 0.22531122 -0.37035447 0.22462133 -0.79645836 0.04454771 -0.067871965 0.7951843 -0.8179331 -0.18499072 -0.045627024 -0.33629334 -0.4938496 0.3110788 0.5319611 -0.76699775 0.743108 0.7602722 -0.36247998 0.9265862 -0.28772026 0.6570061 -0.014299391 -0.6126301 0.44274756 1.2093505 -0.13747166 0.5519241 -0.16689001 0.15356289 -0.12102799 -0.18259719 0.14657362 -0.040659726 -0.4951539 -0.4064963 0.29887977 0.45486957 -0.34496918 1.049611 0.53981936 -0.70084333 -0.1317739 -0.20109843 0.69447374 -0.23553489 0.090214096 -0.79907554 -1.0825762 0.45694035 -0.23731707 0.36382693 0.6086132 0.42194507 0.06508863 0.020140558 0.116175495 -0.015976315 0.57754654 0.5993277 0.06366833 -0.43498424 0.4296694 0.46171322 0.049751002 0.04268001 0.8930841 -0.23982258 0.059091106 -0.2163479 -0.12881212 -0.8579881 -0.45816943 0.3721152 -0.30018702 -0.71371454 -0.09371808 0.41208962 -0.71546304 -1.1276416 0.42621943 0.43467402 -0.5676593 -0.47151685 0.23167966 0.1319279 -0.40596026 0.03218938 -0.44284716 -0.23111686 0.21441038 0.2336155 0.47535348 -0.7620522 -0.13567455 -0.15043159 -0.10167475 0.9064901 -0.6134207 -0.7670847 -0.13554744
85688 0.549656 -0.094464436 -0.03324633 -0.22893722 0.17091627 -0.27184933 -0.30313036 -0.2673725 -0.42387438 0.4154844 -0.4246943 0.23356822 -0.99569637 0.10477099 0.14020202 -0.2634424 0.61652035 -0.030262906 -0.09625838 0.18738227 -0.0151907625 -0.07849846 0.43001044 -0.7063262 -0.56530035 -0.52352965 0.49380994 0.5676415 0.672941 0.06590961 -0.21542402 -0.5509408 0.22767513 0.20361911 -0.29313034 -0.35300764 0.23942831 -0.19016266 -0.509933 -0.2411206 0.11317177 -0.21564436 -0.6214421 -0.35597312 0.093949474 -0.48000225 0.77697664 0.0047008027 0.18810347 -0.7368772 0.4248541 -0.083632596 0.27250725 0.48786506 -0.35681033 -0.49586 -1.1915836 0.28234535 -0.532682 -0.07249246 -0.45111907 0.06913459 -0.05748166 0.45769855 -0.010947457 -0.07125689 0.756423 0.27931476 -0.2670873 -0.008064373 -0.0336004 -0.3332733 -0.24746971 0.06615539 0.1391999 0.35585403 0.33863074 0.19206382 1.2425467 -0.09550165 0.023968566 -0.46149957 -0.20227747 -0.0245824 0.64383894 -0.09476251 0.13100085 -0.23264326 -0.4471016 0.03244075 -0.20135033 1.1638978 -0.7604902 0.6834105 -0.38361856 0.80139893 -0.58205056 -0.598572 -0.18801546 -0.1768577 0.28804877 -0.3929887 0.45070824 -0.5217411 0.753695 -0.08490315 -0.6463838 0.36123607 -0.0599274 -0.27056375 -0.67585105 -0.39087442 0.5055093 -0.0645615 0.30814174 -0.25962037 -0.43877053 -0.060887273 0.67594385 -0.13546073 -0.37846062 0.20098837 0.10378562 -0.5192287 0.551554 -0.2873053 -0.0910284 0.56471986
22563 0.2600403 -0.024775198 0.096822456 -0.5217335 -0.24879867 -0.60748374 0.0046287747 -0.7351956 -0.5282711 0.013672762 0.04736723 -0.09406674 -0.68842024 0.4669743 -0.24437438 -0.18993632 0.29872826 0.13678627 -0.23118374 0.1066119 0.18520789 -0.0045930343 0.010071089 -0.09586217 -0.677379 -0.36309224 0.44417793 0.8661133 0.59521 0.5645773 -0.11190976 -0.24856539 0.22293825 -0.09165675 0.121707715 -0.6032165 0.020979814 -0.5727791 -0.1822761 0.15308863 0.21716101 0.03328463 -0.7097676 -0.0013637617 0.33192676 -0.8926841 0.7141407 -0.114998475 0.35609227 -0.3742996 0.18138243 -0.32380947 0.09914134 -0.09104916 -0.14540273 0.17696601 -0.746076 0.16029882 -0.47993183 -0.03990807 -0.4845258 0.35455668 0.114340335 0.32380036 -0.16975437 -0.110926926 1.1423483 0.31036192 0.008458886 -0.14694503 -0.10399475 -0.3104941 -0.31587714 0.31692055 0.27428493 -0.3659334 0.12407084 0.06570787 1.2326701 -0.3200062 -0.37451455 -0.22826226 -0.10740745 -0.37921646 0.66381145 0.043932457 0.35534456 -0.2455861 -0.3677678 -0.036560938 -0.2043266 0.6613694 -0.87509274 1.0437636 -0.8443962 0.5153343 -0.7194124 -0.68921435 -0.51808596 0.0940559 0.5164307 -0.72827476 0.52522963 -0.020354817 0.504044 -0.30750066 -0.3004337 0.11510699 -0.26177695 -0.46299478 -0.20061232 -0.14569433 1.2201487 0.19705947 0.08913107 -0.27246368 -0.17621605 -0.03801 0.36533988 0.35518292 -0.4357408 -0.08972512 0.045996755 -0.6795601 0.83622915 0.12292562 -0.22548045 0.44827497
34979 -0.2873176 0.49016365 1.1468672 -1.2022363 -0.8068128 -0.5852138 0.2667175 -0.9916594 0.19392358 0.44244054 0.30949518 1.0218979 0.06392562 -0.04868631 0.90281725 0.13230343 0.490878 -0.08527232 -0.81244594 -1.2494444 -0.56408215 0.36262602 -0.55866814 -0.20672597 -0.47443834 -0.6897296 -0.012490941 0.3701358 0.36515436 0.54544467 -1.4972572 -0.6337131 0.004824966 0.34247398 -0.25500298 -0.62209517 -0.1050341 0.2607385 -0.3774041 -0.47996888 0.68905836 -0.019479783 -0.27584076 -0.13543552 1.3156308 -0.5838063 0.16763376 -1.3666255 0.3631882 -0.7239932 -0.14338535 -0.19807938 0.24262746 0.023414802 0.8108298 0.48011407 -1.0026119 -0.5207539 -0.20599225 -0.76196647 -0.8923455 0.33380312 -1.22035 0.7793841 0.6287583 -0.4711542 0.84810513 0.97081846 0.2486725 -0.46894902 0.31007892 0.350653 -0.22244136 -0.061578605 -0.23406859 -1.0467339 0.25063848 0.36053035 1.0559949 -0.40408057 -0.7071543 -0.56655806 -0.2812707 -0.4790495 0.70258677 0.2823797 0.17110778 0.034132235 0.11213439 -0.64238983 0.27261811 1.0411552 -1.300138 0.8430765 -1.0611175 -0.5888633 -0.63822156 0.3300462 -1.0738187 -0.38389775 0.40622595 -0.6807367 -0.71738976 0.14464751 0.28143296 -0.21468993 -0.883287 -0.45102832 0.09967641 -0.08937085 -0.078388885 0.40970373 -0.33264494 -0.33969957 0.3611746 0.131779 0.11400698 -0.40701798 0.36545348 0.7095086 -0.59463143 0.88953424 0.047428723 -1.2203387 0.4650555 -0.9002535 -0.29290608 -0.19353515
13982 -0.30972874 0.6009477 1.1763539 -1.2388024 -0.80404454 -0.49512658 0.22568181 -1.1146393 0.2853862 0.45915356 0.3459838 1.044034 -0.00024563706 0.05235881 0.7361847 0.18116583 0.51314455 -0.18041171 -0.80165464 -1.1667994 -0.44302988 0.3857817 -0.6134532 -0.093028635 -0.45942006 -0.7756875 -0.08071599 0.34401068 0.40009272 0.5621158 -1.5103997 -0.6737366 0.010892109 0.33578783 -0.13519298 -0.5408606 -0.09905662 0.19589464 -0.30597714 -0.44410038 0.73899746 -0.04350977 -0.36181358 -0.033508603 1.2679642 -0.58628577 0.14760782 -1.4049752 0.242894 -0.7493526 -0.15617043 -0.12368647 0.31350845 -0.04858302 0.7959836 0.53656715 -0.8244612 -0.44578317 -0.08589404 -0.7740292 -0.91017246 0.42866707 -1.1055979 0.83805156 0.7445023 -0.5975979 0.8841538 0.831094 0.2203156 -0.39497888 0.14640084 0.4263989 -0.11852585 -0.08190629 -0.14545545 -1.0389887 0.3001801 0.45074922 1.0107228 -0.43653545 -0.82809967 -0.548822 -0.18344758 -0.5745238 0.75004977 0.3305871 0.1476836 -0.058698826 0.059240725 -0.6680683 0.29842415 0.97888863 -1.3331367 0.90542084 -0.99084395 -0.5473807 -0.66793716 0.28893623 -1.0581663 -0.446584 0.48277763 -0.6623165 -0.811875 0.23929897 0.30070132 -0.16921833 -0.84404224 -0.41353342 0.006970627 -0.12181455 -0.050733753 0.49742278 -0.46635547 -0.35678348 0.28554735 0.14693223 0.06734407 -0.4559077 0.2675674 0.73817515 -0.72239304 0.8309626 0.03065303 -1.1125828 0.39340422 -0.7508801 -0.29100588 -0.12196277
8224 0.41598314 -0.17948273 -0.12491013 -0.23508282 -0.13998905 -0.5064781 -0.11466168 -0.25277802 -0.2628508 0.12650718 -0.16560757 0.21267055 -0.73786074 -0.07170622 0.32861966 -0.5886228 0.3451568 -0.34876153 0.2234777 0.01506345 -0.27586406 -0.1535216 0.4042726 -0.6214623 -0.82796896 -0.30092564 0.3960106 0.28001747 0.60662824 0.40856013 -0.4642197 -0.32878873 -0.0013220252 -0.050272867 -0.2669752 -0.5427809 0.001158463 -0.3045619 -0.6961267 -0.010788657 0.32680526 -0.25763285 -0.42374763 -0.06774258 -0.087773435 -0.3996521 0.80258226 0.13819416 -0.049697764 -0.38719794 0.38440278 0.042820696 0.1289157 0.40088725 -0.08952438 -0.27536 -1.0741038 0.014851999 -0.5650524 -0.17926851 -0.31936443 0.35071036 -0.18948948 0.5040605 -0.114342205 -0.17905308 1.0286411 0.27621487 -0.09349472 -0.364385 -0.03406959 -0.5507426 -0.22127557 0.06729717 0.24853149 0.16189429 0.320234 0.21764265 1.181526 0.0317755 -0.26095366 -0.390998 -0.19481707 -0.17046368 0.5782379 0.2332027 0.309908 -0.24485178 -0.101504534 -0.31356138 -0.19943109 1.1765265 -1.2305956 0.5391244 -0.4708628 0.8601507 -0.526244 -0.70776296 -0.057966143 -0.24128745 -0.07142959 -0.41496664 0.42516372 -0.4918591 0.7315076 -0.366126 -0.4793504 0.13568024 -0.11928778 -0.14717893 -0.92376673 -0.24674177 0.8125422 0.31275195 0.5490172 -0.33410054 -0.3381948 0.16258651 0.59461576 -0.105777 -0.47035354 -0.1935804 0.015276818 -0.2088543 0.5333383 -0.6148151 -0.023785273 0.54888296
1365 0.19246684 0.6171503 -0.612943 -0.4877898 0.6405856 0.0429726 0.32295874 -0.23764157 -0.5772673 -0.22003037 -0.57732475 -0.8579035 -0.112166315 -1.0247693 -0.5501292 -0.98427814 0.30042285 -0.6741838 0.3162878 0.36291537 -0.026321545 -0.7823182 -0.16241682 -0.6842483 -0.70235926 -0.44837013 1.2025832 0.8389183 -0.48327455 0.6193301 -0.1479082 -0.3593154 1.3783642 0.51148295 0.4143641 0.7648875 -0.14290711 -0.65584004 -0.29444465 -0.09021616 0.054738857 -0.01355003 0.7474636 -1.4616857 -0.018298453 -0.31042868 -0.41322452 0.315857 -0.39226794 -0.2617106 -0.14211886 -0.26656783 1.1519346 -1.2072104 0.04644882 -0.07414966 -1.042647 0.017929727 -1.3112276 -0.1003433 -0.38627574 0.800451 -0.42943564 0.4406978 0.021868562 -0.5604688 0.5811396 0.63156444 -0.2075827 -0.3919235 0.090363085 -0.02022982 -0.348701 0.13837935 -0.13137451 -0.09034385 -0.45259306 0.6018207 -0.25758252 -0.14771508 -0.40349695 -0.14297557 -1.6249772 -0.45880994 0.48828512 -0.8205435 1.2477463 -0.19676913 0.29316974 -0.016662367 1.1006042 -0.39420754 -0.54836065 1.411966 0.7870241 0.8580961 -0.95298856 1.0808628 0.48203915 -0.397936 0.7136974 -0.19677007 0.3989819 0.12110643 -0.7595284 -0.81041014 -0.12202543 -0.76218987 -0.29776037 -0.814989 -0.39733306 0.9539187 0.79604554 0.5261795 -0.5084119 1.5325077 0.0104895355 0.53272593 1.0771704 0.07765614 1.185925 -1.0334467 -0.875504 -0.10073658 0.31733897 0.24596015 0.59346175 -0.5177477
633030 -0.020320933 0.49638945 0.7418605 -1.2841364 0.17975709 -0.4502754 0.0022936729 -0.9473567 0.3386957 -0.014967738 0.0470774 -0.46147665 -0.3794148 -0.07941137 0.005106231 -0.37449747 0.65679044 -0.58138424 -0.22218485 -0.21738206 0.15113677 -0.3739607 -0.3674656 -0.5763016 -0.7960195 -0.8528849 0.54277146 0.71493065 0.13294661 0.75074375 -0.5751156 -0.8312466 1.0093104 0.964694 0.028835537 -0.6021064 0.13087806 -0.59585977 -0.49402076 -0.4988365 0.45884335 0.0666413 -0.055116326 -0.55179816 0.6565713 -0.69163674 1.194413 -0.62430406 0.3018721 -0.8261092 -0.48535514 -0.19357173 0.6633499 0.120418474 0.71184105 -0.23890166 -1.0091611 -0.42820948 -1.0202595 -0.37169284 -0.653127 0.6022728 -1.164955 0.8884427 -0.04757525 -0.96208334 1.1790978 1.1687309 -0.15986921 -0.48792732 -0.24362385 0.37247202 -0.30195737 0.35517567 -0.3469027 -0.4404282 -0.1593756 0.10083293 1.0725242 -0.4112221 -0.23717181 -0.9105662 -0.410298 -0.88212067 0.4592607 -0.64179057 0.8662832 -0.42682534 0.07469054 0.10506979 -0.029995248 0.8179258 -0.54081255 0.6806501 -0.788937 0.5048257 -0.8239167 -0.15957943 -0.39888442 -0.9652021 0.45818007 -0.2913861 -0.32844326 0.53247535 0.7529135 -0.38810816 -0.77462614 0.46994346 -0.19778581 0.14912637 -0.64325887 0.39607388 0.019592058 -0.50714266 0.5927155 0.36376026 0.23497188 0.015484605 0.092949905 -0.20762235 -0.6685919 0.1717909 -0.37693486 -0.8615461 0.483323 -0.32717746 -0.44942254 -0.2823748
73972 -0.016013172 0.51758635 0.7519285 -1.3232563 0.0934239 -0.43961892 0.07867493 -0.9459423 0.3502485 0.005535508 0.103670426 -0.444808 -0.41346693 -0.05015886 0.08477095 -0.32538077 0.69871837 -0.5985667 -0.19633718 -0.27238148 0.12115594 -0.34483957 -0.34696594 -0.5890524 -0.8244825 -0.8431827 0.56831914 0.7104534 0.14270562 0.71678394 -0.5995859 -0.87036335 1.0085448 0.97265124 -6.592965e-05 -0.6738687 0.1507855 -0.61076266 -0.5504976 -0.54371715 0.42039403 0.07638571 -0.07909437 -0.5887695 0.7230535 -0.6903366 1.3024422 -0.6280124 0.36546636 -0.8444093 -0.62331176 -0.20769323 0.7271555 0.17694205 0.7191465 -0.27595812 -1.1227536 -0.41327864 -1.0532638 -0.39437866 -0.66724557 0.5607998 -1.1941082 0.830819 -0.10518575 -0.9450733 1.2379236 1.2118194 -0.19456068 -0.45795885 -0.17212985 0.41126877 -0.32757482 0.33075 -0.3459876 -0.44879436 -0.10961356 0.081322074 1.0919222 -0.31114239 -0.23297852 -0.9780439 -0.37522843 -0.897846 0.4350917 -0.62701005 0.8324556 -0.47643456 0.10892184 0.057988804 -0.017597575 0.81830317 -0.5691443 0.6823626 -0.88199115 0.44014376 -0.7942776 -0.20467278 -0.47056967 -0.956663 0.44917592 -0.24868135 -0.35866663 0.5605515 0.7714602 -0.41681534 -0.7905398 0.48031783 -0.16411312 0.12711012 -0.67048144 0.25142023 0.05413623 -0.49690664 0.64589965 0.32165918 0.30534124 0.080148675 0.14338386 -0.20964858 -0.6674774 0.22329432 -0.31048927 -0.9028293 0.51169145 -0.4422259 -0.48841068 -0.24170348
49753 -0.04943907 0.50100946 0.8212727 -1.3284947 0.11282489 -0.42769122 0.023651714 -1.0292892 0.36746246 0.017051885 0.10329002 -0.4067777 -0.4247516 -0.06194144 0.08957444 -0.3458901 0.6373436 -0.5687688 -0.23802944 -0.21916604 0.13260539 -0.31460527 -0.4323999 -0.4762303 -0.70989424 -0.9035811 0.5018186 0.66859674 0.13520557 0.7450789 -0.5697962 -0.81551486 0.95873326 0.9908962 0.03260924 -0.60046506 0.14661096 -0.5684456 -0.44844636 -0.4855353 0.43835327 0.056557816 -0.07212251 -0.5028231 0.6894129 -0.6843706 1.1534982 -0.7125813 0.2771257 -0.86390215 -0.46738988 -0.19440714 0.6402465 0.07978211 0.7249279 -0.21697895 -0.9391413 -0.3808943 -0.97449344 -0.40365574 -0.70126796 0.64728993 -1.1608907 0.91255844 0.019811664 -0.9967598 1.1795211 1.1222103 -0.14219701 -0.4644732 -0.18382227 0.42734283 -0.27210703 0.3317113 -0.37610304 -0.45847917 -0.12713574 0.116863325 1.0258462 -0.4651236 -0.30847523 -0.88325036 -0.37039232 -0.92826813 0.49020472 -0.6501255 0.87204856 -0.4704595 0.04656251 0.027743638 -0.064132705 0.8190433 -0.55522317 0.6896614 -0.81629086 0.48920175 -0.8705462 -0.18206686 -0.38373733 -0.9896802 0.4667309 -0.30061918 -0.3956385 0.55640996 0.7468325 -0.37437558 -0.7577249 0.4439569 -0.21953274 0.13262309 -0.61242545 0.41096777 -0.06748021 -0.48845476 0.58811486 0.3663077 0.24193387 0.031502485 0.039154883 -0.17474039 -0.703681 0.1924499 -0.36902943 -0.8445258 0.4354783 -0.3538684 -0.4397722 -0.2667038
49720 -0.05623022 0.4876747 0.8250624 -1.3179826 0.13086708 -0.422394 0.009452013 -1.040637 0.3513522 0.019359643 0.1032935 -0.38739875 -0.41703442 -0.043148153 0.0820201 -0.35450137 0.63352984 -0.55859107 -0.2518495 -0.23095867 0.1172618 -0.30761507 -0.44025028 -0.4800879 -0.71945953 -0.9168792 0.5031689 0.6790462 0.1589177 0.7581095 -0.596495 -0.8096311 0.9521516 0.9698657 0.041462634 -0.58395696 0.14300007 -0.5594419 -0.43646684 -0.4911655 0.45659107 0.052909464 -0.087155424 -0.4735966 0.69453543 -0.68951356 1.1393852 -0.72004616 0.2768965 -0.8725631 -0.4368866 -0.18982603 0.65518254 0.058745455 0.7134998 -0.19441888 -0.9291557 -0.3685537 -0.9576485 -0.40608346 -0.72077495 0.6630207 -1.1410888 0.92539364 0.058336638 -1.0053403 1.1895388 1.1163082 -0.13203128 -0.47227797 -0.20855883 0.43534583 -0.26959544 0.32714987 -0.36293352 -0.4677426 -0.119430795 0.12323038 1.0227159 -0.4771216 -0.3159226 -0.8571412 -0.37227154 -0.9165086 0.5013983 -0.6311046 0.86702746 -0.47730333 0.04629894 0.020992879 -0.060851194 0.8208772 -0.5623663 0.7146733 -0.8107128 0.48439115 -0.891284 -0.17310257 -0.4045865 -0.99360204 0.48508412 -0.30337366 -0.3988353 0.539282 0.7404247 -0.3823162 -0.76387405 0.4094611 -0.20725241 0.13809621 -0.61664283 0.434539 -0.06111223 -0.47990754 0.5596497 0.36827585 0.2101201 0.010331834 0.048541795 -0.16678117 -0.7164513 0.18735847 -0.38349786 -0.8352249 0.44968042 -0.3275241 -0.43292934 -0.2759898
368657 -0.265447 -0.20895097 1.2568221 -1.3843802 0.22764096 -0.7485529 -0.13916135 -0.20453592 0.68910974 -0.7499014 0.24002232 0.2544462 0.30080068 -0.5371399 1.1868291 0.10805899 0.28684258 -0.9431648 -0.5325116 -0.72067076 -0.5142896 -0.5804029 -1.3242176 -0.9065426 -0.48730215 -0.66889477 0.18357147 -0.31970787 -0.1555952 0.33283633 -1.2255173 -1.483304 0.65792966 0.47680703 -1.0199372 -0.81774926 0.44998023 0.09782802 0.38950354 -0.683191 0.4788467 0.3119393 -0.17555135 -0.6613409 1.6517713 -0.7454395 0.9418203 -1.769674 0.3950024 -0.8712544 -0.2006462 0.005226241 0.5764144 -0.2626374 1.253346 -0.12158768 -1.0496618 -0.3255912 -0.48896095 -0.021062959 -0.2082832 0.44043297 -1.8148105 0.6774116 0.8768434 -0.80558485 0.4328554 0.98913884 -0.08137839 -1.2187265 0.27793184 0.8607102 -0.24372308 0.3623323 -0.4566274 -0.8866765 -0.8574001 0.31693387 0.24056777 -0.73338115 0.47195235 -0.25695467 -0.27608392 -0.7460211 -0.28874403 -0.25335717 0.7764532 -0.027569836 0.99044144 -0.018175108 0.020814344 -0.035708588 -0.4318494 0.83628196 -1.2573572 -0.4142822 -0.79726535 0.6104421 -0.50054467 -0.620852 0.33942354 -0.68945056 -0.90908206 1.0671833 0.79697907 -0.41572565 -0.56437576 -0.5086092 0.060902968 -0.19519576 -0.5259839 0.4263958 -0.8340745 -0.471263 0.3355205 0.41348362 0.9991852 -0.21513759 -0.89953226 0.24598052 0.03221274 0.9639495 -0.5540294 -1.470556 0.7632407 -1.6530089 -0.7983714 -0.4843861
633031 -0.03225888 0.4937443 0.7467417 -1.2711128 0.1636011 -0.461853 0.007606667 -0.956759 0.32674798 0.00038569426 0.064753205 -0.45083266 -0.37358946 -0.07110955 0.016511211 -0.3653749 0.64541006 -0.55789 -0.22357848 -0.24012074 0.1366491 -0.3506828 -0.36267525 -0.5611711 -0.78542274 -0.85133296 0.53762823 0.7090302 0.13974072 0.7506353 -0.59221846 -0.8213317 0.985986 0.9455857 0.024974363 -0.60377496 0.13941978 -0.5878332 -0.49664107 -0.5030548 0.4554685 0.049601715 -0.045098983 -0.540609 0.65560687 -0.69410163 1.1846454 -0.6328313 0.30195183 -0.8173712 -0.47309002 -0.2034563 0.6568795 0.13234241 0.7027009 -0.22966652 -1.0165697 -0.42241138 -1.0137239 -0.37520424 -0.67173225 0.5928778 -1.1644275 0.882988 -0.03230454 -0.94837934 1.17154 1.1633675 -0.15653268 -0.4848848 -0.23814897 0.37338963 -0.2993185 0.34977177 -0.33622682 -0.44267172 -0.15705688 0.10910356 1.0791736 -0.40526247 -0.24938188 -0.90769106 -0.41059557 -0.87404245 0.4632892 -0.6273326 0.8522921 -0.42404234 0.069524914 0.09284206 -0.032565325 0.8150071 -0.55425686 0.6767789 -0.8051134 0.4928432 -0.8163923 -0.14832048 -0.40181464 -0.9515589 0.45495215 -0.30390832 -0.3242416 0.52797407 0.7471572 -0.37566757 -0.7702322 0.45109499 -0.19593826 0.15324019 -0.6304124 0.38119006 0.02509241 -0.5095709 0.58727175 0.35837445 0.24696903 0.009259257 0.09375807 -0.19459912 -0.66398257 0.18790339 -0.36106473 -0.8686258 0.4865605 -0.33736822 -0.440135 -0.2665946
50980 -0.006754418 0.5176738 0.73845035 -1.2900617 0.08793628 -0.44535717 0.06471572 -0.9554439 0.31974223 0.01957942 0.112723604 -0.45014855 -0.420174 -0.030820277 0.06952689 -0.32961762 0.69463354 -0.5717984 -0.19853444 -0.27690244 0.10931164 -0.33976498 -0.33425194 -0.57731277 -0.834957 -0.8468191 0.5694422 0.7269462 0.15312552 0.7379116 -0.6077813 -0.85718906 1.0015783 0.9559924 0.03490055 -0.67629606 0.16185269 -0.6167509 -0.56782484 -0.55320436 0.41661716 0.056955982 -0.07475849 -0.5774205 0.71097124 -0.6908624 1.3002205 -0.618363 0.36772436 -0.8350428 -0.6109255 -0.22518599 0.7353321 0.18333226 0.69357425 -0.2642709 -1.1224624 -0.4023936 -1.0601897 -0.39252812 -0.68273795 0.56797457 -1.1835938 0.8244254 -0.09838561 -0.93744963 1.2408161 1.1943183 -0.19588967 -0.4578506 -0.19325227 0.40063488 -0.33241796 0.33865702 -0.33462393 -0.4449696 -0.11174176 0.07300191 1.1151344 -0.32007316 -0.25731653 -0.97478956 -0.39455473 -0.8979959 0.44078723 -0.6152216 0.8376246 -0.4853016 0.105075784 0.07204633 -0.022759546 0.82861024 -0.5699636 0.68555194 -0.88985884 0.44494385 -0.791347 -0.20945504 -0.4767568 -0.95594347 0.4620593 -0.24755059 -0.33268103 0.5378106 0.7721241 -0.41060978 -0.8051799 0.47788048 -0.16616681 0.14558119 -0.6657178 0.24979138 0.08706661 -0.501168 0.6313792 0.30698046 0.29297963 0.06416586 0.15587223 -0.21387552 -0.6775012 0.2189463 -0.30521947 -0.8988857 0.529959 -0.41941184 -0.46488482 -0.24677087
400455 -0.27050975 -0.22723418 1.2600362 -1.3433349 0.08931403 -0.8240704 -0.13444757 -0.1931029 0.69573176 -0.8122211 0.26342028 0.104671106 0.2739084 -0.49151552 1.1841552 0.18801478 0.3188337 -0.8677069 -0.46003008 -0.65399414 -0.5241204 -0.52366036 -1.2746778 -0.8030523 -0.4587602 -0.65900266 0.14825311 -0.25926137 -0.17266779 0.17878728 -1.1514947 -1.4803294 0.6256225 0.42504138 -1.005674 -0.8238122 0.51486486 -0.011506883 0.319498 -0.65426344 0.33349353 0.2531288 -0.10259373 -0.79206 1.6568254 -0.7454518 1.0424317 -1.7531416 0.46673012 -0.89510655 -0.37832168 -0.012026389 0.5732381 -0.2272935 1.3142481 -0.16698892 -1.192885 -0.24635121 -0.5407165 0.0086021805 -0.1812118 0.33934614 -1.9021119 0.56802714 0.7035557 -0.7372422 0.43162376 0.97057325 -0.08449997 -1.1859792 0.33564445 0.8113594 -0.32990855 0.32245684 -0.4047624 -0.8490687 -0.8193699 0.2905132 0.22593199 -0.6951567 0.5479343 -0.31863704 -0.29982904 -0.730461 -0.29196724 -0.32093945 0.73648816 -0.07022693 0.9772374 -0.10134454 0.009721359 -0.07981681 -0.3419237 0.7703218 -1.3693477 -0.45893836 -0.7459213 0.58371615 -0.49187285 -0.5685862 0.29788703 -0.61330175 -0.83702266 1.0645123 0.7954982 -0.44603166 -0.5578795 -0.47711948 0.09999048 -0.21643294 -0.4968835 0.30468628 -0.72764707 -0.50425106 0.36246222 0.343861 1.0822781 -0.066068284 -0.88996744 0.21215883 0.18384771 0.93450713 -0.4835229 -1.4783173 0.76345134 -1.7571837 -0.88082325 -0.42518634
648121 0.20057926 0.4045147 0.442789 -0.8090212 -0.24364111 -0.23800741 0.37658826 -0.62196344 0.58827746 -0.22706805 -0.45030305 -0.2595747 -0.3260813 -0.44054914 0.091009036 -0.42376232 0.2541964 -0.532382 -0.151175 -0.21191554 0.016509958 -0.8423844 -0.47890818 -0.3948933 -0.11688868 -0.66266954 0.11289749 0.88685703 0.21705133 1.0787953 -0.75040424 -0.6989206 0.60564727 0.8318636 0.1504487 -0.5984172 -0.114375345 -0.9930241 -0.3310476 -0.4307476 0.47012746 0.17181732 -0.6077568 -0.6084821 0.6563592 -0.093860745 1.1541836 -0.33364773 0.61603916 -0.72585714 -0.8170401 0.1786771 0.49165934 0.19404691 1.0043334 -0.29810438 -0.3255786 -0.39941698 -0.89375347 -0.3583013 -0.8076969 0.0984302 -1.1283296 0.8815027 -0.109253064 -0.73525965 0.86506224 0.83081925 -0.09987876 -0.39484882 -0.5753998 0.50796485 0.29973906 0.2478078 -0.6083363 -0.26997754 -0.5679083 0.055489 0.7160588 -0.4306366 -0.12171967 -0.5212687 -0.4316669 -0.6843416 0.20626462 -0.33517152 0.7793281 -0.059813045 0.12741125 0.014756535 0.020370591 1.0484076 0.27660033 0.4745564 -0.8289992 0.7133745 -0.456367 -0.007820926 -0.021532498 -0.91176504 0.58902556 -0.21916051 -0.30205286 0.1867642 0.6377659 -0.2433375 -0.7723382 0.25010824 -0.13921158 0.36932588 -0.7276554 0.5462581 -0.4187863 -0.5850311 0.5560992 0.025827551 0.039150342 0.54288274 0.77497244 -0.67442703 -0.27908614 0.1540783 -0.18846886 -0.8174527 -0.16587363 0.08127253 -0.28761476 -0.34642854
6213 0.21407369 0.19253412 -0.17721723 -0.18124211 0.2015134 0.06992613 -0.027131502 0.1286711 -0.47185403 -0.29061258 0.12804376 0.19409233 -0.5628066 0.15895535 0.13432729 -0.41614556 0.5725245 -0.41984248 0.18618928 0.33809903 -0.17436577 -0.028440813 -0.15782414 -0.5550167 -0.08001416 0.09078425 1.112534 0.2949014 0.71114546 -0.6609145 -0.1375994 -0.5618759 0.6031943 -0.14325461 0.55437076 -0.610464 0.3337791 -0.23753528 -0.46306813 -0.47723767 -0.060083896 -0.027159117 -0.67051196 0.56212795 0.026803542 -0.52517647 1.5686743 -0.33909228 0.17196381 -0.78376365 -0.51755166 0.6401111 1.2434994 -0.32062665 0.15075833 0.083126456 -0.31480613 1.0278323 -0.18219456 0.5575529 -0.3607046 0.3470631 -0.17570753 0.3480687 -0.0029618891 -0.26606473 1.1508026 0.73192555 0.17927048 -0.06206086 -0.22642261 -0.21949346 0.0367004 0.041642096 -0.7601024 -0.6711534 0.8912657 0.09493541 0.3773861 0.6468392 0.15861493 -0.80762345 0.5087648 -0.3968232 -0.40549648 -0.5618073 0.06628976 -0.5176959 0.3881006 0.20198599 -0.07161201 0.048303545 0.0047226846 1.1034495 -0.71243954 0.31126946 -0.7026309 -0.5619747 -0.4765543 -0.4254786 0.5050166 0.16269548 -0.12949242 0.47343317 0.50522536 -0.1687442 -0.22442304 0.15386333 0.13744038 -0.31242082 -0.8907154 0.056063674 -0.0076732016 -0.02170196 0.4348988 -0.46776646 0.14139652 0.0848138 -0.030165182 -0.08848438 -0.6531059 -0.46406484 -0.5297412 -0.37248424 0.3925809 -0.6771085 -0.33393112 -0.1328649
10798 1.1020012 0.69413435 0.30155033 -0.7382358 -0.13034624 -0.7077973 0.30209666 -0.84016234 0.060325727 -0.13161507 -0.2631538 -0.09713843 -0.2362782 0.6822754 -1.3314339 0.4124527 0.23801723 -0.4592331 0.2591487 -0.29146978 -0.30294567 -0.63556886 -0.11057589 -0.8482448 -0.41984332 0.29763228 0.37480682 0.65191966 0.10364141 -0.023413036 -1.2714746 -0.49619108 0.7507334 0.047196656 0.58315 -0.64940065 -0.0551026 -0.40713295 -0.6662973 -0.67833537 0.58782005 0.18313475 -0.20828201 -0.6368507 0.45675823 0.03871835 1.635781 0.362629 0.23685005 -0.9308613 -0.9815306 0.15775035 0.8901077 0.74538827 0.75078374 0.4024145 -0.8577048 0.40612143 -0.8238993 0.45577478 -0.14738587 -0.5610764 -0.60401297 0.16065004 -0.9523586 -0.07583063 0.44638926 0.8704797 -0.60775506 -0.20116617 -0.8119555 0.085902415 -0.28221768 0.18809602 -0.22208188 0.23515542 0.05079748 0.1878933 1.5352274 0.687036 -0.51699424 -0.6624948 -0.40863785 -0.14054164 0.03097265 -0.07503853 -0.034055818 -0.5351734 0.43823606 0.8178595 0.18017611 0.2977198 0.18854663 0.6771926 -0.5944519 -0.09603445 -0.1805948 -0.016190818 -0.83931947 -0.28796515 0.4316908 -0.069520466 0.23271722 0.7021871 1.4326497 0.001988947 -0.9589417 -0.04801625 -0.0039978246 -0.19598037 -0.23820703 -0.17279173 -0.11490931 0.033318955 -0.12309717 -0.86327744 0.0051152236 0.16219518 0.7330945 -0.014882312 -0.48850313 0.51697165 1.0962842 -0.2394533 0.31185442 -0.81648815 0.07911622 0.72338367
16819 -0.24446669 0.45431805 0.2521412 -0.1247852 0.36997363 -0.5587328 -0.38179868 -1.165651 0.07320074 0.17476596 -0.0060310503 -0.5002156 -0.0323846 0.00564049 -0.46649924 -0.09618565 -0.08385322 0.5858187 0.16084275 -0.2745705 -0.20011549 0.2649776 0.042869724 0.1554992 0.07720896 -0.84842426 0.24030428 0.5171834 0.11949058 1.0847025 -0.1358141 -0.12862249 0.12840953 0.49095693 0.32837147 -0.5329792 0.5734373 -0.39215055 -0.22660705 -0.33319446 0.33370832 -0.20883512 0.6750808 -0.28791994 0.17180595 -0.8268531 0.6951666 -0.3247055 -0.43772066 -0.34719807 0.29753664 -0.650086 0.2366147 0.17305398 0.10318963 -0.12055086 -0.055145357 -0.24630062 -1.026503 -0.13993892 -0.97475755 0.35957906 -0.30432546 0.8771226 0.7176477 -0.57717896 0.5339805 0.31110784 -0.30167365 -0.7164922 -0.50105214 0.26479673 -0.15180327 0.12665544 -0.013630764 -0.105862394 -0.3271527 -0.22610962 1.0124878 -0.72011024 -0.98848003 -0.25474107 -0.27111408 -0.89735985 1.0567659 -0.28750592 0.6764035 -0.4485614 -0.12874673 0.083576895 -0.2016139 0.45838234 -0.8604104 -0.014839256 -0.6490328 0.11284171 -0.43334308 -0.25803524 0.10720794 -0.671733 0.32469207 -0.28865936 -0.047151133 0.018958455 0.74188817 -0.4100302 -0.48115778 0.14793025 -0.7456334 0.43094543 -0.17686525 0.5934193 0.053387087 -0.6585423 -0.07357654 0.31934726 0.20977552 -0.3418724 -0.8037531 0.0043733167 -0.69390106 0.24384904 -0.5980175 -0.576817 0.75214183 0.663649 0.13106658 -0.06019566
642894 -0.25208002 0.34577054 0.007603001 -0.23997666 0.22408517 -0.58787185 -0.24686606 -1.1028491 -0.14872587 0.2915527 0.07624339 -0.4689306 -0.024608139 -0.13119863 -0.25142735 -0.3690333 0.150248 0.2335478 -0.15818338 -0.21641596 -0.18786155 0.20048942 0.093508765 0.112961896 -0.12535162 -0.91271263 0.3090967 0.7305662 0.14484927 1.2839471 -0.058312133 -0.03746792 0.29029357 0.6680615 0.75756603 -0.4185954 0.30155337 -0.50195324 -0.2819246 -0.39748088 0.3642718 -0.4329468 0.651559 -0.033321287 0.027831137 -0.7795132 0.29706848 -0.22411343 -0.43922746 -0.21194674 0.49893868 -0.69574314 0.03094718 0.17403297 0.23080058 -0.22026567 0.14748734 -0.25168562 -0.8900693 -0.4127397 -0.8426034 0.32670283 -0.3973862 1.0132434 0.4416391 -0.6517088 0.7435431 0.4960456 -0.251701 -0.37844056 -0.37314448 0.103073284 0.110094234 0.21158764 -0.0038214582 -0.30318955 -0.26511154 -0.10104924 1.0087736 -0.6757266 -0.8005577 -0.838288 -0.24774371 -0.8683836 0.74990064 -0.34247142 0.8336155 -0.273055 -0.35913217 0.3887139 -0.128555 0.29965958 -0.4322199 0.1042249 -0.48687077 0.630602 -0.49362808 -0.2919961 0.09784891 -0.64746827 0.34562746 -0.29225975 -0.07435139 -0.008229477 0.3498727 -0.26494688 -0.562341 0.16781443 -0.8092156 0.659778 -0.04539295 0.75317204 0.09951051 -0.6036968 0.13559619 0.39030617 0.22511773 -0.4731053 -0.76331955 0.07198874 -0.91620755 0.04359115 -0.74048865 -0.27383798 0.421298 0.6200918 0.18202886 -0.19628653
643239 -0.14116548 0.44970345 0.14247197 -0.4328929 0.27545482 -0.5776882 -0.4726515 -1.0482244 -0.022172531 0.22501628 0.073922716 -0.6585037 -0.076690614 0.02882302 -0.5667127 -0.17573327 0.11413776 0.42735365 0.03488641 -0.1701105 -0.11011319 0.1794186 -0.0673168 0.1596679 -0.18432167 -0.9091002 0.13106385 0.9127253 0.09084525 1.1192365 -0.077599905 -0.13317816 0.2562002 0.34915802 0.6075362 -0.35000253 0.58477736 -0.6462179 -0.21291241 -0.29682678 0.17707632 -0.4627805 0.5695661 -0.056287803 -0.07190209 -0.83895713 0.4429672 -0.35584113 -0.36172223 -0.43695292 0.2751196 -0.5707509 0.21193254 -0.060360346 0.07664795 -0.14841272 -0.20644052 -0.25763917 -0.80081606 -0.25205344 -0.9978192 0.43265298 -0.40093634 0.95565534 0.6184163 -0.69909143 0.59202814 0.4102083 -0.21938963 -0.47099385 -0.5568561 0.15742546 -0.20915805 0.23340149 0.021866545 -0.26231593 -0.17819454 -0.10282661 0.93944275 -0.82850015 -0.7113002 -0.43995735 -0.5320329 -0.7897372 0.8880383 -0.33121294 0.65975934 -0.31437078 -0.3555077 0.06053154 -0.40945002 0.49286354 -0.4797513 -0.014392881 -0.508495 0.57928133 -0.49779636 -0.2596706 0.12507178 -0.7333646 0.24334405 -0.1370083 0.09354782 -0.01365907 0.5525867 -0.2941818 -0.5223673 0.24721175 -0.7383764 0.450997 -0.04442713 0.73600596 0.07150892 -0.60822767 -0.061400834 0.34829623 0.08838609 -0.29289043 -0.65582335 -0.14608394 -0.8112189 -0.013772805 -0.6851065 -0.3437015 0.4838494 0.66355133 0.17695841 -0.30573446
13686 0.43860465 0.0718695 0.15403546 -0.4283304 0.050359055 -0.38936383 0.0882668 -0.4749101 -0.76004314 0.3532151 -0.46823713 0.3594028 -0.4714543 0.37322238 -0.26836115 -0.39193124 0.61000067 -0.18591383 -0.27154484 -0.037158683 0.096382506 -0.24578492 0.46472278 -0.40381446 -0.7798293 -0.6377602 0.48820764 0.6070159 0.7220377 0.22047532 -0.5700409 -0.59201044 0.12645915 0.069687344 -0.10079158 -0.7180064 -0.021037549 -0.18998235 -0.7216346 -0.30077353 0.37698132 -0.10077523 -0.88157886 0.23837627 0.1465224 -0.64299476 0.6211428 -0.1681805 0.23515058 -0.72455657 -0.04161009 0.15928002 -0.033231307 0.0059640254 -0.13282989 -0.03388608 -0.9188708 0.15877739 -0.34748435 -0.16874512 -0.12583081 0.08193712 -0.2154161 0.31389758 -0.30271104 -0.17416164 0.53531283 0.5721803 0.25130734 0.12447995 0.07899679 -0.40236953 -0.37271717 0.016575793 0.09613245 0.19012886 0.44194907 0.31072196 1.4014865 -0.2370177 -0.114137344 -0.6399233 -0.6920394 -0.38298485 0.31800053 -0.04947275 0.25919732 -0.21573435 -0.1573912 0.288904 -0.41945446 1.2093174 -0.8882495 0.9171436 -0.7041922 0.35767853 -0.4367719 -0.57963234 -0.0444172 -0.19057682 -0.2039308 -0.4399376 0.19124433 -0.03908477 0.2232196 -0.19738697 -0.524394 0.34868506 0.40191096 -0.09075273 -0.76174533 -0.64227754 0.8292287 0.021392833 0.5842938 -0.098309375 -0.46549097 -0.06131189 0.7370883 0.21160585 -0.30633536 -0.15123343 -0.09303713 -0.53138065 0.61221725 -0.6391307 -0.4090688 0.58871156
3229 0.26177305 0.24255754 0.73068655 -0.31034145 0.23640466 0.06258422 0.18413644 -0.24072963 0.28436413 -0.1108433 0.054109916 0.13543531 -0.49403086 -0.24745023 0.0056026746 -0.7793027 1.2446066 -1.4717993 0.548282 1.0083252 0.037043393 -0.97254694 -0.39638636 -0.21984293 -0.39213094 -0.7203566 0.1384793 0.26303932 -0.09789928 -0.60513824 -0.34501502 -1.2689384 0.60545236 0.038397405 -0.67363936 0.13657588 -0.26528078 -0.23107357 0.10808635 -0.2874055 0.19230825 0.28460088 -1.0382692 -0.15177432 0.38766855 -0.5512017 1.1574854 -0.38168326 -0.35579073 -1.0394835 -0.8898305 0.26521644 0.24160361 -0.50488603 0.6487999 -0.58486086 -0.8136692 -0.19048251 0.09249129 -0.12801722 0.57700473 1.0337552 -0.1350428 0.2771629 -0.30009615 0.40969348 0.59100837 0.18281654 -0.52284086 -0.60390997 -0.48727852 0.61163867 -0.15024512 0.27721357 0.18245605 0.42248452 -0.038972765 0.7308209 0.17065072 -0.3611214 0.5532604 -0.2149696 0.077539615 -0.111409664 -0.2309046 -0.71205485 0.5779928 0.021725338 0.9423574 0.31547624 -0.09122687 0.28051704 -0.18345155 0.901993 -0.35733837 0.22735746 -1.3403553 -0.19470969 -0.42194763 -0.74002534 0.016301947 -0.9944533 0.24702461 0.5484165 0.32166028 -0.7223723 -0.22146541 0.23428299 -0.033820655 -0.25304127 -0.3440155 -0.22204271 -0.36431253 0.667609 0.72780675 0.60271096 -0.14344718 0.030080548 -0.22317563 0.24542828 0.45231497 -0.3592496 -0.8113358 -0.52079344 0.10044385 -0.10177886 -0.69084376 -0.2217179
643485 -0.26091912 0.29034585 0.30024347 -0.25048575 0.25464168 -0.6268612 -0.42994145 -1.0186834 -0.13155255 0.2000645 -0.03689468 -0.8331277 -0.0115817385 0.029861433 -0.5184332 -0.09916187 0.30327138 0.19884884 0.042897236 -0.09939331 -0.08023833 0.26320958 0.03510978 0.13115378 -0.29235107 -0.86433756 0.13200611 0.94455624 -0.011718207 1.1326064 -0.0579863 -0.09568291 0.25624743 0.4134092 0.51763546 -0.28128922 0.3732976 -0.55147535 -0.18030635 -0.42190567 0.34486657 -0.5412466 0.64902455 -0.2371978 -0.10180547 -0.7648423 0.5699649 -0.46717852 -0.24609892 -0.3279371 0.23533358 -0.7283273 0.33384943 -0.059124213 0.25736427 -0.17409913 -0.21048826 -0.34744787 -0.71537876 -0.14023228 -1.0596942 0.3520145 -0.6120489 0.7530666 0.44182053 -0.5256209 0.597107 0.32333878 -0.14595477 -0.49831438 -0.56595516 0.060250133 -0.17889358 0.24968664 0.00072419544 -0.24278377 -0.40532222 0.08551507 0.99628454 -0.9067799 -0.92634207 -0.6922615 -0.5020824 -0.8387396 0.90978885 -0.39917284 0.80689013 -0.4149623 -0.2949136 0.27489755 -0.34309778 0.32001966 -0.53726715 0.047522474 -0.5976905 0.5168888 -0.42205703 -0.28627363 0.28792778 -0.58356696 0.09807449 -0.24001954 0.35061294 -0.04035888 0.5725494 -0.31334293 -0.65181726 0.19994533 -0.82243717 0.5213625 -0.052998506 0.7506977 0.24199066 -0.64128935 0.0076291566 0.41127428 0.20260555 -0.3286245 -0.7212834 0.069238886 -0.8035287 -0.059925143 -0.6552598 -0.34762636 0.30037796 0.6104414 0.1517288 -0.01574863
23738 0.31112027 0.17857064 -0.15035263 -0.42268252 -0.32696393 0.31066757 -0.31850284 -0.0073070945 -0.26958168 -0.21074441 0.34724987 -0.045463577 -0.7285379 0.26283714 -0.3581149 -0.66612625 -0.15961692 0.25962913 -0.15822354 -0.058947954 -0.11485792 -0.21883865 0.7323144 -0.8782715 -0.7442536 -0.117818646 0.13063683 0.11548502 0.040149655 0.24563539 0.005022266 -0.09548082 0.21890223 0.79070544 0.07365951 -0.24418761 0.13425632 -0.04314139 -0.78259254 0.06390648 0.048949793 -0.24262725 -0.28863135 0.4773897 0.3078123 -0.6682833 0.8009453 0.16514128 0.23665217 -0.39892444 0.2022687 -0.61026305 -0.3129162 0.26990145 -0.47606423 -0.07589789 -1.0762687 -0.018184116 -0.49755996 -0.25798762 -0.40246925 0.19618645 -0.05238808 0.38217348 -0.12982026 -0.08870679 1.0390488 0.607601 0.11005953 0.3595004 -0.025318192 -0.4286867 -0.09558737 -0.24794538 -0.03237925 0.2035745 0.26019025 0.33198553 1.3096067 -0.12154118 -0.49725544 -0.64227057 -0.16546336 -0.13611996 0.5083868 -0.00961525 0.28657985 0.28016612 -0.23529139 0.5056376 -0.2712258 1.7582936 -1.0278002 0.7816791 -0.86860204 0.9655495 -1.2883275 -0.95223236 0.06038923 -0.2703245 0.3608838 -0.5327371 0.61605424 0.009757227 0.27756515 -0.24611378 0.17719373 0.3819643 0.060504824 -0.285494 -0.82537 0.025770899 0.6493424 -0.18222766 0.3999578 -0.320297 -0.2808101 -0.08747774 0.542636 -0.22105172 -0.5836197 -0.19028595 -0.3095565 -0.51638657 0.68368864 -0.041531596 -0.14723137 0.12371303
12350 -0.4291323 0.6296619 -0.4536325 0.061845228 -0.4599387 0.3992858 0.04596276 -0.20439568 0.41865093 0.048828438 0.20264938 0.023556678 0.08526707 0.156445 -0.23356287 -0.49007863 0.14990814 0.2301481 -0.037320156 -0.25283268 -0.257036 -0.13110907 0.30169284 -0.24394299 0.015010266 0.28300074 -0.0020611093 0.19023605 0.14476608 0.26904702 -0.34665626 -0.54752827 0.49026617 0.58139676 0.2621621 -0.45584625 0.17795998 -0.42590293 -0.47477415 -0.41638243 0.13864382 0.070603624 0.056036018 -0.70869285 0.047013305 -0.05990067 0.18632716 0.0926902 0.35572574 -0.16685602 -0.57283396 -0.8110861 0.66369754 0.25360274 -0.17942414 -0.3610322 -0.758406 -0.44701028 -0.34196824 -0.46805614 -0.66297764 0.22581086 -0.3639654 -0.0024588783 -0.39844567 -0.045480672 0.6374031 0.43889531 -0.09587134 -0.12753937 -0.24963447 0.12451463 0.13604286 -0.018877909 -0.29519573 -0.46845734 -0.123001106 0.026864758 0.8695338 0.12270883 -0.29451534 -1.1754909 -0.5584249 -0.3852249 0.40306532 -0.38191715 0.37783042 0.2910295 -0.4008461 -0.14345519 -0.019035466 0.3623481 -0.5824252 -0.17340067 -0.8146517 0.042931657 -0.2356063 -0.044130813 -0.40227574 -0.1973648 -0.1936979 -0.17148536 -0.2552083 0.26110485 0.25481293 -0.44372618 -0.4152232 0.453943 -0.4123497 0.4560278 -0.37540042 -0.3053323 0.24181792 -0.70625776 0.69770545 0.46658912 0.24880789 0.2797092 0.6258331 -0.20935512 -0.28943473 0.12650259 -0.08917392 -0.7421652 0.5599651 0.11216639 0.06756807 -0.35230318
35061 -0.18654169 0.49856183 0.28326395 -0.27792257 1.0796093 -0.23772436 -0.49054888 -0.12141607 0.33798772 -0.52064914 -0.65691483 -0.69654423 0.31615254 0.42870337 -0.6434217 0.47750607 0.6576363 0.199209 0.19109571 0.3551539 0.2155763 0.23362881 0.25638977 -0.6820234 -0.91827995 -0.4520967 0.19909497 0.46450046 0.5061732 0.37611294 -0.042170588 -0.35843724 0.62634945 0.57068425 0.033502407 0.05904601 -0.46444154 -0.54929084 -0.124372505 -0.058642052 0.44914657 0.7572826 -0.53324866 0.1845273 -0.39553228 -0.09811344 0.5278316 -0.6123348 0.19975704 -0.21114537 -0.0012869692 0.2602924 0.9177964 -0.6098302 0.8290978 0.10636958 -0.55459684 -0.07773231 -0.32252866 0.28926384 0.2234838 0.021263374 -0.5185688 0.10256067 -0.24612984 -1.0584927 1.2649751 0.41612566 -0.31693894 -0.20122828 -0.39150625 -0.053846687 -0.43081915 0.46818927 0.13928255 -0.80218977 0.13751124 -0.37603864 0.26158234 0.25093284 0.61332405 -0.5075115 -0.21780685 -0.3263159 -0.07961943 -0.63004905 0.5477265 -0.47449303 -0.45638317 -0.04643318 0.074068174 -0.36243182 0.31797227 0.47838223 0.2526233 0.2160258 -0.21456923 0.31789678 -0.594114 -0.4533818 0.04709863 0.7134402 -0.61152637 0.23408288 0.33116323 -0.53714234 -1.2181464 0.5013334 0.25774777 -0.19131784 -0.2656529 -0.612474 0.49106127 -0.72810966 0.028067786 0.36977047 0.27295682 0.47299972 0.3232726 0.3663192 -0.78528666 -0.19323006 -0.5435473 -0.38432366 0.26153898 -0.29080987 -0.5753012 0.7416313
44514 -0.30073437 0.86965376 -0.28167158 -0.4401724 0.7645576 -0.39048553 -0.096112296 -0.24887128 -0.12770289 -0.8251628 0.43984836 -0.86126804 0.17283142 0.54301995 -0.5443089 -0.58407855 0.3525643 0.36258128 0.44179505 -0.03801292 0.13304847 0.3945709 0.5576011 -1.1674749 -0.8904818 -0.24580516 0.20222358 0.65745825 0.2810187 0.32066035 0.5650736 -0.38214344 0.7003194 0.4540541 0.21150433 -0.19367254 -0.29317832 -0.043647207 -0.22346038 -0.099684626 0.64362395 0.17944221 0.20651977 0.24455361 -0.50056064 -0.7460164 0.8211705 -0.48886004 0.09452674 -0.06558667 0.025615606 0.55963874 1.0387993 -0.14170791 0.57678807 -0.30350935 0.00619848 -0.106464826 -0.46294057 -0.0661568 0.18617778 0.043271903 -0.05142573 -0.4924144 -0.43426725 -0.9597194 1.1248754 0.95113593 -0.7180425 -0.40979388 0.24487467 -0.035479166 -0.13513778 0.3052221 0.23935439 -1.0069671 0.06350015 -0.12607011 0.59388566 0.49667275 0.16970935 0.011527258 -0.105794296 -0.33405167 0.13974606 0.072876245 0.38883018 -0.013757363 -0.28027946 0.9294778 -0.057025347 -0.36975497 0.00420206 0.2806107 0.34514776 0.07523775 -0.515002 -0.060836364 -0.118821315 -0.02310052 0.33334342 0.41308805 -0.291154 0.2420939 0.34730503 -0.8258681 -1.1609325 0.60645676 0.06347347 0.049661666 -0.5087338 0.5894185 0.034762513 -0.21621574 -0.14622138 0.46006793 0.013708943 0.3333755 -0.4727688 0.11317794 -0.9937684 -0.4636372 -0.9690676 -0.325058 0.33788618 -0.013694482 -0.55083144 0.18618567
24966 -0.66782266 -0.6097925 -0.3029812 -0.12570572 0.17836261 0.02196559 -1.3232117 0.10199291 -0.81062543 -0.8795748 0.4422456 0.37009558 -0.0037178234 -0.5309794 -0.21943174 0.3327386 0.40310013 -1.0213361 0.6282128 -0.14620568 0.4109424 -1.2442962 -0.229653 -0.49041188 -0.38873062 0.22430834 0.30259547 0.14667003 -0.47535855 -0.3360224 -0.12740617 -0.64235014 0.44773167 -0.5189448 -0.33914787 -0.048278473 0.55952996 -0.4945165 -0.58216417 -0.6279932 -0.15172076 0.12594078 0.03524088 -0.17177935 0.79002947 -0.39525092 0.6966701 0.032686647 0.17211142 -1.1141158 -0.84763813 -0.051578507 -0.07843195 0.54187775 0.87665826 -0.28993908 -1.4085625 -0.46196195 -0.70138 0.6938147 -1.4943023 0.003292705 -0.86441743 0.56111044 -0.31513363 -0.50085574 0.69904745 0.53632647 0.08526619 -0.3518581 -1.2320065 0.5914115 -0.71232677 0.36360136 -0.014214373 0.17890576 0.055616643 -0.5863583 0.40345663 -0.92951906 0.19090487 -0.79645807 0.15540989 -0.33992922 -0.3987363 -0.40891847 0.8017379 -0.49333212 -0.02997847 0.6583052 -0.02143276 0.9820194 0.56546235 0.24030612 -0.25327507 0.9762019 -1.0294057 -0.067185715 -0.3669896 -0.9742937 0.47502995 -0.66762006 -0.12606837 0.37879094 0.37849683 -0.8312514 0.20264706 0.43643215 -0.50509155 -0.14507295 -0.76329815 0.38481176 0.7192805 0.56129515 -0.17248924 0.15633896 0.555533 0.61636907 0.8407555 0.1336769 0.71136487 -1.2073988 -0.6946213 -0.4855534 0.06815277 0.23431312 -0.72860897 -0.640562
36140 0.19367649 0.2686221 0.11692089 -0.41809398 -0.371854 -0.40089378 -0.06920151 -0.8612323 -0.46576542 0.26985517 0.1812633 0.019168697 -0.73809487 0.383835 -0.050755914 -0.33006957 0.5261729 0.14765328 -0.2998702 0.106237605 -0.11862785 -0.3313095 0.32319573 -0.09493997 -0.4518121 -0.4691869 0.41725358 0.6771041 0.42871937 0.635936 -0.19771767 -0.17339595 0.26474413 0.12818937 0.07723576 -0.35975465 -0.31609923 -0.41385907 -0.37778607 -0.023508832 0.31690687 -0.13835604 -0.8678873 0.24966043 0.34503672 -0.8036761 0.5379256 -0.092308365 0.38659337 -0.3039236 0.030364359 -0.24689092 0.060269564 -0.16224088 -0.22083482 0.17864439 -0.5123563 -0.00078612345 -0.48847863 -0.15438001 -0.7052111 0.6490481 0.10160021 0.23580317 -0.33026525 -0.13315947 1.1518376 -0.007665289 0.057070483 -0.09280289 -0.12726915 0.037790574 -0.20232396 0.25327668 0.23674513 -0.3346497 0.20845288 0.09439283 0.9474332 -0.35188133 -0.737926 -0.16531017 -0.075681835 -0.28541437 0.903985 0.13169159 0.4063858 -0.2524066 -0.3151945 -0.0046757357 0.021098744 0.7694515 -1.1359591 0.96873623 -0.42770824 0.33985692 -0.9506174 -0.7550017 -0.50180817 0.001687615 0.5974856 -0.91445094 0.40872112 0.13464311 0.58845425 -0.31568247 -0.4093964 0.2590893 -0.55193835 -0.6815706 -0.19570157 -0.2058909 1.0477023 0.16508025 0.1785163 -0.07297896 -0.20634545 -0.22388697 0.5628624 0.49833167 -0.5544131 0.006204961 0.009533144 -0.7782755 0.7795832 0.314368 -0.42555797 0.37052158
910 0.0072777835 0.24558674 -0.14457218 -0.6002944 0.65601444 0.26469144 -0.17877258 -0.46085295 -0.12885241 -0.1224771 0.0017263152 -0.22801277 0.09664577 -0.33983096 -0.80056196 -0.58990115 0.7563643 -0.5662308 0.005551923 0.13872018 -0.25362465 -0.56451935 -0.22456959 -0.7745542 -0.12453634 0.13441962 0.80717933 0.25218794 -0.15203081 0.36976755 -0.7087906 -0.84573835 0.64320135 0.075684644 0.42743438 -0.23461102 0.13529682 0.039716687 0.10810061 -0.29384303 0.7444988 0.4982378 -0.20845395 0.052350726 0.4242059 -0.11158045 0.43670866 0.15428674 -0.042588063 -0.7798869 0.15496196 0.023556156 0.7163156 0.12634839 0.39765793 0.14771405 0.08206718 -0.4712282 -0.105394445 -0.03483254 -0.31465888 0.43880183 0.17573087 0.83176637 0.47094175 -0.40511143 0.7090709 0.12278762 -0.15630427 -0.5432303 -1.1629616 0.32592094 0.3254016 0.45100448 0.046507493 -0.09147045 -0.088860884 0.3390691 0.44824848 -0.5489823 -0.3437201 -0.20905899 -0.6523879 -0.27727175 0.17018758 0.0018638879 0.38458398 -0.40865052 0.1900392 0.33136457 0.1252457 0.27729383 -0.42526126 0.5581973 -0.23721337 0.0875553 -0.79969764 -0.067178 -0.24244861 -0.6569816 0.6403521 -0.6568666 -0.73981315 0.67177296 0.90639067 0.0023789918 -0.029709151 -0.022635661 -0.56320715 0.4142801 -0.9317339 1.0683185 -0.09939556 0.06914793 -0.029601568 0.29943886 -0.7414302 -0.7522529 -0.08775407 -0.04860945 -0.671149 -0.06645579 -0.6027904 -0.12458785 0.7916408 0.61409616 0.024391765 -0.431068
198653 0.07541956 0.6865841 0.18964148 -0.4912629 -0.07131079 0.13033117 -0.05225951 -0.25321683 0.04924761 -0.5845682 -0.042874094 0.3649081 0.1551559 0.7343291 -0.05676295 -0.21601324 0.40811515 -0.1828145 0.6130208 -0.44256392 -0.3262926 -0.12519565 0.17226861 -0.8818916 -0.6086101 -0.31115183 0.35144937 0.3372826 0.74117935 0.065084375 -0.049893104 -0.63329005 0.43698153 -0.065613106 0.8582905 -0.54889005 -0.33614483 0.21763551 -0.55276823 -0.4269726 0.32883927 0.43594438 -0.58725095 0.3832543 0.5586008 -0.16280065 1.0910207 -0.53268236 0.30879882 -0.46457678 -0.73805106 0.72101295 1.4310328 -0.5897327 0.2589342 0.22006269 -0.6740948 0.1714717 -0.43518978 0.183965 -0.3864067 0.055196803 -0.023819031 0.15314187 -0.21955743 -0.7122012 1.191522 0.6631992 -0.59333605 -0.26404995 0.104048245 -0.0013396564 -0.3267614 0.16464362 -0.5043526 -1.2276828 0.07061393 -0.16628528 -0.080230355 0.54645115 0.39328864 0.08900079 -0.03195611 0.08027648 -0.097235866 0.21624786 0.73275286 -0.09294151 0.10236212 0.52068317 0.35283393 0.03503764 -0.092500046 1.0234458 0.06945542 -0.03026661 -0.2746936 -0.12904684 -0.92326564 -0.52689844 0.36154664 0.3611465 -0.65197325 0.2639337 0.68226105 -0.4556288 -1.4175003 -0.11636062 0.5407767 -0.2568908 -0.7444074 -0.28825077 -0.04767796 -0.20578398 0.10545967 0.11811279 -0.24553022 0.13929819 0.61093163 -0.2879831 -1.0895382 -0.057285387 -0.009888751 -0.1258394 0.07933397 -0.45774388 -0.5990525 -0.010240442
642621 0.046788577 0.8148243 0.5793394 -0.7591046 0.034460653 -0.31974435 -0.3383817 -1.3553838 0.4622744 0.37976378 -0.060859237 -0.9589313 -0.47239387 -0.09888122 -0.40940353 -0.2176918 -0.2272516 0.2626951 -0.22877197 -0.34936202 0.13170397 0.1694115 -0.57659143 0.37701496 0.05902693 -0.9958303 0.1440696 0.7926026 -0.06946722 1.3782406 -0.20228307 -0.29008076 0.1681857 0.8094451 0.5570324 -0.36508483 0.47641996 -0.8171316 -0.20294504 -0.08364565 0.19369371 -0.44148797 0.7548677 -0.273794 0.15565555 -0.5493595 0.24397857 -0.48075426 -0.23374513 -0.35922894 0.14349315 -0.71968687 -0.006578394 0.109067224 -0.09260512 -0.45699242 0.2607373 -0.36367726 -0.7209439 -0.32175636 -1.1587629 0.38521308 -0.571601 1.1206809 0.4810133 -0.96770996 0.40075013 0.2501624 -0.009179959 -0.47934535 -0.11089072 0.07853194 -0.03215378 0.3388258 -0.23543936 -0.27853778 -0.51821935 -0.2152707 0.9323354 -1.0563508 -1.2291678 -0.42232272 -0.5516036 -1.1778153 1.0560288 -0.020271564 0.6764404 -0.21661736 -0.13568246 0.09590808 -0.639084 0.90235513 -0.57000875 -0.13125482 -0.3842616 0.54688406 -0.12252444 -0.30781466 0.17132118 -0.744616 0.34836212 -0.20610976 -0.032486465 0.052509587 0.7145226 0.04288078 -0.5856221 0.5085465 -0.9251582 0.612971 0.083950475 0.77064884 -0.24147202 -0.72788143 0.031654134 0.3716689 -0.026310418 0.013509681 -0.89446604 -0.59695363 -1.1276033 0.45699263 -0.19643722 -0.15572329 0.32773933 0.6160213 0.19655949 -0.42504588
6184 0.05053557 0.1854039 -0.27472055 -0.2381201 -0.17076068 0.19512834 0.09246807 -0.23972918 -0.07793327 -0.2393263 0.2339653 0.9747519 -0.61800945 0.17022787 -0.42121494 -0.47838986 1.0972681 -0.54760325 0.091942735 -0.33111468 0.19465587 -0.51801723 -0.7499915 -0.42084175 -0.24717233 -0.20464186 0.9503267 1.2087774 0.3595088 -0.5609651 -0.37099183 -0.098344706 0.7335563 -0.00285537 -0.2383714 -0.34765595 -0.5817797 -0.1808587 -1.0588642 0.24330366 0.53036463 0.19100504 -1.2541221 0.018080149 0.36478066 -0.41171473 1.3952612 0.22585589 -0.028269257 -0.27478358 -0.8048839 -0.053098477 0.04151779 -0.21472177 -0.07278238 -0.25763926 -0.62638813 0.38743207 0.4805606 -0.080301456 0.050861403 0.2741396 -0.14726073 0.025565272 -0.34696323 -0.05204485 0.754026 0.5729768 -0.14859381 -0.098076686 -0.051251028 -0.1912096 -0.7221809 -0.37388504 -0.28210717 -0.41448033 0.45701298 0.06992118 0.68357563 -0.084345244 0.2574329 -0.37593815 0.29724124 0.05311547 -0.0775959 0.015285344 0.595768 -0.28371224 -0.21125816 -0.04551842 -0.38931066 0.77439445 0.14768212 0.71396846 -0.6151686 0.7271055 -1.0139703 -0.4157907 -0.35314888 -0.17013201 0.08511731 -0.71966547 0.2204405 0.3865599 -0.030696996 -0.81448704 -0.31339058 -0.28364286 -0.28381154 -0.703362 -0.82078093 -0.13683292 0.55562675 0.43663052 0.51090276 -0.027323715 -0.04293925 -0.34790367 0.7007008 -0.22262542 0.10957388 0.038970392 -0.61540014 -0.93550134 -0.025385255 -0.9639309 -0.0736885 -0.36184442
20193 1.1284467 0.2536454 0.14389528 -1.0966725 0.4356544 -0.7312537 0.6902701 -0.88886046 0.32585055 0.2315278 -0.6368745 -0.9657007 -0.8689718 0.23860085 -0.97115636 0.43911555 0.38932198 -0.88361984 -0.19586296 0.37500757 0.4470476 -0.51400375 0.049650274 -1.0276377 -0.42885372 -0.03600157 0.4971889 0.22790888 -0.36135054 0.23787324 -0.8031454 -0.3715361 0.9721233 0.7133643 0.044414394 -0.55864286 -0.12746786 -0.6524453 -0.4291103 -0.72083116 0.41008636 -0.048965413 0.0148499645 -1.0945629 0.58540595 0.27697468 1.1195178 0.43427062 0.64673793 -0.7612949 -1.0431395 -0.09374396 1.0415443 0.49250042 0.65546906 -0.15532283 -0.9207553 0.27084523 -1.2514819 0.16794655 0.4346137 -0.3409665 -0.6638674 0.55793655 -1.0465951 -0.73651445 0.56702936 0.84113294 -0.5539902 0.5251976 -0.43928963 0.2962892 0.2275181 0.23364797 -0.3001302 -0.0065070908 -0.5624746 0.54394585 0.49275705 0.56117857 -0.04186233 -0.78759897 -0.7391427 -0.58823377 -0.08619143 -0.65913033 0.65246785 -0.37295642 0.24498907 0.7736873 0.6016304 0.19260004 0.27333492 0.279511 -0.44724807 0.12871115 -0.051410172 -0.4136704 -0.0050558443 -0.27209935 0.05195099 -0.14381695 0.56496394 0.9228716 1.0208923 0.15245257 -0.23496534 0.58488196 0.19960362 0.043637544 -0.0052084643 -0.28655055 0.39847416 -0.30729735 0.43775585 -0.6071004 0.27316183 0.6709566 0.19759528 0.040399812 -0.40230614 0.44148803 1.1136563 -0.04732603 0.017697196 -0.6243515 0.15498492 0.67239565
10169 0.27837676 -0.2747593 0.38320887 -0.39492917 0.20978957 -0.19214064 -0.06636447 -0.23079984 -0.32889703 0.032247644 -0.059486583 0.33417526 0.24945378 0.25618365 0.14623277 -0.018759578 0.21458103 -0.31625012 -0.13779216 0.06567989 -0.010249521 0.4912602 0.0505454 0.095993 -0.18835433 0.21342197 -0.023369463 0.2954799 -0.09051907 -0.19335923 -0.19145985 0.2613642 0.720347 0.5409361 0.187625 -0.21156098 0.24777518 0.29161692 0.13399069 0.018746193 0.24478328 -0.26965627 0.098308556 -0.6139727 0.50589186 -0.90429217 1.0543691 -0.3517311 -0.13157278 -0.46244922 -0.38243675 -0.44857228 0.22558588 0.28645578 0.93419886 -0.16032833 -1.2926902 -0.39938077 -0.47593075 -0.27243152 -0.030640215 -0.14018789 -0.21573588 0.42725104 -0.3823468 -0.28906703 0.62239087 0.9392231 -0.18557484 -0.5214497 0.3397976 0.33820006 -0.48807853 0.25561547 0.120390914 -0.37467366 0.35754436 0.48925692 0.57160175 0.3057322 -0.17079306 -1.1581736 -0.48981622 -0.7931498 0.6690469 -0.26889285 0.25377727 -0.16837005 -0.33319852 -0.29865262 0.15692179 -0.18405722 -1.1913645 0.28975305 -1.0374324 -0.21549614 -0.128827 0.05803347 -0.23327684 -0.17764713 -0.1420489 -0.5106367 0.18618296 0.6853264 0.15683255 -0.09938973 0.3487537 0.07070851 -0.44333014 -0.6680385 -0.23095784 0.20081452 0.2977538 0.20217438 0.8636428 0.46808028 0.03882839 0.26314303 -0.1774235 1.127282 0.19518602 -0.28131548 -0.052291166 -0.86147815 0.34792954 -0.45947066 -0.3307215 0.35572764
