2708 128
15429 -0.121096425 -0.0028831782 -0.4311743 -0.04272673 -0.8823521 0.22879146 -0.8722989 -0.599917 -0.45513368 -0.110647246 0.04733851 -0.5537101 0.09150966 0.016052868 0.1322714 -0.1424715 0.5864554 0.27980542 0.010875328 -0.112266675 0.08673034 -0.0658618 0.763187 0.21704759 -0.4372483 -0.5153079 -0.0149625 -0.21628498 -0.22575781 0.14284673 -0.22951058 1.1391765 -0.20998335 0.30837288 0.10597775 0.26978138 0.23650609 0.35463122 0.7163557 0.97236216 -0.27811608 -0.39121273 -0.28357267 -1.0867088 -0.13784738 0.13460307 0.943557 0.03911017 -0.2585909 -0.788753 -0.012593574 0.100639574 -0.20702165 0.33219808 -0.2656849 -0.7700612 0.2960694 -0.68089265 -0.27344882 0.019392783 0.068008766 -0.544134 -0.3766602 0.34154296 0.24396282 -0.58822095 0.4019458 0.067335 -0.28335363 0.74736917 0.31710535 -0.15907168 -0.17037621 -0.46737698 -0.04972452 -0.18756694 0.49199077 0.24888794 0.34215474 0.46970114 -0.53667164 -0.3905422 -0.18272999 -0.12359431 0.26089048 -0.22528875 -0.18760648 0.2863049 -0.73814756 -0.7623069 0.15518759 -0.42021322 -0.39211652 -0.46027198 -0.48477286 0.37230712 0.004279592 -0.16449313 0.8108174 -0.070397094 0.024458075 0.14427163 0.25097695 -0.28116605 -0.69956714 0.12411621 0.024434447 0.052510012 -0.12727374 0.1583366 0.68181854 0.19799174 0.98866165 0.07298647 0.4709907 0.00659226 -0.2459585 -0.32209876 -0.1368704 0.27218994 0.76291585 0.7721543 0.07194318 -0.28303218 0.10450464 -0.51283854 0.17663094 0.37113926
10177 -0.12491602 -0.017501015 -0.45983517 -0.100218855 -0.929627 0.28984973 -0.88168496 -0.6579645 -0.42787075 -0.21064861 0.0670621 -0.63283855 0.015678015 -0.10521167 0.14618818 -0.084901355 0.5524922 0.31723216 0.08267754 -0.17705135 0.13729437 -0.078228384 0.85530454 0.19901155 -0.47108778 -0.56022483 0.021110943 -0.2104766 -0.18980353 0.089261435 -0.21659547 1.3285927 -0.17899993 0.18355596 0.05738181 0.24840672 0.26627606 0.23233268 0.638167 0.99478996 -0.23246595 -0.37644094 -0.24501422 -1.0100697 -0.12264772 0.08463432 0.9484975 0.016748386 -0.1954361 -0.7251382 -0.07885346 0.12962121 -0.18040194 0.2969099 -0.1331456 -0.67427313 0.1759485 -0.62627363 -0.25295964 -0.022821935 0.1182925 -0.5551565 -0.48435473 0.34140038 0.28868794 -0.6215285 0.4419835 0.08422325 -0.29042318 0.8052036 0.26686049 -0.109122224 -0.17807625 -0.42113346 -0.12701981 -0.19469088 0.4916146 0.2106516 0.38799033 0.5334874 -0.50852686 -0.47399175 -0.24075289 -0.10655403 0.33043873 -0.14098829 -0.1998131 0.34815568 -0.69703555 -0.8009339 0.23555423 -0.45837983 -0.4680218 -0.46763092 -0.4601526 0.35094377 0.03353936 -0.17176987 0.8060071 -0.04594914 -0.007990008 0.12679875 0.22462063 -0.33836594 -0.66847783 0.074388765 -0.037595328 0.019889204 -0.14855418 0.20687987 0.6609638 0.22411165 0.905439 0.07201629 0.4464864 0.09055611 -0.15983213 -0.35784674 -0.106612794 0.27953458 0.6695549 0.728927 0.03711792 -0.26925412 0.08843013 -0.50248575 0.2524656 0.37502903
6898 0.14681329 0.45365942 -0.4642727 -0.014235897 -0.5814388 0.20689707 -0.26187113 -0.7167851 -0.09691524 0.12257014 -0.48988104 0.024762655 -0.16106167 -0.08333601 0.5285646 -0.32040387 0.60309875 0.3158881 -0.58376104 0.47239134 -0.29914165 0.3959153 0.07783726 0.64682496 0.15760359 -0.36445788 0.13949168 -0.13821368 -0.26375905 0.1776586 -0.14964806 0.73742014 -0.111488976 0.19170359 0.20312335 0.8293799 0.5637751 -0.14379849 -0.47310075 0.40172774 -0.60730773 -0.3700187 0.87885296 -0.1471012 -0.033779092 -0.47655392 0.16120738 0.41053492 0.12680809 0.28681517 0.08340136 0.59515774 -0.08901241 0.08141174 -0.3061325 -0.39554176 0.1737034 -0.55082285 0.04547485 -0.12076775 -0.34346464 -1.0880064 -0.22248946 0.36885846 0.46995753 -0.31741577 0.27497938 0.32521182 0.23781708 -0.24729224 -0.04641794 0.03170487 -0.019038435 -0.66307604 0.42489228 0.763132 -0.0906061 -0.04456496 0.012411408 -0.49664354 -0.84647036 -0.19330102 -0.11387333 -0.28889763 0.45561048 -0.08228651 -0.2427333 0.47444844 -0.21543239 -0.7557961 0.82502824 -0.84663785 0.18924214 -0.22494775 -1.0297707 0.26071188 -0.3017067 -0.9608504 0.18113093 0.23780546 0.038882 -0.18378007 -0.38495004 -0.08515785 -0.18107703 -0.0896346 0.060536485 -0.35898536 -0.57386 0.31107715 0.5212423 0.30620104 -0.06416593 -0.14252874 0.11770411 -0.40018514 -0.17998746 -0.2203814 0.24082902 -0.5233072 0.29192546 0.49718297 0.027997797 0.36325487 0.30657467 -0.09439839 0.094314754 0.53147876
2696 -0.32892883 -0.8872446 -0.7670759 -0.0748149 -0.73253804 0.3776281 -0.36826286 -0.84003496 -0.7674165 0.66065145 -0.3771399 -0.5204166 0.31213343 0.6951425 0.77532274 0.13571192 1.0711682 0.72242874 -0.1518556 0.52824235 0.011240456 -0.04044962 0.48783705 0.8107164 -0.010848315 -0.27619147 -0.62750834 0.1532748 -0.0023433068 0.08002217 -0.15490322 0.72111803 0.15676713 0.48985246 0.08494511 1.0993155 0.57976997 0.6427829 0.010458911 -0.3405644 -0.36390233 -0.35782722 0.22974363 0.30289078 0.39912644 -0.18122989 -0.09968706 0.38865298 0.352405 0.095611535 0.16468218 0.28214774 -0.16578035 0.24288037 -0.2668517 -0.20534171 0.7767957 -0.48659775 -0.71660167 0.0582961 -0.3147088 -0.8389006 0.08265746 0.020246362 0.45814696 -0.44212222 -0.43266296 0.040678564 0.23557456 0.41061103 0.09649283 -0.9935646 -0.3583427 -0.90974504 0.11674069 0.0352373 0.19164649 -0.27424085 -0.2997946 0.43087006 -0.06024272 -0.09009627 0.043459263 0.2356503 0.035038732 -0.46508262 -0.3569678 0.19765756 0.061112326 -1.3792069 0.8065763 0.067551926 -0.6928729 0.47417542 -0.71579367 0.030131605 -0.41702515 -0.3618533 -0.29360408 -0.26942906 -0.17413694 0.15898807 0.42584136 0.05448056 0.1228528 0.03669505 0.26579213 -0.56944895 0.20771313 0.8599863 0.69770765 0.41443527 0.63403064 0.27163556 0.25918758 -0.18704475 0.33713892 -0.012065555 0.20462875 0.23371877 0.68566227 0.23290443 -0.40965885 0.6808279 -0.11712098 -0.04292377 0.4541489 0.18853533
5348 -0.34560984 -0.912716 -0.78866494 -0.05838315 -0.7324262 0.35233417 -0.3534858 -0.748253 -0.71204627 0.64970785 -0.3555329 -0.46986198 0.27687517 0.6767474 0.80582184 0.07541544 1.0220312 0.7002759 -0.18998444 0.4915015 -0.05353446 -0.010469855 0.5463689 0.80311906 -0.06981673 -0.31655094 -0.6361051 0.15484725 -0.089664385 0.04353467 -0.19284616 0.73026234 0.21365847 0.54210496 0.110721804 1.0442632 0.5756245 0.72398806 0.017319586 -0.31159514 -0.355909 -0.29579592 0.27570304 0.3169117 0.39126036 -0.1969925 -0.111240245 0.46216574 0.47207788 0.10029463 0.21849236 0.18759297 -0.1737039 0.2618749 -0.25342852 -0.2101165 0.73976463 -0.53439337 -0.72457033 0.08907726 -0.3375923 -0.69965714 -0.0050368896 -0.06075331 0.47455844 -0.3752336 -0.37955844 -0.029179357 0.18607415 0.49477077 0.17665368 -0.95408744 -0.37168238 -0.91588557 0.18033914 0.0922092 0.16675133 -0.353983 -0.22461663 0.43943116 -0.039532132 -0.06959308 0.097372 0.18500617 0.06308471 -0.54029506 -0.36287618 0.20655374 0.10069784 -1.3090442 0.8072339 0.069419526 -0.73750615 0.41816944 -0.7437987 -0.0005188917 -0.39670002 -0.42616326 -0.29309618 -0.30671048 -0.1546405 0.2071883 0.46447155 0.05196178 0.1041379 0.06150049 0.29273868 -0.5858072 0.21160883 0.9311017 0.63701206 0.44594413 0.57400936 0.25498596 0.336878 -0.24044856 0.27222177 -0.086245485 0.16017903 0.22973825 0.7145091 0.3518765 -0.47764033 0.6272064 -0.029059641 -0.10114137 0.47580907 0.18871242
12631 0.04513681 0.4112429 -0.3866311 0.018283809 -0.54060525 0.21562183 -0.24521336 -0.67509824 -0.13353114 0.11658939 -0.42077422 0.050082996 -0.1937611 -0.074713394 0.64483696 -0.2900985 0.45295015 0.2925685 -0.5455597 0.43796983 -0.2190518 0.36303106 0.12957114 0.58909965 0.14307314 -0.3488169 0.16188459 -0.13468255 -0.1554253 0.080122896 -0.022299776 0.74204385 -0.17130546 0.19535267 0.10020709 0.823949 0.5360514 -0.2091238 -0.37501317 0.49116915 -0.5716783 -0.36841977 0.8020372 -0.11627463 -0.09472866 -0.45837584 0.17099905 0.39672026 0.16175744 0.38757983 0.035754897 0.6439028 -0.031269938 0.0819822 -0.32796896 -0.30070913 0.23735967 -0.59707433 0.039285034 -0.06199448 -0.42269385 -1.0904627 -0.15496032 0.38908866 0.49624065 -0.24044316 0.26436517 0.32218015 0.28736293 -0.19580597 -0.015917026 0.04061069 -0.04232042 -0.66599834 0.35805228 0.74851334 -0.010953638 -0.105822556 0.034234874 -0.46682313 -0.7943968 -0.21469691 -0.10781758 -0.26261187 0.42236444 -0.0420526 -0.2802699 0.43739662 -0.2889918 -0.77420837 0.82450706 -0.8497435 0.18825336 -0.2884645 -0.98885083 0.23825407 -0.3558069 -0.9451045 0.26508808 0.24770863 -0.004719548 -0.21166539 -0.38570935 -0.0655043 -0.22864273 -0.13681872 0.059581097 -0.42562953 -0.6883311 0.3580409 0.5980797 0.31979996 -0.05647829 -0.12721223 0.11919828 -0.45327416 -0.28839135 -0.30588228 0.22362617 -0.56461674 0.36043233 0.47292152 0.115471154 0.3015788 0.41751647 -0.11875097 0.03418306 0.56900847
31353 0.040981956 -0.55291605 -0.46148503 0.053922664 -0.81299436 0.21669927 -0.7453546 -0.84467137 -0.42208907 0.044761304 -0.64551723 -0.6401225 0.80302095 -0.4184975 0.30599022 -0.15905766 0.20894302 0.045242686 0.005573041 -0.11229323 -0.8760641 -0.060131658 0.45097125 -0.14647932 0.41709095 0.7427392 0.18087864 -0.025100207 -0.13820602 0.17133278 -0.37053156 0.97889936 0.2101611 0.8243882 0.04067495 0.38554356 0.6874268 -0.027980395 0.8628469 0.86673236 0.052674416 -0.19788845 -0.054142036 -0.14273918 -0.42447552 -0.00027699396 0.616951 0.19577572 -0.5021136 -0.40513104 0.39256 0.35857135 -0.10177677 0.03541872 0.24193192 0.028252559 0.1580225 -0.42205504 -0.62779164 -0.6807049 0.12332509 -1.0930389 0.37600207 0.3926533 0.7765578 -0.31215543 0.06465484 0.013491002 0.29451105 0.5079078 -0.25866887 0.13110858 -0.45527 0.07892824 -0.38660455 0.046169695 0.29813388 -0.2173086 0.7995383 0.41371948 -0.33955202 -0.24388954 -0.2633246 -0.46790108 0.77714884 -0.67652726 0.44115537 0.47987098 -0.10054455 -1.2742472 0.052343875 -0.20209312 -0.29313338 -1.129283 0.07244377 -0.061342236 0.07482837 -0.31440538 -0.19428277 0.5839457 0.27646562 -0.20559967 0.48454842 -0.50208527 0.5649495 -0.32348165 -0.42233306 -0.6869106 -0.19447252 0.7954765 0.4515534 0.83980405 0.6277216 0.38160336 -0.07631019 -0.16026716 0.560931 -0.07808631 0.7258576 -0.21007977 0.5461642 0.022095554 -0.81804043 0.6704141 -0.61099726 -0.31320158 0.03642413 0.13397467
10531 0.14213815 -0.60277385 -0.4645592 0.088523574 -0.8647748 0.14393932 -0.8459265 -0.8747445 -0.3964918 0.05859396 -0.6928497 -0.69002056 0.95360076 -0.40558136 0.27537882 -0.1636253 0.1492722 0.035047017 0.016166724 -0.0719928 -0.93080324 -0.12069345 0.45711505 -0.22133015 0.4368802 0.8205939 0.2668453 -0.053143412 -0.20193343 0.2677435 -0.38719374 1.0192804 0.20670669 0.7881561 -0.024086436 0.4126452 0.61949295 0.011948351 0.91315466 0.9346227 0.06580465 -0.2149232 -0.111804746 -0.1664239 -0.44796792 0.04609433 0.5932459 0.20525463 -0.5125459 -0.39230713 0.44794375 0.3492405 -0.10904933 -0.017916746 0.18449497 0.10137457 0.15580027 -0.4278067 -0.60677433 -0.6733521 0.16950327 -1.0707139 0.3642557 0.40098014 0.78947824 -0.2687316 0.094980754 0.0430047 0.2883478 0.4848838 -0.31496045 0.12260275 -0.4329564 0.08043407 -0.36673436 0.13004258 0.3000248 -0.16626781 0.75022423 0.34499675 -0.31431136 -0.33671334 -0.25694343 -0.424492 0.76829886 -0.6086614 0.42867205 0.47131792 -0.15653801 -1.2784725 0.019566752 -0.21438302 -0.31369755 -1.1070418 0.102342926 -0.039690446 0.055842586 -0.36383495 -0.21666776 0.5614416 0.20520593 -0.2215015 0.49324802 -0.45940945 0.5107797 -0.3242435 -0.34811494 -0.68476135 -0.23989247 0.71011114 0.41765615 0.74958444 0.5788455 0.37918866 -0.022335572 -0.2072593 0.4934587 -0.04267087 0.7617289 -0.29500982 0.54011637 0.014033714 -0.7364867 0.5866031 -0.51182115 -0.29061663 0.08670684 0.15797056
58758 -0.12856993 -0.9441599 -1.0126182 -0.95875484 -1.2390243 -0.7414997 -0.47382432 -0.6001323 -1.2479638 -0.18159167 -0.10376815 -0.51478267 0.8214554 0.5211975 -0.14316934 -0.03269505 0.07487066 0.7381623 -0.29358283 0.024864195 -0.45846766 0.0746214 0.44077727 -0.2272362 0.01138357 0.031181317 -0.5381558 0.27004182 -0.057316583 0.09233681 -0.1087984 0.97728556 0.1419833 0.6677904 0.022575691 0.36472306 0.72448665 0.7862915 0.84823716 0.7974086 0.0031540142 -0.055756636 -0.39798665 0.38497433 -0.40560523 0.13156044 0.41768393 -0.85287035 -0.18557088 0.22821513 0.33877212 0.21105015 -0.7694323 0.15462655 -0.23274803 -0.2555809 0.25240645 0.019056946 -0.87629336 -0.35811055 -0.15310249 -0.18583573 0.10572484 0.27544564 0.5654021 0.008196687 0.39644164 -0.21169996 0.58004165 0.54705113 0.21837403 -0.88797504 -0.9875167 -0.49754184 -0.5272059 -0.4692348 0.5056187 -0.43982914 0.64517474 0.8932298 -0.3966073 -0.12882215 -0.622053 0.58389723 -0.01632311 0.17517184 -0.32098138 -0.1517351 -0.45665488 -0.68521726 -0.20937012 0.31765366 -1.478744 0.15910478 -0.077884495 -0.06376145 0.2002397 0.5310499 -0.08699847 0.03724608 0.668803 0.07107589 0.8663221 -0.06689836 0.20770444 -0.07097973 0.04851199 -0.68894035 0.031340126 0.056566175 0.62606347 0.67167205 1.0925515 0.32434207 0.73539627 0.28380603 0.07975086 0.5064837 -0.025079966 0.05366233 0.3735924 0.32186878 -0.19953413 0.72687966 0.10643632 -0.66608655 0.7286417 -0.12593906
576973 -0.07244104 -0.9761689 -1.0625129 -1.0736645 -1.3590595 -0.7393132 -0.59563726 -0.61574394 -1.330809 -0.11750429 -0.084724054 -0.55449826 0.77676183 0.65415204 -0.23494782 -0.08095955 0.103903286 0.77942383 -0.29069605 0.16378252 -0.40808883 0.12759912 0.5268558 -0.08191117 -0.045706816 -0.0018554551 -0.68728125 0.2356059 -0.116555475 0.19275956 -0.15518512 1.0662676 0.16514613 0.5507158 -0.008781892 0.41264284 0.60761034 0.8225331 0.8544542 0.7156323 -0.08204975 -0.08713114 -0.32970938 0.32506967 -0.39857617 0.19216576 0.3712774 -0.77126175 -0.19028859 0.2123243 0.24091858 0.25905895 -0.7850842 0.08582921 -0.27830154 -0.25882176 0.2198878 -0.05251564 -0.82833254 -0.3102466 -0.18017338 -0.19056801 0.10274598 0.22268526 0.4824827 -0.008849877 0.42033026 -0.19753994 0.49983823 0.5454407 0.15900354 -0.88747627 -1.0258731 -0.38111228 -0.5025129 -0.54217887 0.5910555 -0.3907041 0.74213713 0.86113673 -0.36644885 -0.17064025 -0.6715093 0.51540816 0.06286427 0.17105532 -0.35870713 -0.17151865 -0.50537753 -0.7001727 -0.20784457 0.2954118 -1.4889528 0.1638251 0.0010239842 -0.028972724 0.30227455 0.5715496 -0.048541047 -0.03176052 0.6483323 0.035886597 0.81897646 -0.026901007 0.17885026 0.037427388 0.04772564 -0.68415743 -0.028738083 0.038089395 0.5187015 0.559895 1.0539162 0.42237025 0.772816 0.20437782 0.028555743 0.53705806 -0.06290544 0.09284321 0.4076058 0.35569316 -0.19334067 0.60968024 0.1197041 -0.60002023 0.7729608 -0.15664646
123556 0.22792298 0.45660797 0.18539742 -0.83289033 -1.0722818 -0.6757166 -0.7140682 -0.57715845 -0.6757369 0.37093088 0.24234751 -0.49784005 0.09623177 0.36790696 -0.4455503 -0.6291186 0.82900697 -0.1404678 0.12538517 0.24063091 0.34218162 0.33899745 0.2867445 0.58592016 -0.17431019 0.06980365 -0.16249944 -0.40018606 -0.47471055 0.61066043 0.17213419 0.69087917 0.03770703 -0.36668658 0.12387919 0.87335795 0.49849066 0.48986977 1.0585358 0.83663285 -0.2658309 -0.46666458 -0.11084048 -0.09471151 -0.6094733 0.67318517 0.47390616 -0.2052094 -0.30283925 0.12513995 0.59868395 0.3680457 -0.6340152 -0.14028738 -0.8244797 -0.5181193 0.37922168 -0.93845356 -0.38209417 -0.064330466 -0.53880423 -0.7067595 -0.12615798 -0.0452145 1.4532772 -0.059206028 0.7791068 -0.1555938 0.11178452 0.30649117 -0.0720669 -0.43260598 -0.50583494 -0.10649736 -0.001698407 -0.019172743 0.33122072 -0.008878756 0.32820886 -0.19323727 -0.88359845 -0.5661468 -0.021974888 -0.5012348 0.81516415 -0.1995593 -0.18803333 0.622793 -0.81490105 -0.92331964 0.4932218 -0.54829586 -0.16257946 -1.0216188 -0.5853944 -0.2243876 0.35387984 0.051713344 -0.2595239 -0.25585547 0.36591855 -0.68151224 0.5896109 -0.32750776 0.5860214 0.08490614 0.19216946 -0.59371 -0.20293862 -0.23202774 -0.21715504 0.13071226 0.32999986 0.19192505 0.6444632 -0.30643296 -0.17476387 0.7944791 0.4891475 -0.26757997 0.48795292 0.65118533 0.5218372 0.32064855 0.27563533 -0.22591427 -0.16711703 0.7221484
50354 0.10739984 0.37058192 0.2454773 -0.7885681 -1.0470774 -0.6094337 -0.7184987 -0.6011758 -0.6166825 0.44887927 0.1277404 -0.54657483 0.024182575 0.3063251 -0.38715187 -0.6839104 0.84776056 -0.1409103 0.18532875 0.24652328 0.38361642 0.27342695 0.2747678 0.5901336 -0.08660276 0.101571664 -0.09514808 -0.55234414 -0.4678117 0.59208685 0.034564022 0.6303724 0.07339661 -0.39914012 0.119448714 0.9445467 0.53053194 0.4860933 1.1070213 0.8150155 -0.16879493 -0.4197923 -0.01618811 -0.07491369 -0.5365945 0.6365031 0.4357956 -0.15641588 -0.39502743 0.14952096 0.6582968 0.41287094 -0.6673108 -0.09168586 -0.8331533 -0.46960646 0.37050232 -0.90279967 -0.40633538 -0.12632199 -0.37301037 -0.7798846 -0.04121014 -0.102475934 1.438203 -0.015158416 0.73919594 -0.17958991 0.14376271 0.38317218 -0.14921129 -0.39510944 -0.5400345 -0.11493657 0.023830615 -0.013655893 0.34809437 -0.027181737 0.2687132 -0.13929035 -0.73511267 -0.56019926 -0.024008041 -0.5447423 0.89961964 -0.25453296 -0.10948888 0.6336163 -0.74552405 -0.95235074 0.52979773 -0.5885383 -0.21539149 -0.99482566 -0.52303106 -0.16283712 0.2735359 0.15071277 -0.230584 -0.21872848 0.32234034 -0.6546051 0.53785235 -0.4722954 0.60456187 0.05669819 0.11964534 -0.4399511 -0.2211818 -0.17148004 -0.23614797 0.2227218 0.3018933 0.21696398 0.52197224 -0.31836802 -0.07297624 0.7098204 0.5241739 -0.26573247 0.5337144 0.6937612 0.45680884 0.22733283 0.33724877 -0.099627644 -0.04692243 0.7311092
12638 0.08336939 0.4491315 -0.3135927 0.16460335 -0.57973623 0.25843683 -0.21942577 -0.71335065 -0.038739603 0.07141487 -0.4096072 -0.028087333 -0.2391491 -0.10082392 0.63953847 -0.30625176 0.56124413 0.2422154 -0.49041793 0.4817764 -0.22024652 0.32904717 0.17987433 0.68964434 0.15720208 -0.31307468 0.16102444 -0.24516688 -0.14850329 0.116311595 -0.106059134 0.6900173 -0.050655197 0.20011608 0.12573873 0.77093047 0.49776125 -0.123411804 -0.34933802 0.35595754 -0.5162781 -0.3676666 0.8110569 -0.12327531 -0.035015788 -0.43989295 0.091300584 0.43794143 0.09056287 0.305226 0.026824944 0.5343723 -0.067249455 0.06405542 -0.2783542 -0.30193508 0.26276186 -0.56776685 0.10776799 -0.06983365 -0.39731643 -1.0562571 -0.1518818 0.32549536 0.4858347 -0.32771686 0.34615657 0.40769032 0.31449902 -0.26149097 0.083878696 -0.07014823 -0.028497279 -0.61407524 0.42038038 0.733645 -0.036019508 -0.11949496 0.014017893 -0.46808213 -0.8069131 -0.18428534 -0.027136218 -0.29967773 0.40911454 -0.08093424 -0.22567464 0.38996986 -0.25820398 -0.82034373 0.8928122 -0.7731704 0.20520093 -0.107645944 -0.9878275 0.25713688 -0.3039921 -0.9497584 0.14294633 0.21974419 0.08456664 -0.22592655 -0.3463976 -0.047653083 -0.22837587 -0.17707205 0.10046746 -0.43106765 -0.6307269 0.3670092 0.57878464 0.25131652 -0.080129996 -0.1723393 0.18435399 -0.49092627 -0.22158174 -0.3313419 0.23790808 -0.6110413 0.4364567 0.5079094 0.050092373 0.43897554 0.32535735 -0.15076193 -0.008052926 0.6212675
124224 0.08035911 0.43394727 -0.42519143 0.06748277 -0.5842027 0.18065704 -0.28159243 -0.6451805 -0.013314527 0.09816704 -0.36212578 0.036382243 -0.22666432 -0.0813948 0.56328434 -0.30796072 0.5508236 0.30787313 -0.5220675 0.48405075 -0.21588032 0.32763955 0.13199534 0.65056366 0.15596925 -0.29184368 0.11442362 -0.2064563 -0.18321149 0.1011902 -0.013341962 0.68445474 -0.12729667 0.20907483 0.17507485 0.7437258 0.48221737 -0.13698243 -0.35365126 0.40046707 -0.5890787 -0.37604007 0.8259482 -0.07738801 -0.0553672 -0.50398326 0.13313554 0.3201717 0.11868853 0.31520194 -0.0004660886 0.58414483 -0.037430815 0.08060429 -0.38770488 -0.32478777 0.18726973 -0.56625205 0.013237856 -0.08266218 -0.42172262 -1.1147577 -0.18463542 0.34212413 0.4693276 -0.2796123 0.26433966 0.2762608 0.29482603 -0.20195743 -0.00438196 -0.072831586 -0.05437477 -0.68940175 0.37206376 0.77672684 -0.04952187 -0.10833158 -0.061549753 -0.47683188 -0.8295286 -0.21660312 -0.08992203 -0.26471546 0.36396226 -0.059170038 -0.27464682 0.46893534 -0.29916665 -0.7498828 0.8279357 -0.82820994 0.22482577 -0.22199407 -1.0247374 0.27612635 -0.34512058 -0.9911777 0.18622047 0.22979711 0.035079435 -0.19219233 -0.38610882 -0.033123184 -0.16793953 -0.09974783 0.08344489 -0.44989598 -0.67230546 0.39563945 0.57478917 0.27525705 -0.111781694 -0.17992625 0.17456548 -0.42285755 -0.28756192 -0.318256 0.25159675 -0.5774341 0.35670787 0.46912032 0.0988208 0.33835137 0.37062666 -0.08206812 -0.036357075 0.55974996
35 0.27650407 -0.62579656 -0.83126676 -0.63094014 -0.93427163 -0.31148508 -0.33610645 -0.4532626 -0.3566704 0.3937794 -0.44050577 -0.36270893 0.5900868 0.5314083 0.47828066 -0.37121525 0.6498245 -0.17268585 -0.2541795 0.23464763 0.12084939 0.09047706 0.07377117 0.37764737 0.32082194 -0.14600582 0.1450945 -0.33594128 -0.5438867 0.5344065 0.11992566 0.5301007 -0.33215302 0.48150113 -0.50526047 0.3061097 -0.15237845 0.057163592 0.769469 0.78741777 -0.29443547 -0.79451525 0.21610245 -0.58793783 0.6457071 -0.029160805 -0.25357518 -0.12843738 0.28334087 0.14672588 -0.319334 0.08063744 0.08016849 0.09234104 -0.38939366 0.035577685 0.16432352 -0.06106715 0.23183921 -0.5892585 -0.35070038 -0.47311106 -0.5368958 0.39076823 1.0744213 -0.3957767 0.0041320827 0.23672138 0.628689 0.07645389 -0.25243354 -0.25022826 -0.63977355 0.12241387 -0.20122315 -0.41393653 0.39049387 0.31844643 -0.03437237 -0.4112759 -0.7358679 0.026754955 0.19821607 0.8826554 0.68926185 0.26386237 0.1143665 0.0870745 0.1436729 0.18384174 0.044140838 -0.40199274 0.04431466 -0.16488214 -0.13871622 -0.064866535 -0.1751452 -0.040818006 -0.41665763 0.21204098 0.4570563 -0.35294703 0.41784778 -0.942916 0.15002385 0.38729686 -0.71523196 -0.4010828 -0.128211 -0.027437158 0.72081035 0.0038075903 0.24729507 -0.43321604 -0.26698357 -0.04080305 0.25508565 0.19897932 -0.21679883 -0.38747457 0.68849766 -0.034166414 -0.14985916 0.31598735 0.5452289 -0.23997127 0.30300897 -0.1706219
11339 0.21482588 -0.36663762 -0.85452735 -0.58499694 -0.4344739 -0.3020033 -0.14578679 -0.5793312 -0.46341196 0.78194284 -1.4535326 0.863754 0.6661998 -0.52904665 0.68404657 -0.21582513 0.55702966 0.30235073 -0.77048975 0.93049294 -0.51763827 0.3705596 0.37175977 0.034502327 0.124331094 -0.563307 -0.17386162 0.06259782 -0.35489202 0.7740919 -0.5265401 0.43795064 -0.11695999 0.3438469 0.70448613 -0.08570232 0.7196184 -0.0022881662 -0.21397282 0.6779772 0.08794405 -0.007613599 0.68072426 -0.022172784 0.034581967 -1.080206 0.20261768 -0.15892975 0.73401105 0.68757296 0.14705485 0.8079811 -0.21446624 -0.038231306 -0.5709575 -0.4842692 0.003569824 -0.31641242 -0.85119647 -0.5131963 -0.18834092 -0.5091377 0.20693277 0.808769 1.1250554 -0.7830868 -0.062354557 0.23921335 0.9392477 0.018896718 0.35644647 -0.1072853 -0.086705945 -0.6088474 -0.058608655 -0.40433624 -0.8896636 -0.06746908 0.12491162 0.2111103 -0.5089816 0.24118309 -0.25847566 0.5867695 0.26616588 -0.14633152 -0.4499927 1.0127609 0.008247777 -0.6877698 -0.18867896 -0.66991764 -0.9597619 -0.15020344 -0.8281907 -0.3776436 -0.16548473 -1.1592635 -0.18481216 0.8155744 -0.047243595 0.06971485 -0.12222867 -0.14659187 0.56951094 -0.121961385 0.382282 -0.26877198 -0.3901893 0.8747066 0.657042 0.36844552 0.26620555 -0.6539974 0.7048181 0.2242107 -0.26713368 -0.15430334 0.8355975 -0.6888228 0.64057225 -0.047174938 -0.4376345 0.6286066 0.07694468 -0.07539241 0.9751493 0.8484066
11326 0.2089554 -0.37505648 -0.85759634 -0.55814946 -0.36689252 -0.25311127 -0.12308518 -0.53633 -0.60288763 0.8522734 -1.4608897 0.8931748 0.5601527 -0.415917 0.5459101 -0.19446279 0.58391756 0.28265232 -0.80619305 0.94714564 -0.41734123 0.35382748 0.32376042 0.11621661 0.06342593 -0.6564709 -0.2723284 0.02569758 -0.37252274 0.74191225 -0.56245726 0.4404924 -0.1562851 0.28200886 0.6857067 -0.05409505 0.68006855 0.078797765 -0.12980385 0.6745596 0.15361767 0.02072302 0.57096726 -0.093355484 0.0075604734 -1.1045705 0.1814196 -0.13620846 0.82846117 0.7249224 0.189773 0.7823743 -0.283413 -0.040758725 -0.6272391 -0.46946898 0.018865494 -0.39971888 -0.87762845 -0.43752348 -0.17575814 -0.46142554 0.1755304 0.775356 1.1580406 -0.80719113 -0.020422189 0.268685 0.9400739 0.090872765 0.34182093 -0.1481716 -0.14161031 -0.59186053 0.030707706 -0.3936192 -0.88500446 -0.04146522 0.0705685 0.31124285 -0.44753593 0.17064089 -0.21883173 0.5938979 0.27184433 -0.1125347 -0.5340592 0.9576074 0.09787805 -0.7831323 -0.22592464 -0.62919253 -0.988471 -0.13667764 -0.8676412 -0.376324 -0.23059787 -1.053387 -0.21242961 0.7604637 -0.11348377 0.053059246 -0.026230283 -0.13582155 0.5303929 -0.06041454 0.38305068 -0.2076093 -0.32882667 0.8932399 0.6512535 0.3140298 0.28333798 -0.5627444 0.7345129 0.29488462 -0.27494344 -0.06816445 0.83822703 -0.6627876 0.7064894 -0.0045629293 -0.5094719 0.58249485 0.14672661 -0.21090183 1.0442936 0.89610875
643221 -0.08184784 -0.4877867 -0.5536943 -0.31439126 -0.949932 0.60846484 -0.15161438 -0.8895982 -1.0365517 -0.0434289 -0.5223295 -0.118537895 0.08309791 0.32879 -0.21178599 0.099555455 0.5303647 0.1947408 -0.69337726 0.042951785 -0.42205116 0.15858372 0.02910999 0.32622007 -0.34474224 -0.40310615 -0.033472553 0.042549178 -0.23370439 -0.08157814 -0.5312976 0.81939745 -0.26010695 0.22489691 -0.008461465 0.5497316 0.7762548 -0.022380296 1.0328164 0.44144008 -0.48028928 -0.29393908 0.07187998 0.2479483 -0.8393546 -0.30104783 0.032227006 0.28514236 -0.06386991 0.46453413 -0.031696744 0.25086316 -0.4121017 0.1895205 -0.3586517 0.117689535 0.1913296 -0.3543337 -0.6666141 -0.20517668 -0.15374397 -0.38499203 -0.071730845 0.02964326 0.6336535 -0.10354969 0.68303484 0.8258668 0.28183785 0.1323621 -0.118859336 -0.68251973 -0.45234877 0.02501397 0.07841465 0.4897556 -0.3752194 -0.11065136 0.08558925 0.3118532 -0.9804767 -0.70429987 -0.43407556 -0.4113662 0.25920314 -0.06828401 -0.19465515 -0.1353419 -0.03969527 -1.3592907 0.08956071 0.029860778 -0.32389516 0.351324 -0.9921264 -0.06282615 -0.53244144 -0.102008715 0.16075097 -0.110169806 -0.17583513 -0.14321706 0.44098273 -0.065083735 -0.35819045 0.11404003 0.051843308 -0.22233099 -0.44586223 0.54824775 0.71133393 0.049890827 0.41378525 0.5917626 0.60241395 -0.32299817 -0.3422999 0.35110572 0.3122768 -0.084826574 0.6452352 0.5396692 -0.26168397 0.11527231 0.38733947 -0.5996574 0.83029884 0.6874036
210871 0.3749496 -0.29620183 -0.8751576 -0.3466463 -0.6211314 -0.4700997 -0.5547796 -0.36660072 -0.21801873 0.5630783 -0.40421548 -0.3281575 0.72090405 0.607177 0.29111603 -0.40445012 0.7365836 -0.019619362 -0.2816694 0.26430413 0.24253513 0.1298377 -0.04714792 0.1825146 0.2573034 0.19683142 0.037716396 -0.13450053 -0.5872367 0.17934129 0.42580104 0.60591555 -0.3712338 0.45463586 -0.23305301 -0.0578472 0.14237317 0.052569922 1.0018742 0.37722093 -0.20687832 -0.5398803 0.36234215 -0.8111695 0.7662424 -0.041168302 0.030319408 -0.071736895 0.2477892 0.076384634 -0.3281351 -0.07905159 0.21141477 0.14894502 -0.274317 0.2048649 0.67225164 -0.123957224 0.10270246 -0.7662219 -0.6682769 -0.1839964 -0.40171847 0.3119033 0.7761491 -0.6174985 -0.07081469 -0.07035391 0.392547 0.18961325 -0.3320158 -0.33923474 -0.6148133 -0.07623039 -0.09028385 -0.34751323 0.13780425 0.32840177 -0.10104328 -0.15166157 -0.82428694 0.04914565 -0.025545493 0.24697052 0.34033912 0.0349731 0.026151381 0.14009067 0.19529337 0.04248489 0.36477488 -0.2550248 0.09581294 -0.05709449 -0.18311182 -0.16029108 0.24309815 -0.30363053 -0.09710634 -0.17581727 0.48513442 -0.51808655 0.5053464 -1.0430312 0.006426553 0.24621624 -0.8138068 -0.5481812 -0.3046226 -0.076918595 0.9227151 0.15496781 0.014610859 -0.545402 -0.004622118 0.06728759 0.450547 0.29891273 -0.059020344 -0.6041765 0.72946 0.16936573 -0.29824978 0.7763898 0.15848573 -0.10887274 -0.037189893 -0.17468305
48781 -0.30988944 -0.49006766 -0.32633606 -0.23769993 -0.6776306 0.45024928 -0.4873434 -0.860576 -0.4380142 -0.53423685 -0.13830858 -0.48080206 0.91666293 -0.120116115 1.1532025 -0.096639246 1.1831964 1.343314 -1.1414917 0.007895941 -0.5012641 0.10970638 0.68483263 0.43799987 -0.5045209 -0.18892768 0.32994604 0.82427007 0.03630614 0.22951625 0.2235538 1.1189266 0.12750241 -0.065659344 0.9109731 0.31488293 0.7346971 -0.22136581 -0.5778195 0.59709185 -1.1390673 -0.77320856 0.33246288 -0.1278357 0.15631151 -0.25509268 -0.40456516 0.21903281 0.2494187 -0.35278305 -0.90239185 0.27041098 0.5931675 -0.82243246 -0.32305047 -0.0788116 0.85327023 -0.37791494 -0.5034892 0.038179982 -0.359873 -0.7723883 0.26253584 0.46739224 0.4285189 -0.51210004 0.037934028 -0.20813413 0.14148918 0.074365206 0.069393314 -0.9667321 0.41456753 -1.6893655 -0.60204166 0.18689466 0.30278176 -0.4148195 -0.036465283 -0.37521058 -0.80656105 0.068800256 -0.20434678 -0.51927483 0.54920363 -0.40474775 -0.41441533 0.20224282 -0.5882376 -0.80774564 1.0312288 -0.35707656 -0.007963677 -0.076102726 -0.67871433 0.09363853 -0.069549456 -1.1786602 0.19284552 -0.070981435 0.23482545 -0.44949487 0.013252061 -0.72282994 -0.47438607 -0.657225 0.50712234 -0.8305033 -0.48913598 1.2656672 0.84953725 0.23090224 0.6165544 -0.4103288 0.5736114 -1.0051903 0.0768256 -0.3859664 0.054738343 -0.21624206 0.50074166 -0.023446802 0.61305654 0.51831627 -0.066114776 0.24665105 0.49780652 0.21756211
423816 -0.23924895 -0.51854116 -0.38874444 -0.20729792 -0.6394905 0.42108813 -0.43452185 -0.8118556 -0.36288652 -0.551694 -0.13313687 -0.44715545 0.99866605 -0.19401146 1.133417 -0.09223647 1.0481969 1.3315834 -1.1053879 -0.01692482 -0.5592647 0.01778779 0.73252773 0.3134998 -0.54162765 -0.21232839 0.36175427 0.8305713 0.033221062 0.18370958 0.121799566 1.1250399 0.1137522 -0.009977247 0.93248373 0.17100659 0.64898777 -0.21782066 -0.62794906 0.63708305 -1.0686681 -0.7048638 0.3001505 -0.21645334 0.18214947 -0.3471712 -0.31122112 0.1426736 0.27508238 -0.48056355 -0.90447515 0.2247956 0.62536764 -0.8057376 -0.24512675 -0.09282589 0.80292004 -0.33973792 -0.38771796 0.048793595 -0.3412767 -0.71614987 0.19823468 0.5984131 0.36269033 -0.55308455 0.0063595786 -0.25241506 0.1068164 0.092785135 0.13819717 -0.85753804 0.42490074 -1.6534181 -0.6448552 0.16394235 0.35210413 -0.40135357 0.07092636 -0.29727724 -0.77723837 0.16192888 -0.26759082 -0.43865952 0.5848928 -0.3486296 -0.38383842 0.24568614 -0.6400834 -0.7278203 0.8837884 -0.374562 -0.09781356 -0.09183413 -0.5946607 0.096299894 -0.015401328 -1.3032773 0.25872564 -0.054766923 0.28007823 -0.41431725 -0.039667495 -0.7488448 -0.46838784 -0.7120355 0.4679344 -0.7855188 -0.50098175 1.2364043 0.871107 0.36506364 0.60953355 -0.48029584 0.60445637 -0.9175325 0.059285183 -0.45461985 0.024205495 -0.23358274 0.52061313 -0.03410776 0.58192724 0.5292437 -0.07200039 0.22361894 0.47998098 0.20027074
210872 0.46298236 -0.7201597 -0.8985307 -0.5180131 -0.56089896 -0.33969864 -0.20323458 -0.58562297 -0.3684829 0.19937262 -0.28949994 0.02924538 0.7306382 0.6870048 0.1502145 -0.2502604 0.35747164 -0.53237695 -0.21367036 -0.06832755 0.3606341 -0.024998121 0.04282102 0.5195903 0.22284326 -0.18416221 0.3475757 -0.39886183 -0.76163614 0.5366799 0.3051082 0.27495337 -0.35425848 0.1383094 -0.45953602 -0.0051214104 -0.06030005 0.122404024 0.9706036 0.8602701 0.5246713 -0.6957113 0.40058398 -0.41547936 0.658328 -0.056901544 -0.053290028 0.085230835 0.3386444 0.022497 0.08370388 -0.009890906 0.104935534 0.018978296 -0.43232596 -0.056189407 0.32002106 -0.53122485 -0.19588925 -0.5407878 -0.41460577 0.07835603 -0.6679511 0.923905 0.9853239 -0.7867317 0.23661418 0.15950754 0.35387143 0.31244564 0.12382807 -0.2975758 -0.87077236 -0.3080389 -0.24756089 -0.6387504 0.1484652 -0.02115061 -0.45577496 0.032868564 -0.98203135 -0.49347392 -0.17419036 0.9227814 0.7600758 -0.04810648 0.05150225 -0.12529042 0.045297932 -0.006676005 0.5216914 -0.3102395 0.20581642 -0.6223154 -0.03873624 -0.60990864 0.0051587303 0.07295933 -0.031863056 -0.18791094 0.15235615 -0.6901269 0.42433238 -0.92729074 0.09128841 0.2953354 -0.6912836 -0.42259526 -0.5133066 0.013023268 0.9086315 0.38379857 0.28513354 -0.4092705 -0.31255502 -0.24807835 0.21480235 0.23721159 0.074022524 -0.60925525 0.8970857 -0.28258508 -0.23746637 0.423345 0.30076164 -0.054601688 -0.20658349 -0.19680604
154047 -0.26138577 -0.41418394 -0.8153554 -0.38542685 -0.8718818 -0.5164728 -0.95333666 -0.17444235 -0.9558456 0.19930375 -0.29741764 0.48621726 0.12817039 0.19045065 -0.3404914 -0.34258494 1.1315278 0.96872574 -1.2236966 0.64441264 -0.516063 -0.3001269 0.12557665 0.5578104 -0.9905325 -0.42927828 -0.2546995 -0.2673679 -0.46380827 0.08587049 -0.4006475 1.1669178 -0.06985826 -0.27648818 1.1917659 0.49421272 0.22084884 0.6331318 0.44672382 1.3430215 -0.552257 -0.85688627 -0.21518648 -0.14857662 0.03667144 -0.3380136 0.45027703 -0.79297966 0.32755405 -0.50301886 -0.01038377 0.41242898 -0.5505343 -0.37609735 -0.5212047 -0.5135646 -0.24544936 -0.07344005 -0.6618346 0.20411526 0.046278767 -0.4812159 0.079761535 0.6524433 0.8716169 0.11877992 0.030521309 -0.54093844 0.089130506 0.14561607 -0.37071005 -0.47987333 -0.028353164 -0.70376873 -0.08716394 0.05297116 0.14320406 -0.7329028 0.53691 0.3517716 -0.8855974 -0.052887943 -0.49505332 -0.3590134 0.3441202 -0.23918001 0.08527509 -0.13529645 -1.4398755 -0.7573149 -0.4795411 -0.41318142 -0.6344183 -0.031366803 -0.58089757 0.13662966 0.0023285928 -0.5765109 0.27340493 -0.38913277 0.4264129 -0.5435553 -0.050379608 -0.99256814 0.12555887 -0.3481079 -0.073062874 -0.4504717 -0.25577238 0.13457468 0.5378057 0.6416209 0.8819734 0.122137696 1.2484233 0.09553292 -0.5346641 -0.22305794 0.34177575 -0.3866517 0.29901865 1.0928031 0.5082849 0.738299 0.08608501 -0.32870266 0.89658546 0.62509686
154023 -0.26579255 -0.43608204 -0.8450558 -0.4005065 -0.8982366 -0.5185965 -0.9729547 -0.19129841 -0.98336405 0.20805594 -0.31749278 0.4940458 0.14388976 0.20433062 -0.35746157 -0.34964427 1.1489825 0.9662076 -1.2321744 0.645918 -0.5183564 -0.30434632 0.12956917 0.5624749 -1.0154827 -0.46044382 -0.2745474 -0.2742184 -0.4730082 0.07272564 -0.41911986 1.1841353 -0.07345915 -0.26811343 1.2163587 0.4959416 0.22874114 0.6486118 0.4677558 1.367467 -0.55178946 -0.87592036 -0.21984516 -0.16232257 0.038913716 -0.36095256 0.4710881 -0.83525753 0.31263545 -0.5202988 -0.0053628 0.40962997 -0.5622752 -0.37281328 -0.5249014 -0.53931767 -0.2461893 -0.0630988 -0.6797996 0.19165042 0.04901149 -0.47762898 0.056175407 0.65682554 0.8736187 0.11045062 0.016220449 -0.53790283 0.08926572 0.16569047 -0.36735642 -0.49410608 -0.02309515 -0.709026 -0.086052224 0.037665267 0.12481713 -0.7515217 0.55307657 0.3726079 -0.89906 -0.05375819 -0.5153241 -0.3548445 0.3491966 -0.2302799 0.090488814 -0.14416364 -1.4637895 -0.76205057 -0.5120342 -0.42658994 -0.6740237 -0.018334536 -0.5874016 0.12529133 0.0062306155 -0.5872797 0.280074 -0.37883744 0.42612684 -0.55092824 -0.038790703 -1.0087488 0.11560251 -0.34679574 -0.08216427 -0.46628532 -0.26214874 0.14805071 0.55248815 0.64558375 0.9057977 0.12020164 1.2809637 0.10388353 -0.54811627 -0.23704 0.3479799 -0.38513094 0.30654964 1.11287 0.521939 0.74923694 0.09274984 -0.34442523 0.9265802 0.6396358
648112 -0.3580117 -0.29632983 -0.9985389 -0.048644226 -0.45017955 0.14475323 -0.81562865 -0.49526846 -0.20234393 0.47239447 -0.43718255 -0.20568374 0.32617193 0.21477383 0.5123412 -0.5142796 1.1057518 0.7830058 -0.3187802 0.84325796 -0.6242946 -0.4581486 0.13601255 0.5871269 0.17052637 0.37407854 0.12243228 -0.07369578 0.11774763 -0.43769267 -0.5200943 0.80924636 0.022934478 0.9525466 0.786188 1.5579485 0.21205607 0.9051515 -0.60776424 0.24819498 -0.40888718 -1.0034016 0.829889 -0.49101353 0.7137572 -0.6011885 0.71847177 -0.34430274 -0.10492146 -0.59113795 0.28165448 0.7447272 -0.71859914 0.49829373 0.019151172 -1.0107892 -0.17949417 -0.11796746 -0.27949315 -0.31017783 -0.3525906 -1.0011295 0.1456147 0.37542555 -0.10836572 -0.57873845 -0.8347078 -0.6115707 -0.08294858 -0.12841211 0.051070243 -0.22304296 -0.291388 -0.8151082 0.18176971 0.29537046 0.05131395 -0.27288258 0.8761594 -0.09638109 -0.24416085 0.37663838 -0.09174062 0.34945711 0.04657194 0.1965008 0.40831244 0.22114171 -0.80964017 -0.8910461 0.08564699 -0.610827 -0.7423139 -0.40552488 -0.2078041 0.16853957 0.13295406 -0.85179645 0.19190419 0.40818805 0.5815176 -0.61829877 -0.389473 -0.24712038 0.07302494 -0.6298031 -0.38149405 -0.5925319 -0.27597737 0.47739643 0.5988951 1.2403214 -0.09527321 -0.38720185 0.28467733 0.07503266 -0.053610194 -0.4284869 0.43396083 -0.12561758 0.15156502 0.52471113 -0.08049321 0.649066 -0.4603276 -0.1438697 0.23747043 0.31262067
648106 -0.43388915 -0.26112118 -0.94635326 -0.076006286 -0.45834246 0.21070267 -0.81748855 -0.4800912 -0.13352644 0.39685193 -0.3823149 -0.18512279 0.25080046 0.19874533 0.5992385 -0.52646005 1.1279048 0.8271168 -0.3396332 0.82053626 -0.6282648 -0.4196422 0.07335809 0.62874424 0.08689266 0.30789673 0.14062124 -0.05815042 0.05029993 -0.42992127 -0.43777153 0.76959634 0.019631699 0.87128174 0.80451685 1.5850276 0.16654189 0.8358645 -0.65702003 0.1918154 -0.46102586 -1.014513 0.8579618 -0.4781622 0.7035059 -0.6053882 0.5960526 -0.25563434 -0.10777967 -0.56051016 0.27265763 0.63004804 -0.70335776 0.44818884 0.07155292 -0.9594097 -0.067100264 -0.10608127 -0.24607882 -0.20809865 -0.33958244 -1.001397 0.11361477 0.33114684 -0.062198166 -0.6424743 -0.841576 -0.66409713 -0.12291154 -0.2283419 0.01254362 -0.27653328 -0.21810691 -0.88776064 0.27068093 0.40816537 0.08286991 -0.30450305 0.7376905 -0.12003163 -0.313485 0.33513328 -0.11224423 0.20403124 0.03605537 0.17370622 0.38634685 0.24610618 -0.7187161 -0.90700406 0.22020593 -0.6242841 -0.62406176 -0.3177961 -0.29577106 0.18483861 0.05385037 -0.96010673 0.22091955 0.34706983 0.59133756 -0.6679766 -0.47499007 -0.2533613 0.019193005 -0.6669444 -0.35569328 -0.64641875 -0.2628267 0.5258864 0.6057221 1.249186 -0.13531768 -0.420519 0.29163238 0.008617078 -0.037923753 -0.44588187 0.4742335 -0.10791092 0.19267997 0.63067013 0.04029669 0.61401063 -0.50790036 -0.011458985 0.24138188 0.36353585
103430 0.39630952 -0.020814372 -0.5422979 -0.69571644 -1.076713 -1.2587069 -0.2856769 -0.33918035 -0.72557396 -0.5403583 -0.1374731 0.23771654 0.5864266 0.06463362 -0.03374609 -0.35786593 -0.25955564 0.53972954 -1.0348853 -0.143451 -0.19176853 0.36663064 0.20469145 0.016784858 -0.21940279 -0.53206426 0.29667428 -0.023118142 -0.2986792 0.5948317 0.031465072 1.0081398 0.10921862 -0.37125263 0.3446669 -0.07708639 0.4400017 0.038030785 0.6088409 1.9823046 -0.3802337 0.18842593 -0.2307251 0.3824569 -0.74232787 -0.29147816 -0.34108567 -0.3442634 0.45745158 0.44088775 -0.19921464 0.6827765 -0.43264693 -1.0789182 -1.2658099 -0.082714476 0.13174072 -0.6576823 -0.028902542 0.37707797 -0.15478504 0.06630838 0.08421883 0.75285417 1.5161271 0.2953612 1.2217567 -0.05089357 0.7683641 -0.5221464 0.3486051 -0.097041436 -0.13523202 -0.81464046 -0.8923733 0.29705858 0.70325035 -0.56681365 0.849037 -0.11403096 -1.5721176 -0.73198485 -0.74425316 -0.26709974 1.1937368 0.23757342 -0.659319 0.06424003 -1.3076925 0.24344833 0.18853498 -0.6674188 -0.372746 -0.8495639 -0.6640206 -0.0016599278 0.32995912 -0.565395 -0.22160783 -0.030636538 0.7268107 -0.5492058 0.12031284 -0.5267126 0.41686454 -0.6482853 0.81823194 -0.8333505 -0.74245083 -0.101130836 0.3591037 0.39016217 0.5433271 -0.32123512 0.89499474 0.101410896 -0.57084453 0.5481847 0.16632006 -1.3545326 0.36705303 0.43679434 0.50549394 0.76729393 0.5726825 -0.2556037 0.41458327 0.81474006
35335 0.04174119 -0.42007297 -0.85511756 -0.2879906 -1.13052 -0.32323495 -0.8813686 -0.8601461 -0.62122315 -0.07654917 -1.047427 -0.15919842 0.17845593 -0.1786508 -0.32791665 -0.24968469 0.49438646 0.588282 -0.45523378 0.34660634 -0.34098542 0.15819803 -0.07903316 0.7668038 -0.12570949 -0.32139906 -0.3018628 -0.10911613 -0.31744012 -0.15515678 -0.44562617 0.75881565 0.36305064 0.110508434 0.8457946 0.7443356 0.74907964 0.5230371 0.4691966 0.8458297 -0.6044451 -0.2637784 0.3221854 0.5702476 -0.12865858 -0.39976633 0.3252313 -0.50419736 -0.06465677 -0.13042581 0.105789125 0.6130762 -0.4675882 -0.20902693 -0.28940198 -0.30636814 0.2792386 -0.2955811 -0.9147588 -0.32848904 -0.09055353 -0.61394155 -0.07133618 0.48689172 0.6343338 0.0855885 0.026648458 0.093344666 0.33867815 0.21365243 -0.20247914 -0.28098133 -0.10709932 -0.9110894 -0.3941472 0.033155784 -0.0056874487 -0.6178418 0.85649633 0.09849929 -0.6991193 -0.27322838 -0.8052905 -0.3464335 0.56173515 -0.14939106 -0.15255387 -0.12253319 -0.87642914 -0.7153638 0.04069809 -0.7078903 -0.7407149 -0.22117226 -0.47434607 -0.15541449 -0.1396104 -0.5107779 -0.19863504 0.09019257 0.33942333 -0.5476423 0.16039972 -0.45697087 0.18843983 -0.329878 0.14416757 -0.9656916 -0.36327964 0.56850404 0.19254029 0.77930576 0.57035446 0.097433336 1.0429204 -0.03500832 -0.44951123 -0.4354948 0.514175 -0.41632268 0.59282726 0.70290875 -0.07452035 1.0418341 -0.074870095 -0.8332999 0.39996725 0.5922024
82920 0.7104162 -0.6695086 -0.93161416 -0.8381681 -0.4472113 -0.23498939 -0.027497929 -0.6639999 -0.5578854 -0.21994011 -0.31520507 0.19785629 0.78780395 0.39806008 0.20602836 0.047173314 0.2892553 -0.36356223 -0.553934 -0.16521229 0.40255934 -0.028047934 0.16170679 0.29423967 0.25788844 0.17174935 0.53328264 -0.36147115 -0.55784184 0.546062 0.18858288 0.63343745 -0.5721008 0.20320345 -0.3406652 -0.10116375 -0.11955333 -0.08238776 0.9253998 1.0031741 0.30542046 -0.71829975 0.32396558 -0.20648769 0.37245163 -0.3218841 -0.15395755 -0.019330274 0.31163427 -0.094316885 -0.022221716 0.21969275 0.06423743 -0.08911417 -0.22585975 -0.20740458 0.4426692 -0.3577144 -0.07601022 -0.55397606 -0.34608904 0.10693957 -0.83810097 0.9700869 1.0809518 -0.70790875 0.5850749 0.35829124 0.5855271 0.19771191 0.23616314 -0.14604336 -1.0291384 -0.10606774 -0.274151 -0.92557824 -0.052118644 0.03903783 -0.16062537 0.06519416 -0.8354799 -0.20605524 -0.48043868 0.8416686 0.6925358 0.1420594 0.06662954 0.18494807 0.040808454 0.28222787 0.43241727 -0.22792186 0.36928806 -0.4786885 -0.054998808 -0.4095869 0.039691843 -0.034087952 -0.010450559 0.3303578 0.27365443 -0.34165475 0.4281643 -0.9013173 -0.116990365 0.26129094 -0.85166657 -0.4840323 -0.68170166 -0.119062066 0.8444457 0.17874844 0.23284973 -0.21814534 -0.32051966 -0.37963107 0.29169056 0.40429077 0.33027068 -0.7971456 0.8901208 -0.4422107 -0.26625627 0.3955395 0.44766468 -0.32518798 -0.0403174 -0.008039517
75318 0.35314396 0.034841236 -0.57704765 -0.80443496 -1.1537074 -1.319722 -0.2793035 -0.3063095 -0.77337056 -0.5579859 0.044035967 0.2220387 0.6013651 0.17755206 -0.06481353 -0.39065698 -0.2025299 0.6279638 -1.0501214 -0.12334508 -0.21682857 0.36326793 0.18031205 0.00062110025 -0.25652578 -0.5205445 0.29722407 0.008313175 -0.28088078 0.59565765 0.09324672 1.0354148 0.12684482 -0.35297278 0.39875495 0.053255197 0.41773835 0.08578674 0.5576841 1.9966642 -0.42073566 0.0535264 -0.19731331 0.36371827 -0.6920035 -0.2449149 -0.3121696 -0.46844193 0.36348173 0.45706686 -0.22590998 0.6706934 -0.5004743 -1.044291 -1.2447934 -0.16366918 0.07678945 -0.5603218 0.017052442 0.38617966 -0.20540506 0.0885617 0.04717976 0.7239922 1.422591 0.3129011 1.1969348 -0.16354038 0.7319036 -0.5954402 0.3762002 -0.16042887 -0.20114549 -0.8693589 -0.8719399 0.300996 0.7179965 -0.59327585 0.90654457 -0.1830934 -1.6359994 -0.74206966 -0.79490554 -0.21072134 1.1245847 0.36671582 -0.6384538 0.010126371 -1.4325767 0.2639196 0.19098316 -0.6976883 -0.4227718 -0.8055349 -0.61782366 0.023847915 0.41176248 -0.5532757 -0.14616802 -0.025415437 0.82974786 -0.6214421 0.094450265 -0.5259545 0.37532574 -0.7184479 0.7693426 -0.8605449 -0.7921507 -0.1788343 0.36012518 0.41056883 0.485949 -0.38510767 0.91107017 0.057182692 -0.5880965 0.5650534 0.093757406 -1.3175294 0.28570274 0.46760872 0.67355984 0.7117315 0.58919394 -0.1851969 0.45080733 0.7683531
59772 0.04870217 -0.42980084 -0.89296407 -0.2954099 -1.1663666 -0.33456576 -0.9186939 -0.8865022 -0.63087237 -0.06941684 -1.0742259 -0.17729789 0.20558509 -0.17199321 -0.30255383 -0.26999196 0.5242896 0.5871551 -0.45133296 0.35602105 -0.3312597 0.16324763 -0.048128136 0.78844136 -0.123258956 -0.33714435 -0.3081807 -0.122421 -0.33793738 -0.14648438 -0.4550649 0.7913748 0.3588158 0.11517102 0.85510284 0.7590125 0.76389194 0.53339684 0.48431808 0.8811932 -0.60742855 -0.27391446 0.34190968 0.5459179 -0.11302278 -0.40865025 0.33658344 -0.5051384 -0.067896076 -0.1531385 0.10651855 0.62618023 -0.46316725 -0.20947106 -0.298957 -0.33471155 0.31986594 -0.3153009 -0.926706 -0.33358693 -0.09967368 -0.6492407 -0.09515081 0.49702358 0.6673238 0.04669132 0.02859466 0.1019703 0.3438791 0.23627874 -0.19450606 -0.2842362 -0.116251186 -0.94481385 -0.39830616 0.021428702 7.6563425e-05 -0.62148154 0.8692823 0.09444571 -0.730736 -0.27854314 -0.82128704 -0.33959404 0.5943523 -0.15580657 -0.15786207 -0.10564991 -0.8940311 -0.73851407 0.057282545 -0.7394706 -0.7639279 -0.24843743 -0.4905963 -0.15780494 -0.13887265 -0.54033786 -0.20718558 0.108007655 0.35264936 -0.55132854 0.17855984 -0.47746187 0.18151978 -0.3226496 0.1361385 -0.98757595 -0.37867695 0.59352446 0.21916205 0.78280747 0.59270597 0.077615984 1.0484773 -0.029410262 -0.4463434 -0.44711193 0.5293531 -0.44113758 0.6322615 0.7117187 -0.084616885 1.0604106 -0.05860353 -0.8557452 0.40447825 0.61745983
4584 -0.08069601 0.17408821 -0.4665338 -0.03505224 -0.5022277 -0.49378666 -0.54286283 -0.19516866 -0.8220938 0.45586756 0.28124842 0.56397796 0.20887138 0.7577679 1.0112857 -0.23205823 -0.1354456 -0.48434547 -0.42082623 -0.20168003 -0.25516388 0.48847163 0.28414732 -0.09341467 0.14479302 -0.46038416 -0.0911784 -0.6709714 -0.89385045 -0.38138974 -0.044208955 0.5366263 0.24792932 0.57697827 -0.4653488 -0.32432485 -0.29813236 0.4215586 0.60361314 0.8708917 0.22315077 -0.632195 0.036644116 -1.0184236 -0.10738742 -0.6859704 -0.7232937 0.3656877 -0.50442266 -0.2882629 -0.17530948 -0.44097903 0.050901078 -0.41406986 -0.16359672 0.12609623 0.67967194 -0.36498654 0.096541114 -0.45060742 0.10383712 -0.29752773 -0.072542325 0.36807498 0.29358685 -0.6524468 0.3633708 -0.29988322 0.061961345 0.20279 0.47946063 -0.50298864 0.2060664 -0.9224095 -0.35699508 -0.34501657 0.94876045 -0.75291663 0.4190836 1.1243948 -0.6247547 0.4527211 -0.11164897 -0.28031966 0.13927668 0.1387714 -0.40694046 0.15087901 0.19550695 -0.57906884 0.85149026 -0.5551951 -1.0387714 0.23959194 -0.16331664 0.37250715 -0.25228962 -0.2383379 -0.29594356 0.2428346 0.7116194 -0.52024865 -0.082102306 -0.25836203 -0.50045973 -0.21410267 0.45129472 -0.6675396 -0.50828457 0.7361362 0.50704867 0.28261033 0.44606194 0.44216597 -0.31616685 0.24737516 0.7228143 -0.3717122 -0.2324757 -0.8141974 -0.27501622 0.6589499 0.55405766 0.4666236 0.53514725 0.5410211 0.41035834 0.15392095
1272 0.044387575 0.0065363985 -0.81253815 -0.52672607 -0.7967567 -0.54142135 0.24811156 -0.375067 -0.3427645 0.32203597 0.42855713 0.060020663 0.6077572 0.76064795 0.4192891 -0.11805391 0.32653937 -0.52603483 0.3048792 0.25033984 -0.3768412 0.5553653 0.43763068 -0.1534382 -0.17355974 0.15531866 -0.30728665 -0.08300041 0.08231381 0.21062487 0.19283393 0.39278904 0.43892968 0.2674692 0.16049665 -0.051239155 0.45844957 0.13050142 -0.08905739 0.7351329 0.39315203 -0.56742245 0.27177468 -0.61677086 -0.4931489 -0.3403386 0.7839767 -0.4689693 -0.7805606 -0.24087201 0.20271657 -0.16326253 -0.40390828 -0.025986511 -0.09473534 -0.56103694 0.34588388 0.087357774 -0.057683747 -0.02752628 -0.03167893 -0.7296588 -0.31995112 0.21903309 0.22247224 -0.6866132 0.34579885 0.046758242 0.25608194 0.218466 0.22643235 -0.8103852 0.22117528 -0.6693657 0.3026168 0.55047125 0.0096785305 -0.5143659 0.43492776 0.48876143 -0.4623028 -0.059236046 -0.7501413 0.21881703 0.18893296 0.6645713 -0.48758113 0.43827826 -0.3696916 -1.0521622 0.1509867 -0.59613204 -1.0936561 0.4361084 -0.5954683 0.14537099 0.1900791 -0.35513806 0.124798544 0.12625502 0.2885186 0.4755811 0.39717236 0.13258089 -0.09522429 -0.13385639 0.21096045 -0.21714649 -0.50476515 0.7231411 0.7001463 -0.041408934 0.7124414 0.090615466 0.5301604 -0.14327349 0.50309163 0.35664216 -0.072369926 -0.64934224 0.08110545 0.89973795 0.041511346 0.091617316 0.7984932 0.61800826 0.91438025 0.28576082
643239 0.055012364 -0.63373137 -0.43572187 -0.22514884 -0.9144517 0.7252692 -0.2751376 -1.042818 -1.021384 0.017920047 -0.49123117 -0.20135324 0.15283556 0.25275725 -0.2552306 0.1749765 0.6186092 0.14721501 -0.78123856 -0.10517408 -0.51988935 0.10683515 0.060231324 0.32930925 -0.2546343 -0.2719469 0.07817454 0.00090027374 -0.32592672 -0.08265954 -0.54537404 0.7346794 -0.19703622 0.23280603 0.058654565 0.63941073 0.7370593 -0.01334329 1.0805297 0.41858754 -0.43322998 -0.41631994 0.1334372 0.12822266 -0.7525436 -0.23695232 0.11231513 0.2808053 -0.12245329 0.38498932 -0.009463911 0.20908897 -0.35974762 0.06853236 -0.28297946 0.14516482 0.1748864 -0.38170913 -0.6937214 -0.2456358 -0.09882367 -0.37006307 -0.12528019 0.03753285 0.6394786 -0.13787411 0.7093066 0.7486888 0.23962165 0.23208165 -0.21348558 -0.62420386 -0.36205798 0.068529084 0.057435047 0.3715567 -0.37041053 -0.27760893 0.17396928 0.34280676 -0.8553885 -0.7095405 -0.32743827 -0.47946966 0.22611074 -0.19692716 -0.07957558 -0.1462981 0.059414037 -1.3778913 0.1686823 -0.06320682 -0.16436772 0.23782681 -0.8849791 -0.0007727856 -0.5251552 -0.17643914 0.08203045 -0.09168591 -0.17205216 -0.14312373 0.5302842 -0.10690925 -0.33566588 0.039090984 -0.018525988 -0.28010944 -0.35921428 0.6844978 0.7549642 0.0122223 0.42311323 0.7163894 0.558825 -0.42366886 -0.09176877 0.10262834 0.3835536 -0.07767626 0.65722626 0.49570122 -0.2906304 0.15161122 0.1598694 -0.50543773 0.72941226 0.58397716
34979 0.0830452 -0.44214043 -1.0275775 -0.47230646 -1.3725587 -0.3716507 -0.9184672 -1.0036368 -0.83446044 0.070077375 -0.56061554 -0.22402185 0.5913833 0.01215252 0.26085454 -0.39131102 0.9883636 0.6312224 -0.66174495 0.35093912 -0.4047363 0.0827678 0.5032585 0.56689817 -0.30995518 -0.30765766 -0.04376878 -0.100442216 -0.3675643 0.23239315 -0.37569985 1.4809482 -0.02283784 0.28967118 0.6367159 0.68274176 0.66222996 0.5594241 0.6336362 1.3508937 -0.543371 -0.5362448 0.26385275 -0.27712834 -0.19938658 -0.4376163 0.70143634 -0.28930178 -0.041948307 -0.30608445 0.07536875 0.6161646 -0.54218054 -0.046417404 -0.5181689 -0.8391938 0.23936693 -0.55194193 -0.6374272 -0.32056582 -0.29988945 -0.8642225 -0.23961164 0.6510658 1.1100549 -0.46758136 0.41870707 -0.04180204 0.34658942 0.28438857 0.07719832 -0.5396068 -0.4411501 -0.84920317 -0.2388991 0.10611534 0.22377896 -0.35347423 0.72171485 0.2870043 -1.2023792 -0.33178908 -0.64743054 -0.06409643 0.59061503 0.016254455 -0.17404364 0.3717783 -1.0629394 -1.041196 0.2410246 -0.77909505 -0.84495854 -0.4475898 -0.8252998 0.009891267 0.10774833 -0.81092024 0.19833124 0.13325053 0.5250018 -0.436276 0.2530789 -0.5741803 0.044303138 -0.33178228 -0.005072959 -0.88445413 -0.4270569 0.5742267 0.8691688 0.7082582 0.78295904 -0.059428856 1.04464 -0.05552305 -0.2738926 -0.019596208 0.3652857 -0.62513876 0.74300206 0.87183046 0.054308627 0.814584 0.101111285 -0.5495117 0.5892297 0.74957764
85688 -0.46390963 0.2956307 -0.8015903 -0.8120864 -0.7693304 -0.63233715 -0.24576889 -0.39144212 -0.26633865 0.36229566 0.25902528 -0.03755206 0.6495284 0.47237444 0.3780735 -0.3533301 0.3074522 -0.22983614 0.06100854 0.58471155 -0.46858597 0.2768431 0.648285 -0.013657069 0.016742872 -0.13269584 -0.4156139 -0.40146133 -0.043149594 0.4181657 0.3943708 0.7342104 0.3806766 0.42485157 0.19872634 0.73532945 0.38435337 0.14656428 -0.4325436 0.9140083 0.31377298 -0.91624886 0.25194946 -0.8417404 -0.24503371 -0.19226313 0.7226551 -0.43168697 -1.1469519 -0.42696673 0.1865398 -0.45605522 -0.4717827 0.23166996 -0.20930313 -0.70140576 0.00211778 -0.12809184 -0.2586779 -0.2386294 0.10033501 -0.77148163 -0.4803488 0.22184065 0.27867305 -0.6825888 -0.06479349 0.13765016 0.09320539 0.22347565 0.48591846 -0.6668019 0.4168197 -0.504941 0.42164415 0.5145002 0.11042626 -0.7111685 0.5963768 0.23865475 -0.4710257 -0.07353044 -0.3338201 0.40073222 -0.0594435 0.16254124 -0.39499447 0.46985504 -0.542007 -0.9416295 0.7144181 -0.22190383 -1.1908294 0.00087595126 -0.57130235 -0.06913038 0.4268366 -0.6676772 0.10578107 0.37120122 0.16987826 -0.015399974 0.25132793 0.15394212 -0.06326376 -0.05067996 -0.18698141 -0.15080655 -0.57934064 0.48649877 0.15076381 -0.11134355 0.1918794 -0.20259148 0.0045147566 -0.016113121 0.23389639 -0.14759721 0.18996914 -0.55061615 -0.10880158 0.45937404 0.104204826 -0.20376317 0.6548474 0.4264136 0.3919782 0.47373614
13982 0.080641426 -0.46029824 -1.0114609 -0.49037683 -1.3840834 -0.39264336 -0.9257409 -1.0000398 -0.8496276 0.058592018 -0.55637884 -0.22219174 0.61080027 0.0051394105 0.23789078 -0.39770415 0.9762241 0.635153 -0.6549992 0.36543223 -0.4187419 0.076102056 0.50686884 0.546005 -0.30014384 -0.28356946 -0.038447294 -0.10209083 -0.36846423 0.24248667 -0.38088942 1.4812739 -0.014762581 0.29781875 0.64373815 0.6803095 0.6791828 0.566717 0.6518706 1.3678792 -0.53307045 -0.527674 0.24724749 -0.24473307 -0.20842864 -0.42082 0.69364977 -0.3165237 -0.044232626 -0.28542545 0.0939969 0.62702125 -0.5603035 -0.06614091 -0.53363734 -0.8215631 0.22863042 -0.5431695 -0.66743463 -0.33719912 -0.2908047 -0.8637804 -0.20173791 0.65386003 1.1293825 -0.43978816 0.42185926 -0.06377163 0.3742391 0.28593007 0.07619653 -0.54013926 -0.4532524 -0.8321296 -0.26241848 0.0907643 0.24101852 -0.36191487 0.7426828 0.28389132 -1.1928014 -0.32039976 -0.64946437 -0.07146886 0.5929786 -0.005381051 -0.1751306 0.36609656 -1.0672877 -1.0436978 0.20637643 -0.74997413 -0.86236054 -0.45931852 -0.79560125 -4.1328734e-05 0.11886654 -0.78438133 0.18646961 0.13676815 0.5497026 -0.4526865 0.2746714 -0.58760524 0.08218705 -0.3223729 0.0050430926 -0.8917569 -0.42026702 0.56154734 0.8517727 0.716649 0.8040097 -0.060957965 1.0557923 -0.04919454 -0.27595863 -0.010402312 0.38364694 -0.6187451 0.7323727 0.86073124 0.060012367 0.84138143 0.09242102 -0.5456825 0.59586245 0.75252223
887 0.65712386 0.39811745 -1.1887591 0.64870334 -0.7008389 -0.260135 -0.8629539 -0.35313553 -0.5263291 0.5689115 -0.94152915 0.15475537 0.721619 -0.123640195 0.7976706 -0.10860771 0.49680635 0.05574025 -0.64398676 -0.020271512 -0.48041403 0.44131708 -0.07800866 0.37541562 0.071466304 -0.38562876 -0.077414826 -0.036311734 -0.96901596 0.15634987 0.06780483 0.22498795 0.004059766 -0.2556628 -0.1367609 -0.63900155 -0.29048157 0.51294357 0.96810985 0.49377874 0.11650745 -0.33056435 0.6456375 -0.909658 -0.20398898 -0.2827601 -0.3135007 -0.053935956 0.118953414 -0.5532377 -0.7315964 -0.45298448 -0.34840053 -0.26055816 0.119835 -0.014420295 0.41189656 -0.2688373 0.32668972 -0.67438847 -0.2576029 0.17297085 -0.020779114 0.9103282 0.6638836 -0.7173043 0.3213314 0.025205398 0.23091146 -0.20791352 -0.09972404 -0.4123829 -0.32684246 -0.42365465 0.10692229 -0.016268937 -0.38435915 -0.17232405 0.5949274 0.20253171 -0.23552316 0.11828819 0.24888235 0.42117807 0.34894437 0.46246508 -0.20828268 0.2762187 0.16870253 0.092177086 0.25019965 -0.90374017 -0.4105445 -0.09957228 0.14376731 0.45967615 -0.5481032 -0.942533 -0.41581005 0.024101455 0.61688954 -0.17711206 0.18127134 -0.8762542 -0.05414832 -0.03151796 -0.6455471 -0.07100931 -0.37453958 1.1760775 1.1449019 1.1539063 0.067754544 -0.21607137 -0.054282587 0.37766576 0.21065365 0.32385305 -0.107160024 -0.8808096 0.23299487 0.54757 -0.29861298 0.31901816 -0.016342735 -0.07011154 -0.10378171 -0.27267814
22563 -0.46934962 -0.25872296 -0.71440107 -0.56476843 -0.8326647 -0.3798117 -0.28525126 -0.39612374 -0.589817 0.023287086 0.5294626 -0.3874436 0.8324217 1.0155408 0.566757 -0.6813207 0.68368006 0.106564865 -0.20311889 -0.109792024 -0.6287194 0.0052452977 0.21586269 0.30359647 -0.2997582 -0.084132135 -0.23788935 -0.059856772 -0.12058653 0.38668677 0.2318925 0.7197933 0.23780036 0.20435426 0.43508598 0.64014095 0.57820857 0.24370386 -0.40947294 0.42596185 0.0015022822 -0.4803654 0.1499258 -0.61270136 -0.33932692 -0.1699777 0.32628778 -0.32375115 -0.88018894 -0.35208672 0.0035414384 -0.4837945 -0.11363213 -0.12402328 0.13649157 -0.6399449 0.35955858 -0.098668106 -0.061010756 0.408747 -0.39894542 -0.6343971 -0.41114795 -0.3577327 0.35954627 -0.47029144 0.3150703 -0.2465583 -0.07811479 0.08484874 0.26412502 -1.0011531 -0.089502916 -0.6594948 0.1229168 0.64085174 -0.05974305 -0.7591564 -0.14051194 0.282235 -0.55515254 -0.13398762 -0.42715356 0.17374465 0.14355944 0.39621687 -0.03473633 0.27551818 -0.60479176 -1.1237428 0.87362415 -0.33937722 -0.57227916 0.058183216 -0.44500294 -0.09766467 0.2568058 -0.21379836 0.07317175 0.31511065 0.33434218 -0.17719094 0.43118456 0.28267357 -0.45194808 -0.3143091 -0.07154214 -0.6846715 -0.34075817 0.533671 0.457462 -0.2168385 0.10600402 0.05700748 0.07303673 -0.4584653 0.39383328 0.29277918 -0.14687985 -0.5160814 0.0114816725 0.32979235 -0.004400933 -0.13085094 0.51561683 0.5352906 0.31270403 0.1528327
642894 -0.06861463 -0.39419803 -0.53417563 -0.41020885 -0.9432456 0.60086936 -0.32623082 -0.9148684 -1.1742232 0.021863975 -0.5228546 -0.0998063 -0.012572006 0.65038764 -0.39426732 0.1684165 0.64606404 0.32769847 -0.81284523 0.16408509 -0.49750873 0.1607716 -0.015330544 0.5037802 -0.37212953 -0.4768498 0.01249494 -0.18407506 -0.2605461 -0.05898535 -0.57487106 0.9243679 -0.18679392 0.26598698 0.033857662 0.6967161 0.7705404 0.14799961 1.1072251 0.40978462 -0.4751627 -0.35579568 0.07086367 0.14892203 -0.8133298 -0.21063316 0.015754076 0.10253933 -0.115972765 0.5292469 0.02627488 0.19768892 -0.53475434 0.25006735 -0.48850995 0.065698735 0.19054581 -0.25024232 -0.75411594 -0.17231725 -0.10281611 -0.5210658 -0.22081786 -0.009987427 0.43898958 -0.023921438 0.48908314 0.750065 0.27507323 0.080997385 -0.20711192 -0.5989525 -0.3507984 0.073741555 0.3107884 0.4091181 -0.3815195 -0.10339374 0.118090995 0.26282746 -0.9583138 -0.62285656 -0.33161393 -0.36077178 0.20181881 0.094638474 -0.17985594 -0.13512647 -0.03777686 -1.3421869 0.020430323 0.029013062 -0.35340667 0.39596343 -0.85744184 -0.05834035 -0.47359005 0.0026785769 0.077744976 -0.083844684 -0.20838013 -0.303038 0.50002474 -0.09857194 -0.27804053 0.13001764 -0.06754498 -0.21681699 -0.32730561 0.45968866 0.5215388 -0.029989904 0.2071991 0.44386736 0.47352362 -0.42930287 -0.37618244 0.26134798 0.25397864 -0.027218588 0.43849644 0.48038936 -0.2109218 0.030313265 0.32580802 -0.56775886 0.8140259 0.5827056
1365 0.27897292 -0.9603095 -0.3298674 0.5679666 0.24390784 -0.67962724 0.19975723 -1.4051538 -0.87833834 -0.010265702 -1.0400846 0.30146134 0.20579906 0.4626978 0.6991754 -0.068302795 0.19041337 -0.16824606 0.17112201 -0.7650132 0.8874322 0.42780226 1.2269369 0.45647675 0.9281076 0.54450583 -0.23597354 -0.9860857 0.566339 -0.17952129 -0.30642664 1.3896363 0.5384957 -0.39039856 0.050776668 -0.38423246 0.5007497 0.84426725 -0.03871595 0.9544171 0.35870674 0.7147547 -0.263814 -0.31023034 -0.11482497 -1.2246318 -0.6288252 0.074496195 0.526913 -0.116719194 -0.8033926 0.2675398 -0.006819445 -0.37023836 -0.22262606 0.19373219 0.9507172 -0.4196206 0.028550372 0.5227706 -0.112754725 -1.5001925 -0.7463387 0.92415804 1.3236212 0.27457514 0.07960954 1.3465965 -0.49140316 0.43464008 0.90616274 -0.42993915 0.7288355 -1.1965177 0.30060536 -0.3919863 1.0421723 0.33407634 -0.53000563 0.8116902 -0.53185034 0.6441642 0.20232362 -0.124131985 0.21486123 -0.49201798 -0.5102096 0.7711838 -0.5653506 -0.19409236 0.9414235 -0.81680983 -0.34036696 -0.88197416 -0.8163537 -0.29005957 0.12935427 -0.32237485 -1.6470858 0.35442913 -1.0128578 0.21819083 0.19315182 0.37737405 -0.024880638 -0.55262375 0.860115 -0.7673139 0.61654997 0.21596497 0.38907862 0.41362876 0.5893555 0.7060408 0.030124817 -0.38004977 0.3529042 -0.46605468 0.51026523 -1.0286205 1.0120431 0.27709296 -0.56263596 0.2892426 -0.26466206 -0.28547326 0.2481295 0.5129965
16819 -0.03366154 -0.47679475 -0.25877306 -0.3570265 -0.8829669 0.7569348 -0.485072 -1.0764261 -1.0539612 0.06085107 -0.6737179 -0.2897827 0.1549486 0.17212021 -0.49055898 -0.02523214 0.79024327 0.17850205 -0.64683104 0.08722175 -0.3718885 0.011520081 0.12007409 0.45911363 -0.18689129 -0.26624757 0.2250064 -0.071767695 -0.3961868 0.1365772 -0.5417561 0.71413463 -0.17110813 0.09121561 0.07971012 0.7447047 0.9177196 -0.019582966 1.046754 0.17273562 -0.51264095 -0.5150627 0.25074545 0.1685265 -0.64015704 -0.030762685 -0.07995756 0.21327755 -0.16723837 0.48003247 0.097739354 0.3314429 -0.47466385 -0.10587802 -0.31339237 0.25244376 0.26654086 -0.47955295 -0.77021 -0.13853167 -0.19106817 -0.4358647 -0.023685936 -0.1311626 0.52588785 -0.07339045 0.68784034 0.73393494 0.22310026 0.20246218 -0.27518502 -0.7354356 -0.27541685 0.083281405 0.12988733 0.36402202 -0.52308553 -0.056445144 0.15640296 0.27077895 -0.7559906 -0.7902149 -0.16309834 -0.72635686 0.24926773 -0.39722493 0.00041546242 -0.20508607 -0.10383246 -1.5382577 0.28129968 0.04538717 -0.19248307 0.005190809 -0.7739686 -0.029515263 -0.46497035 -0.17133191 -0.032715127 0.0054378253 -0.34261492 -0.3108729 0.604842 -0.23702545 -0.25826505 0.11455078 0.033251807 -0.20441556 -0.32478607 0.6224919 0.5407853 -0.029356448 0.20201802 0.56809217 0.47022074 -0.5241317 -0.2186149 0.22131649 0.47541702 0.07335211 0.70540553 0.45646477 -0.12695785 -0.031812407 0.14968197 -0.5001146 0.53918725 0.7753821
8224 -0.20851286 0.32565868 -0.37880522 -0.6067631 -0.5942649 -0.8126071 -0.2143161 -0.38128126 -0.10300879 0.280368 0.5112184 -0.20822257 0.87188965 0.76951015 0.4556059 -0.47930774 0.6502526 -0.360062 0.29648483 0.24010973 -0.1543869 0.32531285 0.22753377 0.019004604 -0.2093563 0.007858409 -0.2786963 -0.07686163 -0.25088772 0.30810645 0.14328872 0.5859003 0.41508216 0.472939 0.0738927 0.36856717 0.260573 0.33321682 -0.40512505 0.81424487 0.14714955 -0.8227111 0.2416548 -0.68716186 -0.38746792 -0.21083638 0.7238572 -0.4024893 -1.018855 -0.48743668 0.4648979 -0.38048065 -0.77950084 -0.21394621 -0.42128646 -0.84883386 0.17252126 -0.35401645 0.23322575 -0.07777104 0.059580673 -0.8036281 -0.23685996 0.16350833 0.34768808 -0.5427807 0.17257737 -0.17098702 0.07076752 -0.00025209764 0.42992038 -0.76009226 0.41717145 -0.5688028 0.40894556 0.47724092 0.26570964 -0.58716375 0.54773116 0.3386163 -0.68335223 -0.021105232 -0.30445632 -0.041157577 0.104500465 0.40747136 -0.2609024 0.5788293 -0.62810427 -1.0401917 0.32172027 -0.19733323 -1.0338653 -0.07784989 -0.41241798 -0.13614637 0.33363014 -0.42450893 0.29575324 0.22769186 0.1717304 -0.32027686 0.29080462 0.15776484 0.29267362 -0.2873453 -0.2633103 -0.29561234 -0.5444651 0.50206417 0.44749084 -0.26126644 0.015752276 0.16314611 0.18782735 0.038599014 0.3132311 0.3115306 0.01939655 -0.6491493 -0.010657057 0.54934233 0.5682485 -0.24986453 0.5985837 0.2895361 0.31231478 0.567788
648121 -0.37163234 -0.17766927 -0.9667555 0.07305982 -0.5629601 0.18093824 -0.93361884 -0.46622187 -0.076053895 0.54608124 -0.32540283 -0.23852527 0.24766092 0.13324785 0.571748 -0.54893905 1.1263409 0.7856967 -0.12932377 0.856826 -0.5488457 -0.41977727 0.12664796 0.6328293 0.092928134 0.36001036 0.04353798 -0.0701771 0.0716872 -0.3758392 -0.3741721 0.78090936 0.08771581 0.86111116 0.77701056 1.6090355 0.17298256 0.94024044 -0.5766242 0.2300835 -0.43412 -1.0290136 0.79618603 -0.47947446 0.745559 -0.4666454 0.73816407 -0.25440517 -0.14546241 -0.660779 0.3313931 0.60545206 -0.754523 0.50872844 0.09078585 -1.0084687 -0.060714133 -0.14623663 -0.24608223 -0.20921513 -0.40754694 -1.080686 0.14352323 0.31731763 -0.019353732 -0.6188724 -0.80479866 -0.67255604 -0.1297047 -0.097816035 -0.014371435 -0.23861481 -0.3449146 -0.8669143 0.2614372 0.3694857 0.12495189 -0.25848284 0.8233356 -0.09863379 -0.26613677 0.29815465 -0.0396132 0.2049511 0.10411404 0.14356019 0.3915681 0.24638528 -0.85237294 -0.9910229 0.24174686 -0.6986443 -0.66964537 -0.44153896 -0.2498068 0.24556461 0.12664028 -0.8681227 0.228827 0.23256087 0.5945005 -0.5889949 -0.40639356 -0.2621732 0.08139352 -0.5814937 -0.44622138 -0.6012392 -0.2533903 0.46867484 0.56341535 1.2748374 -0.06189801 -0.35671124 0.2537153 0.085285224 -0.04136578 -0.42103252 0.37550077 -0.09800449 0.14489798 0.65995896 -0.008481876 0.6551055 -0.51291585 -0.07472371 0.10291735 0.3135624
49753 0.2718426 -0.56170064 -1.4922186 0.2891948 -0.8060625 -0.4269341 -0.93769157 -0.4647267 0.3350532 0.26284808 -1.0854975 0.33102983 0.7412474 -0.7129463 1.2515596 -0.5740784 0.40461347 1.0619364 -0.55664736 0.928806 -0.7914555 0.33367664 0.62126136 0.41422093 -0.28890392 -0.15505947 -0.5418932 0.29902175 -0.32205853 -0.044917632 -0.30494305 0.8357722 0.3130741 0.5444918 1.0086645 0.15584475 0.26580262 0.36979565 -1.2675112 0.9084474 -0.663668 -0.3629237 0.96751475 -0.69310987 1.0321004 -1.0302247 0.5603657 -0.13603915 0.7031449 -0.8501605 -0.114773706 0.62015885 0.18547964 -0.29163983 0.04463986 -1.0031589 0.1989969 -0.29128382 -0.44553918 0.012864636 -0.35288376 -0.8208079 -0.080214486 1.330858 0.35917524 -0.7918704 -1.0768197 -0.84634215 0.24716292 -0.039638 0.14679386 -0.2280623 -0.10317384 -1.8154924 -0.4250291 -0.041148413 0.6762334 -0.6093263 0.8211948 0.32687396 -0.77664536 0.8340102 -0.7492981 0.48372683 0.44878688 0.08870858 -0.30147067 0.65452874 -1.0086594 -0.22770739 0.71316916 -1.3109443 -1.1422446 -0.44027016 -0.76224804 0.3264765 0.11156156 -2.2105634 0.24557662 0.15756069 0.5893965 0.14317966 -0.813424 -0.495145 0.005302009 -0.6855579 0.35244745 -1.0869852 -0.65391964 0.8259551 1.0655593 1.3795525 0.445058 -0.861379 1.0275826 0.21264209 -0.41438454 -1.0131707 0.15571663 -1.1011331 0.6011954 0.67464924 -0.39736715 1.5118676 -0.30713412 -0.09305144 0.3733537 0.33913267
368657 0.02747568 -0.46419397 -0.99103415 -0.44680715 -1.3438487 -0.266939 -0.9438525 -1.045767 -0.8591777 0.07752767 -0.6791282 -0.2728399 0.6097825 0.08461634 0.3311723 -0.3860541 0.9858495 0.7416896 -0.6909515 0.4686983 -0.48481858 0.096346185 0.51150054 0.64250827 -0.20221604 -0.18217374 -0.08726474 -0.05549298 -0.35977405 0.21352631 -0.30072537 1.3495498 0.023166303 0.3930139 0.59207726 0.8670622 0.78919905 0.52571535 0.4525728 1.163838 -0.5925734 -0.56868696 0.3713979 -0.12359035 -0.21592186 -0.38175657 0.47126615 -0.15579943 0.017387148 -0.12849344 0.13747069 0.6649964 -0.55002534 -0.11936335 -0.531458 -0.617537 0.41044772 -0.6517268 -0.7430903 -0.23273402 -0.30147588 -0.9606791 -0.052243285 0.6195256 1.0698168 -0.4537149 0.3749331 0.0050566946 0.47025377 0.23808956 0.022368608 -0.60552 -0.40364632 -0.9372173 -0.23671333 0.20675895 0.2708621 -0.4176811 0.6869521 0.22536777 -1.0392003 -0.30067265 -0.56185293 -0.1382006 0.66017765 -0.1558256 -0.31434748 0.34404454 -0.89525646 -1.2071403 0.46619147 -0.6405801 -0.7765431 -0.4260763 -0.90732145 0.060469214 -0.049592357 -0.78935874 -0.0023465792 0.13097726 0.5410731 -0.43247414 0.2994072 -0.5697733 0.11412681 -0.32356387 0.087847486 -0.9094513 -0.45361286 0.6665909 0.8030857 0.7469269 0.72175777 -0.03387629 0.9228543 -0.15951759 -0.18689907 -0.013311293 0.46383294 -0.647729 0.7611847 0.74710345 -0.043430135 0.89495426 0.0915365 -0.48358387 0.56003135 0.72233075
50980 0.030865952 -0.47083545 -0.9869069 -0.46094552 -1.3365116 -0.29678112 -0.9603342 -1.0295526 -0.8381794 0.106353946 -0.6894719 -0.2774152 0.6105472 0.059768252 0.32990626 -0.42080504 0.9979141 0.7202402 -0.6759565 0.51186484 -0.48456854 0.0876524 0.51229626 0.6520868 -0.17381038 -0.1695793 -0.085632116 -0.08449312 -0.3340566 0.2238339 -0.33208942 1.35005 0.0018231368 0.36781046 0.5979972 0.8821043 0.77841014 0.54197943 0.46733668 1.1686372 -0.5778266 -0.5523228 0.36932385 -0.10971281 -0.1794181 -0.407701 0.48025006 -0.1627444 0.04522376 -0.12552562 0.15009032 0.6965335 -0.56356084 -0.09348639 -0.54682565 -0.63491124 0.37727442 -0.6356102 -0.74295354 -0.24447131 -0.3246456 -0.99217814 -0.041397654 0.6219305 1.090685 -0.46047688 0.35780594 -0.020973958 0.45359108 0.23111376 0.020250851 -0.58334416 -0.426055 -0.92268854 -0.24953346 0.1861682 0.26987916 -0.36887133 0.66785693 0.20201397 -1.0473809 -0.27840117 -0.5492017 -0.115145355 0.68923104 -0.16956688 -0.27775884 0.38405457 -0.90771586 -1.1785094 0.44163072 -0.6559746 -0.7750764 -0.47021687 -0.8935253 0.030645061 -0.041209944 -0.8166037 0.0077031553 0.14423373 0.5427603 -0.444187 0.2825503 -0.58153117 0.1638027 -0.32549444 0.07438612 -0.89924884 -0.43834883 0.6533604 0.79959685 0.76382136 0.7331959 -0.044016954 0.92844343 -0.14781104 -0.19934365 -0.008174891 0.49721983 -0.6377609 0.8020368 0.770686 -0.050551474 0.92933774 0.1068066 -0.47944388 0.5663587 0.7358602
49720 0.27076527 -0.46599096 -1.4027412 0.29631102 -0.7822052 -0.4549058 -0.92418426 -0.4188818 0.390741 0.20871712 -0.9701809 0.2623582 0.6173761 -0.6893866 1.1651202 -0.56782967 0.37736315 1.0519474 -0.5156652 0.8660166 -0.6953648 0.3551723 0.66050076 0.4476951 -0.2943314 -0.1964404 -0.59181416 0.27761167 -0.29449266 -0.04358388 -0.23892653 0.80624527 0.30324623 0.46945804 0.9221858 0.19864838 0.22677226 0.36679158 -1.2479545 0.88606435 -0.652524 -0.33566013 0.89878166 -0.682316 0.9814192 -0.90262413 0.5817804 -0.11011916 0.70511585 -0.88028836 -0.086469725 0.60994095 0.1912214 -0.3009791 0.009239477 -1.0066379 0.23763822 -0.3486609 -0.39404398 0.08432967 -0.33250487 -0.8174652 -0.13139527 1.2749554 0.33468592 -0.75502545 -1.0081689 -0.85910004 0.17040154 -0.0054128426 0.12109479 -0.23614645 -0.08529756 -1.8408982 -0.42226174 -0.043648683 0.7484645 -0.5875038 0.83160144 0.32325163 -0.75614005 0.7604547 -0.73576266 0.40541416 0.46816084 0.06317935 -0.31968212 0.6155583 -1.0011717 -0.2042529 0.8025965 -1.2879031 -1.0887889 -0.479474 -0.7822983 0.34245068 0.09431289 -2.1269205 0.30329016 0.07894657 0.5806001 0.14466646 -0.81058216 -0.4666868 -0.006606702 -0.639569 0.38785774 -1.0509361 -0.6477366 0.7430829 1.0022527 1.3765663 0.4781058 -0.8475441 1.0047503 0.20795956 -0.42863873 -0.9874512 0.12750027 -1.0547936 0.57442135 0.71431214 -0.3335549 1.4475734 -0.245142 -0.09925708 0.29056054 0.33095586
73972 0.027161 -0.48571306 -0.99309283 -0.46099913 -1.346078 -0.29497367 -0.959638 -1.046803 -0.85039145 0.10652805 -0.7057025 -0.28280267 0.60600126 0.055056654 0.33188108 -0.41596144 1.00794 0.7309361 -0.686824 0.5182741 -0.4894315 0.09621715 0.5155487 0.66435397 -0.16768053 -0.16843586 -0.086164266 -0.074414 -0.32822505 0.22133122 -0.3322592 1.3607311 0.005910918 0.37252894 0.6000128 0.8979367 0.78847164 0.5512221 0.46559402 1.168578 -0.5945978 -0.5485901 0.37734276 -0.093990445 -0.17822368 -0.404224 0.48181406 -0.16167854 0.052279435 -0.1119658 0.15159574 0.7112776 -0.5651083 -0.09381301 -0.55907935 -0.6364752 0.3847696 -0.65156597 -0.76000804 -0.24945426 -0.33005187 -1.0025498 -0.037230033 0.6232832 1.1094856 -0.4542383 0.36078537 -0.021291684 0.46390983 0.23031943 0.02029362 -0.59343857 -0.4350001 -0.9334134 -0.25084147 0.18193847 0.2701044 -0.37504163 0.67057234 0.2023291 -1.0498111 -0.2781383 -0.5507971 -0.12124912 0.693115 -0.18304394 -0.2770931 0.383471 -0.90865946 -1.1917871 0.44885233 -0.6549735 -0.77725506 -0.47727776 -0.908531 0.026844196 -0.041943703 -0.81641525 -0.0007944972 0.14080074 0.5360611 -0.44365227 0.2888766 -0.5799685 0.17564346 -0.32792863 0.082804345 -0.9114057 -0.4405534 0.65627646 0.80027884 0.7676497 0.7360491 -0.03661176 0.9348939 -0.15303192 -0.1997938 -0.0075749652 0.5085128 -0.63753027 0.8139942 0.7662971 -0.057723273 0.9390887 0.09927066 -0.49049872 0.5718382 0.7424921
633031 -0.015623257 -0.5372751 -0.9819186 -0.4703015 -1.3439856 -0.2710823 -0.9701543 -1.0604513 -0.8972232 0.12379212 -0.66567314 -0.29643032 0.65426487 0.081722535 0.29603952 -0.4048437 0.9824321 0.7154 -0.6109292 0.50597215 -0.46341556 0.04040051 0.5466014 0.62625384 -0.22184065 -0.17745413 -0.10277748 -0.09069978 -0.31502053 0.19640534 -0.334561 1.3993565 0.026446817 0.38820562 0.61169034 0.8551783 0.7979019 0.5941887 0.54030275 1.1528335 -0.548974 -0.52362144 0.29252887 -0.1430983 -0.20354249 -0.37606874 0.5504194 -0.21631317 -0.0294354 -0.18545647 0.1810629 0.65917027 -0.5679064 -0.065347984 -0.51872313 -0.67252165 0.3784918 -0.624459 -0.79666114 -0.26849586 -0.2945109 -0.9794647 -0.05666253 0.56166124 1.0637863 -0.4741544 0.34821698 -0.028945355 0.44107026 0.32512972 0.06589002 -0.63538706 -0.42492294 -0.90943533 -0.26853004 0.14365408 0.26110113 -0.37120017 0.67101413 0.28847897 -0.99251926 -0.26843593 -0.55188364 -0.105261825 0.6072593 -0.20376557 -0.28464726 0.35550192 -0.9148511 -1.2427423 0.37579897 -0.5828758 -0.8485722 -0.42146474 -0.8322347 0.022458093 0.0045747133 -0.73421866 0.03243304 0.14938538 0.5163196 -0.41639215 0.36971933 -0.5429396 0.12592904 -0.3008304 0.083476685 -0.9084113 -0.38232833 0.6584493 0.7921475 0.72149694 0.79699826 0.005505806 0.94422084 -0.1385486 -0.1854953 0.006947304 0.4744465 -0.56486 0.7723571 0.7612078 -0.06789948 0.8593504 0.0917799 -0.50258976 0.5987341 0.7125742
633030 -0.007875391 -0.5315075 -0.9827905 -0.46549994 -1.3446324 -0.2794359 -0.97385216 -1.0491049 -0.89129937 0.12722737 -0.672894 -0.29690355 0.65350163 0.08015161 0.30183774 -0.4100634 0.9834302 0.71192473 -0.6210602 0.5079924 -0.46576086 0.043278333 0.5440256 0.6257414 -0.20916107 -0.17098992 -0.111899115 -0.09644794 -0.31820112 0.19835739 -0.33702406 1.3911531 0.025155371 0.39134705 0.61190724 0.8570372 0.7901221 0.5968283 0.53263646 1.1606146 -0.54527855 -0.52712154 0.30285874 -0.13578942 -0.1945665 -0.37412116 0.54470986 -0.21777573 -0.017897373 -0.18206598 0.1761914 0.66071135 -0.5713848 -0.07357783 -0.52360266 -0.6714606 0.38335544 -0.61928785 -0.7877826 -0.2657322 -0.2946301 -0.9759101 -0.05446214 0.57415926 1.0671581 -0.47841942 0.3484806 -0.039500404 0.44256073 0.31691885 0.061070897 -0.6309851 -0.42387557 -0.910627 -0.2676782 0.14106047 0.26697925 -0.37221113 0.670475 0.2852938 -0.9933556 -0.26599583 -0.5463716 -0.10101692 0.6215392 -0.1955765 -0.2850161 0.36118785 -0.91311145 -1.2335399 0.3815071 -0.59342253 -0.8505782 -0.4297213 -0.83698326 0.028079651 0.003382776 -0.7395487 0.02287736 0.15103543 0.5235767 -0.41789895 0.3662863 -0.5527934 0.13002433 -0.298796 0.07944637 -0.912592 -0.39097625 0.65129036 0.79124814 0.72941846 0.79438096 0.0028028144 0.94747573 -0.1352381 -0.18352969 -0.00062995753 0.47891045 -0.57428914 0.78234935 0.75763816 -0.06578195 0.87316597 0.09571324 -0.5038808 0.59796435 0.7143283
400455 0.029833984 -0.4678528 -0.9932883 -0.43788984 -1.336175 -0.25803727 -0.9442202 -1.046584 -0.8553367 0.08068256 -0.6976188 -0.27307612 0.6088147 0.07163844 0.33606508 -0.38467714 0.9872094 0.7379118 -0.6890803 0.47361684 -0.48739287 0.09687371 0.5174515 0.642381 -0.19772333 -0.17876086 -0.08077419 -0.053413644 -0.35363662 0.21449062 -0.30620575 1.3447416 0.020836122 0.38908556 0.5996598 0.8629018 0.7857271 0.5232413 0.4431253 1.1552013 -0.5994843 -0.5548301 0.37087542 -0.115423955 -0.20589647 -0.3841517 0.46299103 -0.15050344 0.022452587 -0.12927766 0.13600688 0.6752591 -0.54471403 -0.11833719 -0.53317297 -0.61151975 0.40232497 -0.6501788 -0.7547335 -0.23958516 -0.30882594 -0.9640547 -0.039100733 0.6236191 1.0706773 -0.45497695 0.36519256 0.0033485545 0.4728414 0.23470494 0.026727472 -0.6018351 -0.394887 -0.94050497 -0.2407616 0.20260784 0.272278 -0.40984464 0.68603516 0.21909992 -1.031811 -0.28971988 -0.5570268 -0.14356689 0.6605964 -0.17297763 -0.30918485 0.34510547 -0.89404374 -1.1987541 0.46140668 -0.6359358 -0.7695543 -0.42889863 -0.9054807 0.051523965 -0.04809147 -0.79529583 -0.008671653 0.13462791 0.5331809 -0.42889825 0.29156548 -0.569661 0.124527395 -0.32003886 0.10143716 -0.91510695 -0.44986275 0.6681985 0.80018735 0.74354094 0.71861243 -0.034321498 0.92742527 -0.15822954 -0.19484629 -0.01895309 0.4701608 -0.6434888 0.766044 0.7405161 -0.049464453 0.9006843 0.088099666 -0.4878165 0.5643044 0.7245732
643485 0.08670067 -0.5539989 -0.45278907 -0.4224765 -0.96920204 0.5226686 -0.21688372 -1.0506182 -0.9483679 0.060294107 -0.5223181 -0.15104283 0.22050093 0.20717008 -0.2936508 0.13162442 0.65585977 0.020650035 -0.7373094 -0.06154748 -0.50164074 0.18311766 0.054471977 0.40481696 -0.2562298 -0.40397012 0.023054093 -0.1657277 -0.37351295 -0.19826642 -0.5370714 0.9562812 -0.31332344 0.21587451 0.111239105 0.5853956 0.7093171 0.13374558 1.2094243 0.5525989 -0.37082505 -0.28982583 0.07578545 0.0045621525 -0.89119184 -0.2821999 0.35175163 0.2802121 -0.23394991 0.44064415 0.12898414 0.061521694 -0.3661789 0.31213683 -0.41521508 -0.031978842 0.14687134 -0.48799667 -0.7562053 -0.359719 -0.21707346 -0.4601148 -0.23090355 0.06355542 0.6375407 -0.2313578 0.74270976 0.8324766 0.21697281 0.1851791 -0.11904849 -0.6164237 -0.51227164 0.109955296 0.11801591 0.44467476 -0.46552655 -0.22624633 0.010624231 0.35539097 -0.84474117 -0.7096477 -0.4341764 -0.3404122 0.2165029 -0.108024105 -0.16560343 0.018072056 0.09006471 -1.2853531 0.030253502 -0.034906756 -0.26274633 0.23489027 -0.8503514 -0.17457548 -0.4746697 -0.0494503 0.14474857 -0.046587486 -0.13616821 -0.11809448 0.57835275 0.017209707 -0.30427617 0.14372818 -0.016645906 -0.23010395 -0.37571895 0.56517303 0.7045985 -0.10383818 0.37991583 0.7042306 0.47593036 -0.27111322 -0.19251733 0.34502405 0.39933115 -0.1656384 0.61532325 0.483325 -0.4476644 0.0525473 0.26488042 -0.5755751 0.7885592 0.6739675
6213 0.3722931 0.3559433 -0.71902204 -0.20271872 -0.20623077 -0.20198396 -0.60746104 0.07214691 -0.68420565 0.39478138 -0.28979954 0.19925117 0.03619303 0.4763313 0.9808085 -0.49000192 0.037513368 0.56126034 -0.87582844 0.20426387 -0.2289503 0.1252568 0.2707666 -0.12783672 0.07967989 0.18199109 0.061881687 0.042255584 -0.7552955 0.2119772 -0.00019316573 0.40072024 0.38803896 -0.029868798 -0.04565036 -0.020886226 -0.13393079 0.77232224 0.15814157 0.8381184 0.78941226 -0.26131558 0.43332282 -0.6542065 0.40916863 -0.355061 -0.3542251 0.45947397 -0.03489029 0.2882287 -0.7756906 0.19266517 -0.26875398 -0.23969428 0.0069760326 -0.38134995 0.5315851 0.13975148 -0.22889735 -0.018964836 -0.10875083 -0.05358602 -0.06266939 0.26498166 0.5532282 -1.1730143 0.78041947 -0.15742461 0.118622854 0.37853745 0.42563444 -0.4166587 -0.09239222 -0.32594153 -0.20886227 -0.067186944 0.67100805 -0.042860936 0.3750136 0.6154964 -0.82155824 0.06589694 0.3073537 -0.14642438 0.9645996 0.3237564 -0.7778658 0.81620765 -0.2927626 -0.95379937 0.31698775 -0.4746035 -0.6100237 0.077555075 -0.32958502 0.68192124 -0.05072613 -0.3612033 -0.8050267 0.38138163 0.6043125 -0.42941347 0.22188145 -0.59936035 -0.3077578 0.13502802 -0.74462324 -0.50211513 0.032542683 0.8171269 0.81214684 0.3257722 -0.035147175 -0.34112942 -0.032198004 -0.07645543 1.1233644 -0.42741692 -0.4548371 -0.32146984 0.32142043 0.25206447 0.20691337 0.52539694 0.49450696 0.051801126 0.22271916 -0.190916
10798 0.10642102 0.61905766 -1.4147286 0.43526414 -1.6038452 -0.19904327 -0.7005995 -0.2608464 -0.4836739 0.6735489 -0.17961507 0.2113875 0.15614961 -0.3167129 0.40278947 -0.5954256 -0.4912534 0.42363313 0.60203046 0.2079878 -0.7745999 0.17393558 0.0045511336 0.38849652 -0.19551273 -0.52694875 -0.0083180005 -0.03847227 -0.5659439 0.527872 0.5531917 1.2098736 0.6702665 0.15632673 0.17719978 0.17458779 0.6218021 0.113222316 -0.075575806 0.5325553 -0.0091926865 -0.3750169 0.12400092 -0.33942327 0.2769134 0.33857894 0.31472465 0.0132629825 -0.71650624 -0.26628536 0.16787252 -0.60191077 -0.44594845 0.786534 0.37118512 -0.12555341 -0.49763408 -0.13766836 0.11214612 0.25039905 -0.9842796 -0.7892593 0.14740154 0.43599963 0.5453319 -0.29037693 0.052697994 -0.38535047 0.55823046 -0.10150005 0.43196824 -0.35269958 -0.35452366 -0.72613657 0.050909713 0.4789203 -0.038182527 -0.41925526 0.44963405 0.37513286 -1.3533947 -0.41241986 -0.03326193 -0.052077517 0.40927762 0.3085517 -0.37496504 0.4045927 -0.8646422 -1.4449044 0.333274 -1.2773354 -0.56613976 0.11705613 -0.33889475 0.76539207 0.2865261 -0.731141 0.46723834 -0.1018744 0.1325529 0.037045505 -0.19572714 0.17854215 -0.22730367 -0.7164514 -0.66405576 -0.21770121 -0.985299 0.05273595 0.85153407 1.343398 -0.16901295 0.45030868 -0.121030115 0.39602727 -0.15026988 -0.032096356 -0.9173971 -0.27635926 -0.059235632 1.0609084 -0.76857305 0.25414744 -0.7446257 -0.34465536 -0.118719645 -0.25987548
3229 0.44131628 0.43885252 -0.46788478 -0.21513806 -0.10939679 -1.0608068 -0.7168433 -0.35199136 -0.5265303 -0.28144318 -0.30577835 -0.61625177 -0.001597269 0.50596416 0.5524351 0.10368123 -0.033452336 0.7036673 -0.5483571 -0.20494734 0.2917011 0.4760429 0.78308684 0.045899887 0.8905021 -0.34725496 -0.27103427 0.3279423 -0.10843857 -0.05231163 0.32351795 0.40173143 -0.10222261 0.5641136 -0.2695776 0.78767824 0.61501765 0.46196622 -0.7195346 0.28244936 0.448743 0.8612986 0.7770566 -0.33800265 -0.27375343 0.17739305 0.4187785 -0.023425756 0.7989615 0.50397074 0.32987347 1.0863085 -0.96356803 -0.6637465 -0.065142475 -0.47615173 0.76001406 0.014017866 -0.21613042 0.05222303 0.5377367 -0.9843775 0.48667577 0.27856874 0.32970917 -0.5370444 0.6575492 0.05168001 0.24499242 0.7144131 0.29084334 0.053207282 0.5827628 -1.2832823 0.37239137 0.12119129 0.29499432 -0.70102096 0.97271043 0.52498144 -0.143563 -0.16289696 -0.07349791 0.09144446 0.36159337 0.2873144 -0.9967611 0.29037508 -0.27605397 -0.39221776 1.1602778 -0.5861886 -0.98945475 -0.6529046 -0.46408975 0.6056895 -0.23182182 0.055082366 -0.5487612 0.806882 0.723355 0.014245599 0.12802204 -0.2528507 0.45787656 -0.06387733 -0.2728711 -0.35226583 0.15658012 0.025284847 0.65690404 0.9466297 0.63660204 -0.8112522 0.66561556 0.38268405 0.32805857 -0.049338814 0.4100353 -0.57760334 0.13966312 -0.12214973 0.49791014 0.22426452 0.07519251 -0.38132098 0.085684076 0.05960641
13686 -0.37320784 0.1334323 -0.98257095 -0.48838767 -0.5914398 -0.6666678 0.046679307 -0.20814915 -0.4201269 0.22719471 0.4111935 0.2632151 0.6038999 0.9440984 0.69529235 -0.029166952 0.26563373 -0.19724143 0.13112147 0.11145577 -0.2402528 0.70023286 0.6630566 -0.40627214 -0.060640574 -0.313641 -0.7413328 -0.24508102 -0.18846561 0.053126458 0.22776878 0.67209995 -0.015155771 0.49353045 0.07154265 0.27886057 0.44868854 0.076648556 -0.11711286 0.8082883 0.1698724 -0.5283001 0.2157446 -0.40013197 -0.14274968 -0.41920182 0.6270736 -0.2824681 -0.60666436 -0.327388 0.4968896 -0.30274174 -0.43179372 -0.36359006 0.117564194 -0.72488546 0.4595786 0.21518673 0.09630423 0.2177313 0.18524027 -0.836581 -0.13216154 0.39836353 0.20263776 -0.6442444 -0.11458773 -0.1214159 0.23053573 0.14426807 0.1302437 -0.60409695 -0.0021120938 -0.9319911 0.47475487 0.39418498 -0.33762124 -0.73814493 0.1684673 0.48485762 -0.4965526 -0.19001277 -0.73918337 -0.023132332 0.09524637 0.47101188 -0.39582893 0.2542127 -0.35193175 -0.9435516 0.17612077 -0.56525207 -1.2663491 0.28024068 -0.4963731 0.17432085 0.42033106 -0.61005497 0.3289983 0.30348945 0.30960992 0.008745434 0.20984891 0.19526209 0.048120085 -0.15692896 -0.3720307 -0.3547218 -0.53941303 0.5858431 0.7715905 0.07424725 0.532724 0.040987637 0.29219413 -0.16844025 0.3612823 0.310651 0.019083852 -0.67270577 0.17123441 0.8674608 0.18217142 -0.11984047 0.5770612 0.51041305 0.79734164 -0.005005066
35061 0.49021345 -0.49659595 -0.5056519 -0.13544528 -0.8010511 -0.82983303 -0.573211 -0.642106 -0.2590105 0.43669942 -0.4304455 -0.0006192397 0.4641981 0.3031849 0.38851354 -0.6419068 0.48412803 -0.23623548 -0.23581283 0.2889738 0.097284056 0.027897555 0.09958248 0.39421532 0.03620435 0.3086109 -0.43821564 -0.6457243 -0.3767336 0.5124389 0.17574678 0.12278775 -0.6395914 0.16936183 -0.08125774 0.16656944 0.023277428 0.27812836 0.61226845 0.80281156 0.18795066 -0.72417927 -0.007621046 -0.5324367 0.8300804 -0.08642853 0.4313401 -0.22262199 0.33702356 0.12530218 0.031362664 0.40275687 0.121124275 0.10645174 0.17556435 -0.4077866 0.28860366 0.023020195 0.16724746 -0.22143354 -0.71035105 -0.42149293 -0.8516356 0.21356125 0.865012 -0.59872806 0.30464292 -0.5664899 0.3091929 -0.083987914 -0.5364423 -0.15014713 -1.3516581 0.06143842 -0.139221 -0.5986235 0.36945415 0.25100294 0.02171881 0.22121193 -0.97792655 -0.26948348 0.1155059 0.35855743 0.7103655 0.23776165 0.40108362 0.180197 -0.007081106 0.20013244 0.503504 -0.5386033 -0.036761906 -0.34243667 0.070601135 0.0122917695 -0.37443897 -0.5146164 -0.18355075 -0.010547005 0.99551076 -0.3423125 0.2862472 -0.828723 0.11732728 -0.13525885 -0.5612563 -0.614494 -0.07292226 -0.09304576 0.53749347 0.5268297 -0.34450597 -0.7000166 -0.4050489 0.5148447 0.4161106 0.1690843 0.19947472 -0.18589881 0.8515734 0.1384195 -0.17602135 0.9919315 0.46849597 -0.37210834 0.2953363 0.20564035
12350 -0.42475498 -0.25045833 -0.26324147 -0.3059757 -0.33409023 0.511125 -0.3908344 -0.25990564 -0.3849677 -0.06059316 0.1276197 -0.39769867 0.1362317 0.15498707 0.1846741 0.23826155 0.64101154 0.35365894 -0.30208117 -0.042620078 -0.27188376 0.13748798 0.060623515 0.038935583 0.037905842 -0.29552302 -0.12552351 0.1574882 -0.07422891 0.21939917 -0.17910245 0.37114093 -0.21313637 0.27442253 -0.03317455 0.43644586 0.19091494 0.14935064 0.07248438 0.63241136 -0.5251985 -0.61779916 0.05236843 -1.0627755 -0.013926737 -0.099551216 0.86117244 -0.24952996 0.17676051 -0.43345246 -0.42844543 0.21775715 0.028336821 0.331882 -0.1473321 -0.32037154 -0.10258099 -0.40515426 -0.26761082 -0.27618003 -0.057577673 -0.69985175 -0.5673939 0.6663493 0.4090422 -0.14177209 -0.07844956 -0.15374815 -0.4630579 0.5578598 0.19834812 -0.35005367 -0.3480954 -0.6651607 0.19852464 -0.18898985 0.53605753 0.13140984 0.3207914 0.28719497 -0.6364683 -0.33488113 -0.07026404 0.21034685 0.33525068 0.22434346 0.3491245 0.58327407 -0.36588883 -0.46550313 0.35887668 -0.7841954 -0.47245666 -0.45592123 -0.6521107 0.09492124 0.04629344 -0.50004506 0.7065938 -0.16081494 -0.29269364 0.25318527 -0.38966483 -0.21969815 -0.4637846 -0.63831294 0.37017247 -0.05068608 -0.30142197 0.30783352 0.65999085 0.4903343 0.7177923 -0.09816347 0.5321689 -0.43349513 -0.25059515 -0.48626542 0.047489237 0.39965144 0.6490918 0.5726244 0.049451414 -0.4087903 0.07985826 -0.3372827 0.7639273 0.20388924
23738 -0.49620464 -0.15735804 -0.5152775 -0.95150816 -0.94445544 -0.6985407 0.09748446 -0.61570156 -0.872267 -0.15544276 0.32729086 -0.14169724 0.722916 0.71406776 0.41029385 -0.3459951 0.669544 -0.001238681 -0.03824495 0.2147337 -0.33663717 0.4241943 0.054499194 -0.26796332 -0.49021232 0.016959816 -0.4728081 -0.5312652 -0.18630931 0.42551672 0.3277837 0.26141933 0.2593792 0.36309558 -0.07242198 0.61546 0.1978431 0.071852185 0.040456865 0.6208858 0.14328662 -0.9101731 0.19156818 -0.3090689 -0.5966795 -0.36274514 0.7482473 -0.42260033 -1.088803 -0.48583153 0.36559045 -0.3037822 -0.22945808 0.09104477 -0.06430555 -1.1538131 0.038059544 -0.52651405 -0.328676 -0.21333326 -0.15827747 -0.4482146 -0.19205168 -0.26023453 -0.28350043 -0.6839867 0.83617824 0.20644794 0.44313255 0.04520039 0.45687175 -1.1053991 0.270338 -1.0463673 -0.056496225 0.1719979 -0.13418606 0.02283949 0.30617017 0.021607783 -0.25983015 -0.31597757 -0.408096 0.5400531 -0.16935696 0.45344904 -0.56962967 0.24749653 -0.5687008 -0.5929082 1.1133777 -0.69165057 -0.54329056 -0.07329065 -0.7761635 -0.37602898 0.22361316 -0.19483602 0.14625165 0.44649267 0.2152443 -0.031102572 0.06098317 0.46169865 -0.21546815 -0.8775166 -0.1013598 0.13395487 -0.34825996 0.4351904 0.32990792 0.22102441 -0.22931914 0.084099285 0.35622913 0.057088766 0.30760777 0.29392877 -0.033592727 -0.44753757 -0.0020059159 0.70024556 0.57406366 -0.33449623 0.40121245 -0.46362844 1.0189308 0.020127203
36140 -0.40306967 -0.112736605 -0.6036586 -0.5206947 -0.69469786 -0.3805713 -0.46819237 -0.5988298 -0.5884197 -0.0108395 0.2636264 -0.35373464 0.8295804 1.1513788 0.40108165 -0.8575174 0.63998705 -0.008480908 -0.09552835 0.1299739 -0.42391875 -0.18979649 0.27499607 0.48504394 -0.28127563 -0.10906502 -0.05180707 -0.15834773 0.018969316 0.2512275 0.37464008 0.73278713 0.029041423 0.31960645 0.46339616 0.6933655 0.64782476 0.23353468 -0.21619147 0.21103203 -0.11334096 -0.53556097 0.1637942 -0.5707537 -0.09030635 -0.245979 0.19149432 -0.2767438 -0.74787176 -0.09114799 -0.14361769 -0.28926167 -0.3273271 0.07802064 0.27891836 -0.37196773 0.43156305 -0.024814079 0.101594895 0.38145936 -0.5175531 -0.84526145 -0.44113213 -0.5659236 0.19300728 -0.5828584 0.2564245 -0.16042875 -0.011210629 0.07839403 0.24251634 -0.76413935 0.13115977 -0.7235967 0.10946433 0.55949473 -0.07677436 -0.6809932 0.06664188 0.18855076 -0.5924523 -0.05175959 -0.37578532 0.00072389527 -0.11822699 0.40243855 -0.019241855 0.030483974 -0.60888183 -1.1345679 0.71335 -0.30729586 -0.63062996 0.08446484 -0.6391409 0.09952646 -0.005060105 -0.22701786 0.04560408 0.560434 0.34311166 -0.3685632 0.5116011 0.2618279 -0.4808405 -0.25161195 -0.030540923 -0.6368957 -0.4048037 0.443199 0.5819353 -0.1427284 0.031993847 -0.009913774 0.10759902 -0.44139907 0.3663238 0.29581475 -0.12704095 -0.52090925 0.08869964 0.17240572 0.1648397 -0.1553493 0.6960998 0.39233962 0.27282563 0.36283115
24966 -0.25624508 0.31037477 -0.3596014 0.5234885 0.15492478 -0.6705676 -1.0449456 -1.2697607 -0.6723385 0.024296876 -0.37186494 -0.5783751 -0.77033556 -0.01286682 0.54766417 -0.011998193 0.24550113 0.36055842 -0.1421654 0.903448 -0.047355536 -0.10322456 0.33182725 0.25739354 0.096355155 -0.069438376 0.4830215 -0.11606289 -0.027998757 0.25794286 0.7715271 1.0717063 0.7925231 1.1793731 0.017508615 0.6585117 0.029935982 0.3353581 0.728001 1.1237351 0.13408287 0.7976054 0.35074326 0.7008397 -0.2481963 -0.95901394 0.7642847 -0.10941682 -0.4379702 -0.63413453 -1.0176582 0.73772144 -0.25543478 -0.110558234 0.28268087 -0.69767547 0.5183049 -0.11938972 0.03796413 0.37899467 -0.14304347 -0.67629886 -0.022196647 -0.14210209 0.063753076 -0.07601954 -0.09040506 0.22558896 0.4583 0.87869084 0.59184825 -0.091422215 0.007836162 -1.143233 -0.70209825 -0.3679933 0.5847315 -0.17374627 1.1344552 0.53663254 -0.12056883 -0.44892174 0.32410696 -0.22021987 -0.72741175 -0.7886591 -0.28353533 0.71158737 0.28381827 -0.34762138 0.43983385 -0.83053344 -0.059687372 -0.03645552 -0.32450184 1.0311617 -0.17976493 -0.12991859 -0.16649579 0.65408295 0.1746055 0.05511166 0.13778882 0.4159214 0.44578537 -0.8409979 -0.3952833 -0.82722396 -0.41585252 1.1147476 0.9865517 1.0726274 0.86116797 0.45852557 0.74969906 -0.3981627 0.78618395 -1.0534316 -0.15548912 -0.42520362 -0.09287135 0.46728036 0.07502144 0.7258489 0.31598765 -0.30576718 -0.3821297 -0.27825233
910 -0.79864883 -0.09495451 -0.6625909 -0.2747102 -0.09244296 -0.31604606 -0.72969043 -0.27866372 -0.52529603 0.10549442 -0.3431044 -0.3267821 -0.14477162 0.51845115 0.33147213 -0.33202687 0.7646934 0.9106333 -0.32320768 1.0775774 -0.12607852 -0.13562043 0.5108264 1.0636263 0.29597256 0.39266708 -0.794172 0.0356396 0.42476395 -0.40631354 0.4546495 0.41989186 0.06951718 0.289067 -0.107976764 1.1472046 -0.103305295 1.0189878 -0.21260148 0.13898647 -0.6479785 -0.12245367 0.0030549457 -0.22689728 0.11640528 -0.25099877 0.338507 0.039891366 0.22252288 -0.58402383 -0.14873701 0.27501088 -0.3530665 0.043375283 -0.22178686 -0.3335269 0.5823945 -0.90431917 -0.22149058 0.45374462 -0.45911753 -0.7456251 -0.16842249 0.04892926 -0.24670841 -0.48630178 0.3651967 -0.11034379 -0.2507712 0.80837977 -0.12363363 -0.9314843 -0.34049514 -1.230281 0.2755116 0.6136133 0.54962313 -0.3612842 0.1259661 0.5817794 0.27132723 -0.11401596 -0.40701807 0.3823543 0.08042752 -0.13011478 -0.4608283 0.2690901 -0.20127824 -1.0037514 0.65954995 0.13232307 -0.6811016 -0.19753493 -1.0067312 0.30841333 -0.005101412 -0.1819462 -0.47294593 -0.4451484 0.11491486 -0.18548235 0.55204296 -0.4271771 0.16591929 -0.087733746 -0.002094891 -0.32738668 0.7651623 0.5730475 0.02009389 0.36046723 0.2927711 0.53853697 0.30846918 -0.09627476 0.24846695 0.054414768 0.4961014 0.24564232 0.8893292 0.610248 -0.03356102 0.05134987 0.14171608 -0.38441998 0.0866032 0.23028359
273152 0.44902664 -0.45071864 -0.68714744 -0.22677423 -0.6226313 -0.5543845 -0.35919335 -0.57186025 -0.26968202 0.4712665 -0.58530223 -0.42120835 0.8472299 0.4133205 0.35928985 -0.29501897 0.5893607 0.069277436 -0.16696492 0.24592382 0.111436464 0.053976864 0.044288866 0.06251242 -0.035901558 0.07916301 0.19926718 -0.1819648 -0.6409156 0.33821237 0.27968246 0.59366965 -0.692628 0.59695596 -0.20881279 -0.024926012 0.16011468 0.19641703 1.1017556 0.6367376 -0.16248696 -0.36024997 0.16172618 -0.54978675 0.7150903 -0.16027617 0.07942533 -0.25372046 0.35084063 0.32837686 -0.3458036 0.110166706 0.29483646 -0.15792869 -0.14290173 -0.039146326 0.5587235 -0.030107073 0.26887488 -0.5404376 -0.69362533 -0.3407238 -0.7385206 0.29177776 0.9239753 -0.7174819 0.1162379 0.13922513 0.5670419 0.03931393 -0.48179388 -0.277855 -0.76052046 -0.022769649 -0.22772112 -0.29336804 -0.042203996 0.24676229 -0.15889633 -0.26864824 -1.0620635 -0.18968675 0.20918214 0.37863362 0.63244385 0.1134179 0.12415115 0.119591296 0.26143512 0.039557382 0.17495194 -0.43487892 0.15976256 -0.2430337 -0.107677 0.078624256 0.043891657 -0.4871674 -0.17294848 0.23541152 0.6319445 -0.503808 0.578369 -0.83467746 0.087293275 0.18412985 -0.89748055 -0.3831789 -0.24217083 0.13555191 1.0953121 0.28604686 0.15514718 -0.51260823 -0.11071829 -0.17955968 0.332495 0.32372102 -0.02182114 -0.70557475 0.48463878 0.1442382 -0.13104057 0.7455744 0.5206291 -0.25120273 0.26260296 -0.2531504
6151 -0.03508094 0.594684 -0.9602757 0.012663466 -0.23820944 -0.27625015 -0.78425455 0.079144925 -0.76413584 0.44970486 -0.35080343 0.24833316 0.3393552 0.46626294 0.9960136 -0.51300085 0.2200679 0.4761418 -0.87568855 0.24719393 -0.24712394 -0.094891064 0.3689939 -0.012349354 0.15717241 0.046553966 0.09342122 -0.08674536 -0.8066997 0.108935684 0.1957723 0.3874827 0.44798294 0.011670187 -0.02947125 -0.040225707 0.017238254 0.7356603 0.2678591 0.75605994 0.61181766 -0.4339246 0.30185956 -0.9008733 0.51792413 -0.2650502 -0.12360792 0.41795596 0.32027698 0.077247426 -0.44291538 0.19181949 -0.41146073 -0.077598944 0.17267233 -0.088969715 0.2273785 0.1991988 0.026344147 0.34918934 -0.057121832 0.0012196399 0.0049832864 0.15083615 0.6045615 -1.2435081 0.53398967 -0.2711523 0.23363744 0.5433281 0.15842548 0.021435237 -0.18108743 -0.6351869 -0.20477231 0.069097504 0.70934314 -0.14882337 0.4646556 0.67917836 -0.6170525 -0.5293287 0.04654475 -0.2213019 1.1668738 0.21480203 -0.7850402 0.65908915 -0.32976303 -1.0133135 0.24295966 -0.7018551 -0.6663939 0.06506878 -0.1596047 0.7782588 -0.23323013 -0.5970167 -0.8226332 0.422933 0.66522646 -0.5173769 0.2528408 -0.90579224 -0.429951 -0.045097437 -0.57420534 -0.5597871 -0.2831075 0.7335004 1.182144 0.4865393 0.05469605 -0.43644577 -0.062027715 0.2644034 0.9246744 -0.16291353 -0.21774757 -0.47864965 0.2854891 0.21840951 0.4048682 0.49494982 0.47102806 0.1616489 0.17766404 -0.23925231
198653 0.62483156 0.22396396 -1.0988325 0.19508828 -0.50014925 -0.35660544 -0.9380049 0.10668223 -0.27888906 0.3169768 -0.79871905 0.67361885 0.5988566 -0.08595231 0.56398034 -1.0098056 0.25097886 0.35450846 -0.6193052 0.24360576 -0.5882705 -0.03181374 -0.116125554 -0.057901975 -0.22643767 -0.036476694 -0.23010533 -0.3467299 -1.0929236 -0.06675904 -0.13495615 0.41087723 -0.5020112 0.5676047 0.0036611832 -0.3288651 -0.41982678 0.423418 0.7510207 0.62606204 0.20785168 -0.6639534 0.4549438 -1.0289739 0.095160894 -0.32042456 -0.006024085 -0.081362985 0.26091048 -0.32862315 -0.5913151 -0.64517725 0.048561066 0.108011 0.1612445 -0.032886244 0.49271658 0.025541395 -0.0181919 -0.34200665 -0.123394944 -0.15771295 -0.18277113 1.1901431 0.39834937 -0.8197862 -0.2073657 -0.070132405 0.376011 0.3892738 -0.038766786 -0.004364979 -0.34554452 -0.42147833 -0.27944264 0.12603869 0.09425276 -0.14198995 0.777263 0.17813906 -0.7608638 0.14892098 0.055046927 -0.048801668 0.74893546 0.29521778 -0.245904 -0.14388688 0.14730202 -0.23504528 -0.18108876 -1.0483084 -0.0034076308 0.107047155 -0.21384768 0.26955953 -0.017566793 -0.6357755 -0.2786668 -0.15597808 0.90255326 -0.7667472 -0.18702891 -1.1223314 -0.096387684 -0.36765006 -0.42044702 -0.46871868 -0.5125312 0.6077901 0.9026797 0.89674634 0.18240583 -0.41745904 -0.33846924 0.43273622 0.31610677 0.34470576 -0.08932724 -1.0483085 0.057290267 0.47472605 -0.1823078 0.51259756 0.3092153 0.046492826 0.030913316 -0.26321825
44514 0.77616256 -0.3628667 -0.8786121 -0.35012096 -0.25934502 -0.29282746 -0.16077176 -0.3739068 -0.59720737 -0.04849903 -0.28763008 0.15572566 0.85845476 0.18942475 0.28206992 -0.3537339 0.49735495 -0.2564103 -0.0035035047 0.03890133 0.117414586 0.023571167 -0.09248189 0.22105648 0.24657793 -0.096166246 0.372758 -0.4062068 -0.8692981 0.18995576 0.1649821 0.78218585 -0.56461656 0.20052172 -0.32929295 -0.12217982 -0.14030245 0.12893492 1.246183 0.6957715 0.49020487 -0.65646 0.23570435 -0.3011965 0.31079465 3.353833e-05 -0.090869084 -0.021510318 0.20103838 -0.0410366 0.09609905 -0.11956301 -0.014280411 0.10316904 -0.1314392 -0.2367924 0.529401 -0.5545759 -0.16034932 -0.3116092 -0.61082184 0.19704516 -0.7886622 0.9341675 0.8290674 -0.78489995 0.4442212 0.382905 0.5909675 0.34487054 -0.23328872 -0.4054331 -1.078064 -0.3020666 -0.28894064 -0.58929783 -0.23942892 -0.14917079 -0.62313485 0.084321536 -0.7516457 -0.52377 -0.3313117 0.5181948 0.9167453 0.03715164 -0.08963064 -0.13805358 0.3924751 -0.13570869 0.36596823 -0.3756669 0.2712463 -0.60320956 0.11905904 -0.35299543 -0.0823503 0.06954338 -0.15762745 0.13788338 0.21625921 -0.17422979 0.5588826 -0.8791771 -0.24793494 0.27319402 -1.0775234 -0.40494138 -0.67843866 0.3454776 0.7156346 0.50171113 0.07717416 -0.17288445 -0.3282898 -0.08394094 0.037967656 0.4582135 0.15712364 -0.74735 0.9951259 0.114433825 -0.32520226 0.6955143 0.5090969 -0.14745975 -0.039710913 -0.11211909
20193 0.48053044 0.22635427 -1.0672565 -0.19632687 -1.8440633 -0.21979749 -0.49319524 -0.6648461 0.42498517 0.47751117 -0.6202388 0.3720748 0.32097548 -0.9069387 0.48714074 -1.2270707 -0.67533857 0.5080411 0.40524852 -0.02483666 -0.8711689 0.5284453 0.28171775 -0.012069154 -0.5078897 -0.4222223 0.6203905 0.06790655 -0.5184327 1.0573723 -0.03602268 1.2227476 0.41891253 -0.13340747 0.62503535 -0.19357322 0.8818769 -0.28189698 -0.15661627 1.0455436 -0.32042202 -0.37859902 0.07603688 -0.4892284 0.23066999 0.053922527 0.49384975 0.23201516 -0.4791081 -0.16564523 -0.08228981 -0.16108422 0.08921748 0.20482785 -0.13844329 -0.08925479 -0.59030765 -0.7923581 -0.13358596 -0.078782946 -0.7438894 -1.017238 0.036106773 0.7434049 1.1276137 -0.35011506 0.08539576 0.04334728 0.56027466 -0.06303306 0.16002597 0.28544167 0.05244497 -0.64045507 -0.33916837 0.25854704 0.045250878 -0.19877073 0.6659453 -0.0129721165 -1.5228761 -0.16764745 -0.33086485 -0.3429188 0.95190763 -0.100309305 -0.10597861 0.34364182 -1.0760044 -1.0067575 0.38317606 -1.2956542 0.10928387 -0.7886013 -0.31619713 0.27144772 0.18000291 -0.68016887 0.74520564 -0.24552462 0.36185747 -0.39215624 -0.1621956 -0.0033357837 -0.21994118 -0.15450595 -0.07490821 -0.33776236 -0.8533715 -0.005326323 0.42793354 0.68668044 0.16115049 0.044011414 0.09274527 0.5029187 -0.5882417 -0.43107757 -0.58136463 -0.115267895 0.2965378 0.7601394 -0.8130235 0.11505226 -0.5436119 -0.40446344 -0.61880493 0.2561625
6184 -0.33661896 0.616345 -0.6625299 -0.013982539 -0.0051473165 -0.7381335 -0.59313595 -0.8407326 -0.6092577 0.87041444 0.15677343 -0.26805514 0.056860127 0.99374956 0.13647196 0.23486261 0.07698719 0.60488594 -0.52252156 0.014395451 0.82527834 -0.20583822 -0.024357606 -0.11590496 -0.1560494 -0.9446379 -0.26876482 -0.22176303 -0.18939286 0.64494014 0.26345557 0.10356308 0.20421109 0.41990715 -0.17080459 0.3258032 -0.06456748 0.65310425 -0.08245094 0.7304439 0.4215223 0.26624444 0.017921612 -0.32864708 -0.19902803 -0.37502337 0.41048655 0.2117963 0.32160655 -0.25763705 0.33360487 0.40667182 -0.43661258 -0.096695304 -0.5510526 -0.6242924 0.32603702 0.3029714 0.23020913 -0.040736206 0.19219801 -0.27782458 -0.16173196 -0.06912726 0.69521445 -0.47491008 0.25671032 -0.03263182 0.1984309 0.6640999 0.8685954 -0.43751046 0.37888268 -0.75851345 0.09074609 0.38031402 0.17271112 -0.41262227 0.87635314 0.7679717 -0.36153805 -0.576964 0.114794426 0.22159855 0.4737762 0.37622973 -0.73038906 0.44321558 -0.35433623 -0.2819655 0.761506 -0.81051904 -0.9778429 0.4756707 -0.33670545 -0.12505873 0.27616525 -0.5728037 -0.7380291 0.6053778 0.24536963 0.28814244 0.29401755 -0.37069902 -0.4769558 -0.40875402 -0.0024924346 -0.78465384 -0.2783629 -0.044036493 0.72245497 0.49136728 0.39680982 -0.38541815 0.20108141 0.24500193 0.6465792 0.48619726 -0.2359915 -1.2311264 -0.45134783 0.122109994 0.61276007 0.40507206 0.410591 0.011563981 0.51708794 -0.01917801
